<?xml version="1.0" encoding="ISO-8859-1"?>
<smile discsamples="10000" id="DAG" numsamples="10000" version="1.0">
  <nodes>
    <cpt id="actualRentalIncome">
      <state id="&lt;25k"/>
      <state id="&gt;45k"/>
      <state id="25-30k"/>
      <state id="30-35k"/>
      <state id="35-40k"/>
      <state id="40-45k"/>
      <probabilities>0.23280149694756225 0.06630124583837285 0.17996009988895725 0.1839481298556444 0.15503491259716243 0.18195411487230082 </probabilities>
    </cpt>
    <cpt id="rentalGrossProfit">
      <state id="&lt;10k"/>
      <state id="&gt;30k"/>
      <state id="10-15k"/>
      <state id="15-20k"/>
      <state id="20-25k"/>
      <state id="25-30k"/>
      <parents>actualRentalIncomeLV_1</parents>
      <probabilities>0.028557544754938186 0.008164077272515335 0.4204281522923321 0.5020643888107655 0.03262175959693361 0.008164077272515335 0.0256419850625445 0.8717900746872775 0.0256419850625445 0.0256419850625445 0.0256419850625445 0.0256419850625445 0.01041740286885458 0.01041740286885458 0.03644302202926024 0.4166787719734101 0.49480596780949415 0.031237432450126352 0.010205280009465769 0.03565726682605166 0.010205280009465769 0.02549506074345315 0.5714763601945176 0.3469607522170461 0.01197682421431172 0.3233558115125895 0.01197682421431172 0.01197682421431172 0.06584735094819918 0.5748663648962762 0.01031013764205936 0.8144717387320148 0.01031013764205936 0.01031013764205936 0.01031013764205936 0.14428771069974772 0.1666696829630145 0.16632892583477202 0.1667736180674864 0.16686603541802156 0.16703281188193358 0.16632892583477202 0.16662614247982954 0.16686928760085237 0.16662614247982954 0.16662614247982954 0.16662614247982954 0.16662614247982954 0.16647842507543836 0.16647842507543836 0.16676428980181623 0.1667555765752792 0.16680872360528554 0.1667145598667422 0.1663476158371394 0.16734540041980778 0.1663476158371394 0.16664328886260749 0.16666254024445248 0.16665353879885356 0.16651646112010335 0.16677286817072923 0.16651646112010335 0.16651646112010335 0.16686657529339993 0.16681117317556082 0.1664424021659057 0.1669127448522244 0.1664424021659057 0.1664424021659057 0.1664424021659057 0.1673176464841528 </probabilities>
    </cpt>
    <cpt id="rentalNetProfitBeforeInterest">
      <state id="&lt;15k"/>
      <state id="&gt;35k"/>
      <state id="15-20k"/>
      <state id="20-25k"/>
      <state id="25-30k"/>
      <state id="30-35k"/>
      <parents>incomeTaxrentalGrossProfit</parents>
      <probabilities>0.4801192842942347 0.09289716247966748 0.1153081510934394 0.11060907283571303 0.10383155611783847 0.09723477317910721 0.1830445896052258 0.1459812553251917 0.1811985231468333 0.17381425731326328 0.16316387389946038 0.15279750071002557 0.1830445896052258 0.1459812553251917 0.1811985231468333 0.17381425731326328 0.16316387389946038 0.15279750071002557 0.5601009328643525 0.0786052913289494 0.09756843554060256 0.09359229239944948 0.08785747056124793 0.0822755773053984 0.007765528043858065 0.24861738658955362 0.007687210072895957 0.007373938189047533 0.20086149768058315 0.5276944394240617 0.008161223740360386 0.006508718390295171 0.1482063035797951 0.6192146484152411 0.21109647845411605 0.006812627420192223 0.01133904537377505 0.02674220165731276 0.011224687274582593 0.028466369922060558 0.5941782930734179 0.32804940269885113 0.008485510776401197 0.006767342962094979 0.008399931536608165 0.4848788066304162 0.3784248153463326 0.11304359274814688 0.9120201865728703 0.015721058265789872 0.019513687108120504 0.01871845847988989 0.017571494112249578 0.016455115461079674 0.8921002288157844 0.019280543156157393 0.023931880415619486 0.022956600022506466 0.02154994560936269 0.020180801980569412 0.9030730869023148 0.0173198099538363 0.021498129864878524 0.02062203052869225 0.01935842571688513 0.01812851703339286 0.9092271766228028 0.016220139480576854 0.02013316923853703 0.01931269525702925 0.018129319322162264 0.01697750007889173 0.1575393002807895 0.010534729765735483 0.7965813367219364 0.012543296919513844 0.011774712549445595 0.011026623762579166 0.9493921427189077 0.00904308661306497 0.011224687274582592 0.010767254877812767 0.010107496613240908 0.009465331902390964 0.4807070619759703 0.008885815541533408 0.4805946927132855 0.010579998271242112 0.009931714063445415 0.009300717434523296 0.8530963750209026 0.009550175582021885 0.10531205291614795 0.011371026179372362 0.010674272124263763 0.009996098177291392 0.0126862586855107 0.010117512745310316 0.1511721748715627 0.8041257406058697 0.011308387299962601 0.010589925791783951 0.637228801106405 0.008885815541533407 0.32407295358285065 0.01057999827124211 0.009931714063445413 0.009300717434523294 0.011141844584665918 0.008885815541533408 0.7762468666263289 0.18449304174950298 0.009931714063445415 0.009300717434523296 0.05474670772358331 0.0076832239644837735 0.9117924034738935 0.009148118805961225 0.008587572310497915 0.008041973721580293 0.011543352497626853 0.009206025110597675 0.01142693389214264 0.209159457668404 0.7490283524080741 0.009635878423154767 0.012202972640348387 0.009732083688346113 0.9073179967812174 0.04968285524945565 0.01087759159329736 0.010186500047335038 0.013209403373572995 0.010534729765735483 0.013076182082761165 0.7754298948576582 0.176723166157693 0.011026623762579166 0.013487496076174534 0.010756513550277283 0.2659830490739772 0.6864915768546616 0.012022601234697082 0.011258763210212411 </probabilities>
    </cpt>
    <cpt id="netProfit">
      <state id="-5-5k"/>
      <state id="&lt;-5k"/>
      <state id="&gt;25k"/>
      <state id="10-15k"/>
      <state id="15-20k"/>
      <state id="20-25k"/>
      <state id="5-10k"/>
      <parents>interestrentalNetProfitBeforeInterest</parents>
      <probabilities>0.04757605849959375 0.009424934549065631 0.009587433420601246 0.3203033312268665 0.01036381691793807 0.009966597454184345 0.5927778279317504 0.03245701144619244 0.8167563894841372 0.027753096743845705 0.03245701144619244 0.030000522657189145 0.028850676841059943 0.03172529138138294 0.8579098850419942 0.008785955935569656 0.008937437934458788 0.01045225792335011 0.009661185262484643 0.009290895931866763 0.09496238197027586 0.8854613450527161 0.05358237021699169 0.011219336981554648 0.0131209195208012 0.012127870861416892 0.01166303957404551 0.012825117792473958 0.48722277391592184 0.41727904667328697 0.01757696127110228 0.02055610724925521 0.019000331016219795 0.0182720953326713 0.020092684541542533 0.27725711684872556 0.005399702085402184 0.005492800397219463 0.006423783515392254 0.005937603442568685 0.005710029791459781 0.693778963919232 0.06852035749751738 0.05759682224428997 0.6141454264592299 0.06852035749751738 0.06333443672073265 0.06090698444223767 0.06697561513847511 0.10278053624627606 0.08639523336643494 0.08788480635551141 0.43611386957960935 0.09500165508109897 0.09136047666335649 0.10046342270771266 0.06166832174776564 0.05183714001986097 0.6527308838133068 0.06166832174776564 0.05700099304865939 0.0548162859980139 0.060278053624627605 0.10278053624627607 0.08639523336643495 0.08788480635551142 0.10278053624627607 0.09500165508109898 0.4246938099966899 0.10046342270771268 0.10278053624627607 0.08639523336643495 0.08788480635551142 0.10278053624627607 0.09500165508109898 0.4246938099966899 0.10046342270771268 0.07708540218470705 0.06479642502482622 0.5659136047666335 0.07708540218470705 0.07125124131082423 0.06852035749751738 0.0753475670307845 0.01045225792335011 0.008785955935569656 0.008937437934458788 0.6545200545335196 0.2977967784828236 0.009290895931866763 0.010216619258411459 0.4231490676376476 0.41768730001103394 0.029294935451837138 0.03426017874875869 0.031667218360366324 0.030453492221118834 0.033487807569237554 0.08393969486323012 0.009424934549065631 0.009587433420601246 0.17484878577232105 0.01036381691793807 0.009966597454184345 0.7018687370226595 0.6813496004161347 0.012342176195204993 0.012554972336501631 0.01468293374946801 0.013571665011585568 0.013051496666193787 0.2524471556249113 0.8974752490144743 0.015708224248442714 0.01597905570100207 0.018687370226595647 0.017273028196563445 0.016610995756973907 0.018266076855947756 0.007170735086949493 0.006027574420914067 0.006131498117826378 0.7978684095055542 0.01825592942426272 0.006373986743955105 0.1581718667005381 0.01284756703078451 0.01079940417080437 0.010985600794438928 0.01284756703078451 0.553541873551804 0.38642005958291953 0.012557927838464085 0.8219306956567186 0.027282705273611034 0.027753096743845705 0.03245701144619244 0.030000522657189145 0.028850676841059943 0.03172529138138294 0.0116355324052388 0.009780592456577543 0.009949223361001293 0.8418242116505218 0.06735867793370931 0.010342695471323379 0.04910906672162785 0.059877156202876154 0.019198940748096655 0.019529956967891424 0.09691419323991318 0.021111478906910883 0.020302328147412552 0.7630659457868991 0.6114043798672452 0.027282705273611037 0.027753096743845712 0.032457011446192445 0.030000522657189152 0.02885067684105995 0.24225160717085661 0.008222442899702085 0.006911618669314796 0.0070307845084409135 0.27488910956636875 0.6476001324064878 0.04730883813306852 0.008037073816617014 0.025695134061569022 0.021598808341608742 0.2719712015888779 0.025695134061569022 0.023750413770274748 0.6061734524991725 0.025115855676928173 0.367593512082092 0.028798411122144985 0.029294935451837138 0.03426017874875869 0.031667218360366324 0.030453492221118834 0.47793225201368195 0.020556107249255218 0.01727904667328699 0.017576961271102285 0.15388944058258858 0.7190003310162199 0.05160542866600464 0.020092684541542536 0.02371858528760217 0.019937361546100377 0.020281109158964177 0.6775647391337561 0.2142311511725613 0.021083186922313042 0.023183866778702926 0.038542701092353526 0.03239821251241311 0.03295680238331678 0.2885427010923535 0.03562562065541212 0.03426017874875869 0.5376737835153922 0.011859292643801084 0.009968680773050185 0.029371323810251312 0.011859292643801084 0.18403865250935758 0.7413108242303872 0.011591933389351461 0.05139026812313804 0.04319761668321748 0.7106090698444224 0.05139026812313804 0.04750082754054949 0.04568023833167825 0.05023171135385634 0.10278053624627606 0.08639523336643494 0.08788480635551141 0.43611386957960935 0.09500165508109897 0.09136047666335649 0.10046342270771266 0.038542701092353526 0.03239821251241311 0.03295680238331678 0.038542701092353526 0.09812562065541211 0.7217601787487586 0.03767378351539225 0.044048801248404025 0.037026528585614976 0.03766491700950489 0.11547737267697544 0.6121435664633281 0.11058306142715278 0.04305575258901971 0.05606211067978695 0.04712467274532816 0.047937167103006224 0.6015166561343324 0.14272817549878125 0.04983298727092173 0.054798230567843276 0.018137741690519304 0.015246217652900284 0.7213914364156783 0.018137741690519304 0.01676499795548805 0.19259302529353348 0.017728839301361057 </probabilities>
    </cpt>
    <cpt id="rentalGrossYield">
      <state id="'&lt;2\%'"/>
      <state id="'&gt;5\%'"/>
      <state id="'2-3\%'"/>
      <state id="'3-4\%'"/>
      <state id="'4-5\%'"/>
      <parents>actualRentalIncomeLV_3</parents>
      <probabilities>0.05048042146382996 0.050085254673152335 0.2326627221653676 0.5347045846395495 0.13206701705810062 0.08817221637612531 0.645676689989519 0.08817821972921581 0.08818205004733057 0.08979082385780912 0.06602179099191977 0.1317626309653197 0.06683655863652213 0.13564204813931008 0.5997369712669283 0.05830046655117876 0.2912897443410009 0.05829749997033859 0.05924900275537857 0.5328632863821031 0.07451209050416094 0.6604161073142353 0.07451308072002408 0.0762625567045248 0.11429616475705486 0.0612487999179418 0.7540703144943447 0.06127339799875953 0.06125491203574116 0.06215257555321273 0.7091576943917501 0.022048869927079228 0.22464951858937748 0.02209246250542273 0.022051454586370475 0.07031453248601859 0.07229600085075605 0.0703185377517137 0.48564604047248944 0.30142488843902215 0.2793020301602454 0.02680823893059265 0.6402284778570695 0.026852761862301962 0.02680849118979041 0.02416604048801799 0.02416320525462968 0.7486753409336749 0.17870398652963584 0.024291426794041473 0.029976757428725857 0.030015914588096677 0.3860946871755199 0.5181067575362062 0.03580588327145138 0.029673900466887986 0.02970149255529494 0.15265217745176649 0.6961450504706225 0.0918273790554281 0.9092648460661615 0.022680222820298558 0.022680743522113633 0.022688250875450924 0.022685936715975293 0.062137835305804724 0.062171353217041994 0.7145765002410674 0.0989486757867857 0.06216563544930001 0.8949194763519173 0.026263571714756778 0.026281331821819253 0.026268521246043362 0.026267098865463367 0.6460678982212432 0.030770891349503976 0.2615956042201782 0.030783726534161022 0.030781879674913686 0.24033697957076558 0.03435619735383893 0.6564087047089437 0.034533494654713365 0.03436462371173842 0.024464947334384295 0.024472369528056714 0.9016410216961042 0.02494589846076888 0.02447576298068587 0.045718476401272835 0.03691539682245221 0.7444334694233427 0.12262485042204732 0.050307806930884824 0.08815626544195486 0.5420178984397974 0.08815745080263584 0.08821938424045594 0.193449001075156 0.05149763530963048 0.05147892271504022 0.28803963538908023 0.5368823539715977 0.07210145261465147 0.04775160825364266 0.047803120855818795 0.04818121506158154 0.600843948713619 0.255420107115338 0.04632316795661761 0.12187704016283119 0.046448916129339525 0.19390444607557636 0.5914464296756352 0.0497544752642894 0.30783956981691474 0.04979781252639091 0.050769380899098576 0.5418387614933062 </probabilities>
    </cpt>
    <cpt id="stampDutyTaxBand">
      <state id="0"/>
      <state id="1"/>
      <state id="2"/>
      <parents>rentalGrossYieldLV_3</parents>
      <probabilities>0.33220581274052335 0.33497009444227116 0.3328240928172055 0.9395884225655478 0.03055925926908025 0.02985231816537194 0.6971218219224962 0.15266500673828606 0.15021317133921772 0.8537982888220883 0.07359796527517155 0.07260374590274012 0.9064747159974346 0.046895894566399025 0.0466293894361663 0.022944859085081627 0.9531581698613338 0.023896971053584612 0.3395025655744969 0.3305335056100604 0.32996392881544273 0.013226823415930015 0.973939274039565 0.012833902544504991 0.018625710038854836 0.9624026469492065 0.018971643011938575 0.12296161370304595 0.7605081777665299 0.11653020853042424 0.009884675262891092 0.011974349172612996 0.978140975564496 0.3335092162498493 0.33333984709591 0.33315093665424067 0.013338002020287435 0.020216022336250094 0.9664459756434625 0.27650760264098595 0.3160634065688957 0.40742899079011835 0.3336134955867493 0.33335045654450374 0.33303604786874696 0.3086069203471515 0.3823706842311378 0.3090223954217108 0.6677223853562108 0.26547505911226454 0.06680255553152468 0.701424995979268 0.26123140257271005 0.03734360144802194 0.6337821943162235 0.332382946623051 0.033834859060725475 0.5490153001313002 0.4186955482188684 0.032289151649831475 </probabilities>
    </cpt>
    <cpt id="stampDutyTax">
      <state id="&lt;55k"/>
      <state id="55-900k"/>
      <parents>propertyValueT+1stampDutyTaxBand</parents>
      <probabilities>0.9924549241765432 0.00754507582345682 0.3938789088489687 0.6061210911510312 0.44608457503597454 0.5539154249640255 0.3938789088489687 0.6061210911510312 0.3938789088489687 0.6061210911510312 0.48498478156808555 0.5150152184319144 0.3938789088489687 0.6061210911510312 0.3938789088489687 0.6061210911510312 0.0041460937773575655 0.9958539062226424 0.0035272738105877792 0.9964727261894122 0.010275101969973097 0.9897248980300268 0.011699373530167386 0.9883006264698325 0.3938789088489687 0.6061210911510312 0.0027289531790921618 0.9972710468209078 0.3938789088489687 0.6061210911510312 0.3938789088489687 0.6061210911510312 0.004670500895442317 0.9953294991045577 0.3938789088489687 0.6061210911510312 </probabilities>
    </cpt>
    <cpt id="LTV">
      <state id="'&lt;20\%'"/>
      <state id="'&gt;65\%'"/>
      <state id="'20-25\%'"/>
      <state id="'25-50\%'"/>
      <state id="'50-65\%'"/>
      <parents>borrowingpropertyValueT+1stampDutyTax</parents>
      <probabilities>0.16258706467661693 0.014783226723525231 0.7914001421464109 0.016218905472636814 0.015010660980810234 0.02227571818327716 0.7263681592039801 0.02254854758465736 0.01831166746910608 0.2104959075589793 0.020925674657017942 0.015679179858284334 0.2939092416704357 0.6535655058043118 0.015920398009950248 0.02157960199004975 0.17241915422885573 0.021843905472636815 0.2677394278606965 0.5164179104477612 0.23018242122719734 0.1724709784411277 0.2330016583747927 0.1892205638474295 0.17512437810945272 0.23018242122719734 0.1724709784411277 0.2330016583747927 0.1892205638474295 0.17512437810945272 0.23018242122719734 0.1724709784411277 0.2330016583747927 0.1892205638474295 0.17512437810945272 0.23018242122719734 0.1724709784411277 0.2330016583747927 0.1892205638474295 0.17512437810945272 0.42263681592039803 0.12935323383084577 0.17475124378109452 0.14191542288557213 0.13134328358208955 0.086318407960199 0.06467661691542288 0.08737562189054726 0.19595771144278606 0.5656716417910448 0.172636815920398 0.12935323383084577 0.4247512437810945 0.14191542288557213 0.13134328358208955 0.13810945273631842 0.10348258706467661 0.1398009950248756 0.5135323383084577 0.10507462686567164 0.23018242122719734 0.1724709784411277 0.2330016583747927 0.1892205638474295 0.17512437810945272 0.23018242122719734 0.1724709784411277 0.2330016583747927 0.1892205638474295 0.17512437810945272 0.23018242122719734 0.1724709784411277 0.2330016583747927 0.1892205638474295 0.17512437810945272 0.23018242122719734 0.1724709784411277 0.2330016583747927 0.1892205638474295 0.17512437810945272 0.23018242122719734 0.1724709784411277 0.2330016583747927 0.1892205638474295 0.17512437810945272 0.23018242122719734 0.1724709784411277 0.2330016583747927 0.1892205638474295 0.17512437810945272 0.23018242122719734 0.1724709784411277 0.2330016583747927 0.1892205638474295 0.17512437810945272 0.23018242122719734 0.1724709784411277 0.2330016583747927 0.1892205638474295 0.17512437810945272 0.43773440489858406 0.03980099502487562 0.4383849980864906 0.04366628396479143 0.04041331802525832 0.03836373687119956 0.4176340519624102 0.038833609729132114 0.2537589828634605 0.2514096185737977 0.04062042727538777 0.030436055019022534 0.570529704419081 0.32750951126719346 0.030904302019315186 0.04062042727538777 0.030436055019022534 0.15876499853672812 0.5039800995024875 0.26619841966637403 0.23018242122719734 0.1724709784411277 0.2330016583747927 0.1892205638474295 0.17512437810945272 0.23018242122719734 0.1724709784411277 0.2330016583747927 0.1892205638474295 0.17512437810945272 0.23018242122719734 0.1724709784411277 0.2330016583747927 0.1892205638474295 0.17512437810945272 0.23018242122719734 0.1724709784411277 0.2330016583747927 0.1892205638474295 0.17512437810945272 0.962750762317445 0.008345369924570694 0.01127427379232868 0.00915583373455304 0.008473760231102552 0.01113785909163858 0.008345369924570694 0.9628871770181352 0.00915583373455304 0.008473760231102552 0.9615091210613599 0.008623548922056384 0.011650082918739636 0.009461028192371474 0.008756218905472636 0.5741987735739905 0.012032858961008908 0.38834895290986926 0.013201434687029966 0.012217979868101353 0.9518864013266999 0.01077943615257048 0.014562603648424544 0.011826285240464343 0.010945273631840795 0.02301824212271973 0.017247097844112765 0.08996683250414593 0.8189220563847429 0.0508457711442786 0.22023971053821798 0.011759384893713252 0.7431592039800996 0.012901402080506557 0.011940298507462687 0.016441601516228383 0.012319355602937692 0.8023572613124853 0.15637289741767355 0.012508884150675196 0.9392249279916209 0.013616129876931133 0.018394867766431 0.014938465566902329 0.013825608798114689 0.015694255992763455 0.011759384893713252 0.5158864767073722 0.44471958389868843 0.011940298507462687 0.6261499519944139 0.00907741991795409 0.345596578510954 0.009958977044601552 0.009217072532076459 0.017706340094399795 0.013266998341625206 0.9153591019262662 0.04019645362928945 0.01347110600841944 0.9538109452736319 0.010348258706467661 0.013980099502487561 0.01135323383084577 0.010507462686567165 0.013279755070799846 0.009950248756218905 0.8595962495216227 0.107070417145044 0.01010332950631458 0.825965411040038 0.012319355602937692 0.13569059464581854 0.013515754560530679 0.012508884150675196 0.21817443395268551 0.01055944765966088 0.74895928520662 0.011584932480454868 0.010721900700578739 0.6419441255262152 0.01990049751243781 0.2961155759663222 0.021833141982395714 0.02020665901262916 0.026559510141599692 0.01990049751243781 0.026884806735553005 0.3295254496747034 0.5971297359357061 0.020310213637693884 0.015218027509511267 0.9323236757389523 0.016695932104184956 0.015452151009657593 0.02227571818327716 0.01669073984914139 0.1838388701653025 0.7602471513400738 0.0169475204622051 </probabilities>
    </cpt>
    <cpt id="rentalIncome">
      <state id="&lt;25k"/>
      <state id="&gt;45k"/>
      <state id="25-30k"/>
      <state id="30-35k"/>
      <state id="35-40k"/>
      <state id="40-45k"/>
      <parents>actualRentalIncome</parents>
      <probabilities>0.7212895985608547 0.002446210685149147 0.26889613692054853 0.002456718463006317 0.002469327796434921 0.002442007574006279 0.008417123160318663 0.9579644435545003 0.008545847218845203 0.008359912467640201 0.008402820487149049 0.008309853111546549 0.00318795672829508 0.0031527456514320075 0.6844356206087725 0.30289380880926975 0.0031825396395469153 0.0031473285626838427 0.0031199469847581185 0.0030854870775347916 0.0031676607024519556 0.5737654075546721 0.4137813121272366 0.0030801855533465878 0.003690789019824272 0.0036500241453487274 0.003747232692175026 0.0036657029432239367 0.5778170096142389 0.4074292415851891 0.003153585227181386 0.4936847915204193 0.003201813378489173 0.003132150493266814 0.0031482265437027435 0.49367943283694055 </probabilities>
    </cpt>
    <cpt id="rentalIncomeT+1">
      <state id="&lt;25k"/>
      <state id="&gt;45k"/>
      <state id="25-30k"/>
      <state id="30-35k"/>
      <state id="35-40k"/>
      <state id="40-45k"/>
      <parents>actualRentalIncome</parents>
      <probabilities>0.5563027753142876 0.0026206397975781677 0.4295516541343903 0.006664032717017136 0.002454616907434883 0.002406281129291902 0.008138221033511165 0.9585580044910395 0.008474333852997128 0.008288399101792125 0.008352761131055396 0.00818828038960482 0.0030823234977058636 0.0033775548344808543 0.422828153693642 0.5589975135562647 0.008613171109582289 0.003101283308324441 0.003016567263088138 0.0033055003313452623 0.0031411530815109345 0.2644055666003976 0.6804294234592445 0.04570178926441352 0.0035684943963976397 0.12378410922477752 0.0037158750964246074 0.003634345347473518 0.2118644599281284 0.6534327160067983 0.0030490908993478488 0.8389206539737317 0.0031750199610959583 0.003105357075873599 0.0031294711515274924 0.14862040693842338 </probabilities>
    </cpt>
    <cpt id="borrowing">
      <state id="&lt;200k"/>
      <state id="&gt;400k"/>
      <state id="200-300k"/>
      <state id="300-400k"/>
      <probabilities>0.2519960060009339 0.24700599099859907 0.26696605100793835 0.2340319519925286 </probabilities>
    </cpt>
    <cpt id="interestTaxRelief">
      <state id="&lt;1k"/>
      <state id="&gt;5k"/>
      <state id="1-2k"/>
      <state id="2-3k"/>
      <state id="3-4k"/>
      <state id="4-5k"/>
      <parents>borrowinginterestRate</parents>
      <probabilities>0.9412414402474044 0.010733578328011728 0.013394381187621743 0.012109163202602568 0.011496676506616866 0.011024760527742636 0.09466909880920663 0.010954889221372794 0.8590313787378819 0.012358836670697466 0.011733721383041955 0.011252075177799185 0.9424049760840895 0.010521032222506544 0.013129145916579729 0.011869377792650041 0.011269019546089798 0.010806448438084365 0.7323921638707083 0.011939598364866978 0.21714655884915227 0.013469743337726452 0.012788437911854715 0.012263497665691247 0.7299310930533305 0.010316740334690884 0.22646644405412186 0.011638904437452953 0.011050203632573492 0.0105966144878303 0.015362371227182361 0.013800314993157935 0.3289096589295396 0.6129715215202294 0.014781441222793111 0.014174692107097674 0.13590621221126847 0.010954889221372794 0.8177942653358201 0.012358836670697466 0.011733721383041955 0.011252075177799185 0.012998929499923538 0.011677189609595176 0.937648832281039 0.013173705022611584 0.012507373342363402 0.011993970244467264 0.2183804390153922 0.010954889221372794 0.7353200385316964 0.012358836670697466 0.011733721383041955 0.011252075177799185 0.013916500994035786 0.012501461817331305 0.015600514559700619 0.5788094959653842 0.3663314232253538 0.012840603438194364 0.01271938262895744 0.01142606725239958 0.8314628358878984 0.12041728125868445 0.012238397571559888 0.011736035400500226 0.01391650099403579 0.012501461817331309 0.03912992632440651 0.9082212606712665 0.013390246754765528 0.012840603438194365 0.034976951477945516 0.011677189609595176 0.915670810303017 0.013173705022611584 0.012507373342363402 0.011993970244467264 0.015362371227182361 0.013800314993157935 0.017221347241227956 0.015568924117631873 0.5602359866773386 0.3778110557434613 0.010468164464540195 0.009403754464364257 0.277221625996235 0.6831752845757314 0.010072309505797078 0.009658860993332045 0.016204144993055367 0.014556496636618644 0.018164982706500722 0.3725863994117487 0.5635365886870558 0.014951387565020834 0.014973450436620784 0.013450939930040012 0.7003296675642349 0.2430228754057931 0.014407227520950248 0.013815839142361024 0.012451606152558336 0.24276446583655958 0.013958355132363712 0.012619022705870044 0.011980747096369154 0.7062258030762791 0.015772034459907224 0.01416832339297548 0.0176805831676607 0.6559840954274354 0.28184227965540093 0.014552683896620278 0.012998929499923538 0.011677189609595176 0.014571909204115963 0.013173705022611584 0.6718480326830227 0.275730233980731 0.015362371227182361 0.013800314993157935 0.43280576282564354 0.5090754176241254 0.014781441222793111 0.014174692107097674 0.011265738899933733 0.9053583262330778 0.012628987976900501 0.011417211019596706 0.010839723563381615 0.048490012307109726 0.012194872005082907 0.010954889221372796 0.013670553995613947 0.13607017687688305 0.8158574327232482 0.011252075177799187 0.014603735611025207 0.1118842500552242 0.016370910340426575 0.01480008835873647 0.08812556758216136 0.7542154480524261 </probabilities>
    </cpt>
    <cpt id="interest">
      <state id="&lt;5k"/>
      <state id="&gt;25k"/>
      <state id="10-15k"/>
      <state id="15-20k"/>
      <state id="20-25k"/>
      <state id="5-10k"/>
      <parents>interestTaxRelief</parents>
      <probabilities>0.9844045645696864 0.0028488585910808606 0.003213960206588885 0.0030513967135524654 0.002926142874655552 0.0035550770444357977 0.00902979072132093 0.9546765210265127 0.009151199672195834 0.008688328046985265 0.008331689253790237 0.010122471279195059 0.0017895651807761602 0.0016076009901258108 0.0018136265613580246 0.0017218925478896666 0.00165121224243044 0.9914161024774198 0.0029207471222050417 0.0026237635912917555 0.9856760670544634 0.0028102987016174557 0.002694941462337089 0.003274182068085315 0.004179867789728064 0.003754856022873361 0.0042360676927832314 0.9792868232302301 0.003856718347160852 0.004685666917224569 0.0062587438332965175 0.005622350552768047 0.006342895010887059 0.006022068646323119 0.9687378375251139 0.007016104431611389 </probabilities>
    </cpt>
    <cpt id="netProfit">
      <state id="-5-5k"/>
      <state id="&lt;-5k"/>
      <state id="&gt;25k"/>
      <state id="10-15k"/>
      <state id="15-20k"/>
      <state id="20-25k"/>
      <state id="5-10k"/>
      <parents>interestrentalNetProfitBeforeInterest</parents>
      <probabilities>0.04757605849959375 0.009424934549065631 0.009587433420601246 0.3203033312268665 0.01036381691793807 0.009966597454184345 0.5927778279317504 0.03245701144619244 0.8167563894841372 0.027753096743845705 0.03245701144619244 0.030000522657189145 0.028850676841059943 0.03172529138138294 0.8579098850419942 0.008785955935569656 0.008937437934458788 0.01045225792335011 0.009661185262484643 0.009290895931866763 0.09496238197027586 0.8854613450527161 0.05358237021699169 0.011219336981554648 0.0131209195208012 0.012127870861416892 0.01166303957404551 0.012825117792473958 0.48722277391592184 0.41727904667328697 0.01757696127110228 0.02055610724925521 0.019000331016219795 0.0182720953326713 0.020092684541542533 0.27725711684872556 0.005399702085402184 0.005492800397219463 0.006423783515392254 0.005937603442568685 0.005710029791459781 0.693778963919232 0.06852035749751738 0.05759682224428997 0.6141454264592299 0.06852035749751738 0.06333443672073265 0.06090698444223767 0.06697561513847511 0.10278053624627606 0.08639523336643494 0.08788480635551141 0.43611386957960935 0.09500165508109897 0.09136047666335649 0.10046342270771266 0.06166832174776564 0.05183714001986097 0.6527308838133068 0.06166832174776564 0.05700099304865939 0.0548162859980139 0.060278053624627605 0.10278053624627607 0.08639523336643495 0.08788480635551142 0.10278053624627607 0.09500165508109898 0.4246938099966899 0.10046342270771268 0.10278053624627607 0.08639523336643495 0.08788480635551142 0.10278053624627607 0.09500165508109898 0.4246938099966899 0.10046342270771268 0.07708540218470705 0.06479642502482622 0.5659136047666335 0.07708540218470705 0.07125124131082423 0.06852035749751738 0.0753475670307845 0.01045225792335011 0.008785955935569656 0.008937437934458788 0.6545200545335196 0.2977967784828236 0.009290895931866763 0.010216619258411459 0.4231490676376476 0.41768730001103394 0.029294935451837138 0.03426017874875869 0.031667218360366324 0.030453492221118834 0.033487807569237554 0.08393969486323012 0.009424934549065631 0.009587433420601246 0.17484878577232105 0.01036381691793807 0.009966597454184345 0.7018687370226595 0.6813496004161347 0.012342176195204993 0.012554972336501631 0.01468293374946801 0.013571665011585568 0.013051496666193787 0.2524471556249113 0.8974752490144743 0.015708224248442714 0.01597905570100207 0.018687370226595647 0.017273028196563445 0.016610995756973907 0.018266076855947756 0.007170735086949493 0.006027574420914067 0.006131498117826378 0.7978684095055542 0.01825592942426272 0.006373986743955105 0.1581718667005381 0.01284756703078451 0.01079940417080437 0.010985600794438928 0.01284756703078451 0.553541873551804 0.38642005958291953 0.012557927838464085 0.8219306956567186 0.027282705273611034 0.027753096743845705 0.03245701144619244 0.030000522657189145 0.028850676841059943 0.03172529138138294 0.0116355324052388 0.009780592456577543 0.009949223361001293 0.8418242116505218 0.06735867793370931 0.010342695471323379 0.04910906672162785 0.059877156202876154 0.019198940748096655 0.019529956967891424 0.09691419323991318 0.021111478906910883 0.020302328147412552 0.7630659457868991 0.6114043798672452 0.027282705273611037 0.027753096743845712 0.032457011446192445 0.030000522657189152 0.02885067684105995 0.24225160717085661 0.008222442899702085 0.006911618669314796 0.0070307845084409135 0.27488910956636875 0.6476001324064878 0.04730883813306852 0.008037073816617014 0.025695134061569022 0.021598808341608742 0.2719712015888779 0.025695134061569022 0.023750413770274748 0.6061734524991725 0.025115855676928173 0.367593512082092 0.028798411122144985 0.029294935451837138 0.03426017874875869 0.031667218360366324 0.030453492221118834 0.47793225201368195 0.020556107249255218 0.01727904667328699 0.017576961271102285 0.15388944058258858 0.7190003310162199 0.05160542866600464 0.020092684541542536 0.02371858528760217 0.019937361546100377 0.020281109158964177 0.6775647391337561 0.2142311511725613 0.021083186922313042 0.023183866778702926 0.038542701092353526 0.03239821251241311 0.03295680238331678 0.2885427010923535 0.03562562065541212 0.03426017874875869 0.5376737835153922 0.011859292643801084 0.009968680773050185 0.029371323810251312 0.011859292643801084 0.18403865250935758 0.7413108242303872 0.011591933389351461 0.05139026812313804 0.04319761668321748 0.7106090698444224 0.05139026812313804 0.04750082754054949 0.04568023833167825 0.05023171135385634 0.10278053624627606 0.08639523336643494 0.08788480635551141 0.43611386957960935 0.09500165508109897 0.09136047666335649 0.10046342270771266 0.038542701092353526 0.03239821251241311 0.03295680238331678 0.038542701092353526 0.09812562065541211 0.7217601787487586 0.03767378351539225 0.044048801248404025 0.037026528585614976 0.03766491700950489 0.11547737267697544 0.6121435664633281 0.11058306142715278 0.04305575258901971 0.05606211067978695 0.04712467274532816 0.047937167103006224 0.6015166561343324 0.14272817549878125 0.04983298727092173 0.054798230567843276 0.018137741690519304 0.015246217652900284 0.7213914364156783 0.018137741690519304 0.01676499795548805 0.19259302529353348 0.017728839301361057 </probabilities>
    </cpt>
    <cpt id="LTV">
      <state id="'&lt;20\%'"/>
      <state id="'&gt;65\%'"/>
      <state id="'20-25\%'"/>
      <state id="'25-50\%'"/>
      <state id="'50-65\%'"/>
      <parents>borrowingpropertyValueT+1stampDutyTax</parents>
      <probabilities>0.16258706467661693 0.014783226723525231 0.7914001421464109 0.016218905472636814 0.015010660980810234 0.02227571818327716 0.7263681592039801 0.02254854758465736 0.01831166746910608 0.2104959075589793 0.020925674657017942 0.015679179858284334 0.2939092416704357 0.6535655058043118 0.015920398009950248 0.02157960199004975 0.17241915422885573 0.021843905472636815 0.2677394278606965 0.5164179104477612 0.23018242122719734 0.1724709784411277 0.2330016583747927 0.1892205638474295 0.17512437810945272 0.23018242122719734 0.1724709784411277 0.2330016583747927 0.1892205638474295 0.17512437810945272 0.23018242122719734 0.1724709784411277 0.2330016583747927 0.1892205638474295 0.17512437810945272 0.23018242122719734 0.1724709784411277 0.2330016583747927 0.1892205638474295 0.17512437810945272 0.42263681592039803 0.12935323383084577 0.17475124378109452 0.14191542288557213 0.13134328358208955 0.086318407960199 0.06467661691542288 0.08737562189054726 0.19595771144278606 0.5656716417910448 0.172636815920398 0.12935323383084577 0.4247512437810945 0.14191542288557213 0.13134328358208955 0.13810945273631842 0.10348258706467661 0.1398009950248756 0.5135323383084577 0.10507462686567164 0.23018242122719734 0.1724709784411277 0.2330016583747927 0.1892205638474295 0.17512437810945272 0.23018242122719734 0.1724709784411277 0.2330016583747927 0.1892205638474295 0.17512437810945272 0.23018242122719734 0.1724709784411277 0.2330016583747927 0.1892205638474295 0.17512437810945272 0.23018242122719734 0.1724709784411277 0.2330016583747927 0.1892205638474295 0.17512437810945272 0.23018242122719734 0.1724709784411277 0.2330016583747927 0.1892205638474295 0.17512437810945272 0.23018242122719734 0.1724709784411277 0.2330016583747927 0.1892205638474295 0.17512437810945272 0.23018242122719734 0.1724709784411277 0.2330016583747927 0.1892205638474295 0.17512437810945272 0.23018242122719734 0.1724709784411277 0.2330016583747927 0.1892205638474295 0.17512437810945272 0.43773440489858406 0.03980099502487562 0.4383849980864906 0.04366628396479143 0.04041331802525832 0.03836373687119956 0.4176340519624102 0.038833609729132114 0.2537589828634605 0.2514096185737977 0.04062042727538777 0.030436055019022534 0.570529704419081 0.32750951126719346 0.030904302019315186 0.04062042727538777 0.030436055019022534 0.15876499853672812 0.5039800995024875 0.26619841966637403 0.23018242122719734 0.1724709784411277 0.2330016583747927 0.1892205638474295 0.17512437810945272 0.23018242122719734 0.1724709784411277 0.2330016583747927 0.1892205638474295 0.17512437810945272 0.23018242122719734 0.1724709784411277 0.2330016583747927 0.1892205638474295 0.17512437810945272 0.23018242122719734 0.1724709784411277 0.2330016583747927 0.1892205638474295 0.17512437810945272 0.962750762317445 0.008345369924570694 0.01127427379232868 0.00915583373455304 0.008473760231102552 0.01113785909163858 0.008345369924570694 0.9628871770181352 0.00915583373455304 0.008473760231102552 0.9615091210613599 0.008623548922056384 0.011650082918739636 0.009461028192371474 0.008756218905472636 0.5741987735739905 0.012032858961008908 0.38834895290986926 0.013201434687029966 0.012217979868101353 0.9518864013266999 0.01077943615257048 0.014562603648424544 0.011826285240464343 0.010945273631840795 0.02301824212271973 0.017247097844112765 0.08996683250414593 0.8189220563847429 0.0508457711442786 0.22023971053821798 0.011759384893713252 0.7431592039800996 0.012901402080506557 0.011940298507462687 0.016441601516228383 0.012319355602937692 0.8023572613124853 0.15637289741767355 0.012508884150675196 0.9392249279916209 0.013616129876931133 0.018394867766431 0.014938465566902329 0.013825608798114689 0.015694255992763455 0.011759384893713252 0.5158864767073722 0.44471958389868843 0.011940298507462687 0.6261499519944139 0.00907741991795409 0.345596578510954 0.009958977044601552 0.009217072532076459 0.017706340094399795 0.013266998341625206 0.9153591019262662 0.04019645362928945 0.01347110600841944 0.9538109452736319 0.010348258706467661 0.013980099502487561 0.01135323383084577 0.010507462686567165 0.013279755070799846 0.009950248756218905 0.8595962495216227 0.107070417145044 0.01010332950631458 0.825965411040038 0.012319355602937692 0.13569059464581854 0.013515754560530679 0.012508884150675196 0.21817443395268551 0.01055944765966088 0.74895928520662 0.011584932480454868 0.010721900700578739 0.6419441255262152 0.01990049751243781 0.2961155759663222 0.021833141982395714 0.02020665901262916 0.026559510141599692 0.01990049751243781 0.026884806735553005 0.3295254496747034 0.5971297359357061 0.020310213637693884 0.015218027509511267 0.9323236757389523 0.016695932104184956 0.015452151009657593 0.02227571818327716 0.01669073984914139 0.1838388701653025 0.7602471513400738 0.0169475204622051 </probabilities>
    </cpt>
    <cpt id="capitalGrowth">
      <state id="'&lt;3\%'"/>
      <state id="'&gt;9\%'"/>
      <state id="'3-5\%'"/>
      <state id="'5-7\%'"/>
      <state id="'7-9\%'"/>
      <probabilities>0.20099750499744548 0.20498752498722736 0.20498752498722736 0.1920199600204362 0.19700748500766357 </probabilities>
    </cpt>
    <cpt id="capitalGains">
      <state id="&lt;40k"/>
      <state id="&gt;160k"/>
      <state id="120-160k"/>
      <state id="40-80k"/>
      <state id="80-120k"/>
      <parents>capitalGrowthpropertyValueT+1</parents>
      <probabilities>0.9063681592039802 0.020696517412935326 0.02266666666666667 0.026129353233830848 0.02413930348258707 0.034694946321026446 0.027232259753862266 0.02982456140350877 0.8764859910971459 0.03176224142445666 0.9331201137171286 0.014783226723525228 0.016190476190476186 0.0186638237384506 0.017242359630419327 0.7706001243781095 0.016169154228855724 0.017708333333333336 0.17666355721393037 0.018858830845771148 0.11561756435215229 0.022496214579277526 0.024637681159420288 0.8110101665585118 0.026238373350638115 0.9268501243781095 0.016169154228855724 0.017708333333333336 0.02041355721393035 0.018858830845771148 0.01220748111295375 0.6392113506541367 0.3253086419753087 0.012096922793440207 0.01117560346416068 0.013453142451010253 0.01055944765966088 0.011564625850340135 0.9521068128744035 0.012315971164585236 0.014025616597861754 0.01100878585794432 0.012056737588652482 0.013898592145654705 0.9490102678098867 0.01373341625207297 0.010779436152570482 0.8243055555555556 0.013609038142620234 0.1375725538971808 0.9455628832581279 0.012032858961008907 0.013178294573643409 0.015191484438273745 0.014034478768945965 0.017816323786473038 0.013984133387118462 0.015315315315315315 0.017654968401237058 0.9352292591098561 0.5460889994472083 0.01437258153676064 0.01574074074074074 0.4070342730790492 0.01676340519624102 0.01938835235586772 0.015218027509511267 0.016666666666666666 0.9309774656131109 0.01774948785484343 0.025353999234596247 0.01990049751243781 0.021794871794871794 0.4866628396479143 0.44628779181017986 0.9384001047394604 0.013616129876931131 0.014912280701754382 0.017190363969625554 0.01588112071222833 0.016078145856085427 0.01261982769081422 0.5260162601626016 0.015932532459652954 0.4293532338308457 0.08310012437810946 0.01616915422885572 0.017708333333333333 0.8641635572139303 0.018858830845771144 0.019975878184833408 0.015679179858284334 0.01717171717171717 0.6258555706316901 0.321317654153475 0.017816323786473038 0.013984133387118462 0.015315315315315315 0.09873604948231814 0.854148178028775 0.9468000904568068 0.011759384893713249 0.012878787878787877 0.014846223428312978 0.013715513342379011 0.015330325118593082 0.01203285896100891 0.92015503875969 0.01519148443827375 0.037290292722434344 0.047405828002842924 0.014783226723525231 0.01619047619047619 0.9043781094527363 0.01724235963041933 0.022731171727569048 0.017841825355978728 0.01954022988505747 0.2983873734774404 0.6414993995539543 0.014648977335544499 0.011498065229408513 0.39037037037037037 0.014516307352128248 0.5689662797125483 0.9367352427053919 0.013984133387118458 0.015315315315315312 0.017654968401237054 0.016310340190937203 0.022731171727569048 0.017841825355978728 0.01954022988505747 0.5742494424429576 0.3656373305884371 0.9349778883360972 0.014372581536760638 0.015740740740740736 0.018145384190160305 0.016763405196241015 0.16169154228855723 0.014783226723525231 0.01619047619047619 0.790092395167022 0.01724235963041933 0.018311221669430625 0.01437258153676064 0.01574074074074074 0.934812050856827 0.01676340519624102 </probabilities>
    </cpt>
    <cpt id="incomeTax">
      <state id="'&lt;10\%'"/>
      <state id="'&gt;30\%'"/>
      <state id="'10-20\%'"/>
      <state id="'20-30\%'"/>
      <probabilities>0.25399201200186783 0.25399201200186783 0.23203594599159472 0.2599800300046696 </probabilities>
    </cpt>
    <cpt id="rentalNetProfitBeforeInterest">
      <state id="&lt;15k"/>
      <state id="&gt;35k"/>
      <state id="15-20k"/>
      <state id="20-25k"/>
      <state id="25-30k"/>
      <state id="30-35k"/>
      <parents>incomeTaxrentalGrossProfit</parents>
      <probabilities>0.4801192842942347 0.09289716247966748 0.1153081510934394 0.11060907283571303 0.10383155611783847 0.09723477317910721 0.1830445896052258 0.1459812553251917 0.1811985231468333 0.17381425731326328 0.16316387389946038 0.15279750071002557 0.1830445896052258 0.1459812553251917 0.1811985231468333 0.17381425731326328 0.16316387389946038 0.15279750071002557 0.5601009328643525 0.0786052913289494 0.09756843554060256 0.09359229239944948 0.08785747056124793 0.0822755773053984 0.007765528043858065 0.24861738658955362 0.007687210072895957 0.007373938189047533 0.20086149768058315 0.5276944394240617 0.008161223740360386 0.006508718390295171 0.1482063035797951 0.6192146484152411 0.21109647845411605 0.006812627420192223 0.01133904537377505 0.02674220165731276 0.011224687274582593 0.028466369922060558 0.5941782930734179 0.32804940269885113 0.008485510776401197 0.006767342962094979 0.008399931536608165 0.4848788066304162 0.3784248153463326 0.11304359274814688 0.9120201865728703 0.015721058265789872 0.019513687108120504 0.01871845847988989 0.017571494112249578 0.016455115461079674 0.8921002288157844 0.019280543156157393 0.023931880415619486 0.022956600022506466 0.02154994560936269 0.020180801980569412 0.9030730869023148 0.0173198099538363 0.021498129864878524 0.02062203052869225 0.01935842571688513 0.01812851703339286 0.9092271766228028 0.016220139480576854 0.02013316923853703 0.01931269525702925 0.018129319322162264 0.01697750007889173 0.1575393002807895 0.010534729765735483 0.7965813367219364 0.012543296919513844 0.011774712549445595 0.011026623762579166 0.9493921427189077 0.00904308661306497 0.011224687274582592 0.010767254877812767 0.010107496613240908 0.009465331902390964 0.4807070619759703 0.008885815541533408 0.4805946927132855 0.010579998271242112 0.009931714063445415 0.009300717434523296 0.8530963750209026 0.009550175582021885 0.10531205291614795 0.011371026179372362 0.010674272124263763 0.009996098177291392 0.0126862586855107 0.010117512745310316 0.1511721748715627 0.8041257406058697 0.011308387299962601 0.010589925791783951 0.637228801106405 0.008885815541533407 0.32407295358285065 0.01057999827124211 0.009931714063445413 0.009300717434523294 0.011141844584665918 0.008885815541533408 0.7762468666263289 0.18449304174950298 0.009931714063445415 0.009300717434523296 0.05474670772358331 0.0076832239644837735 0.9117924034738935 0.009148118805961225 0.008587572310497915 0.008041973721580293 0.011543352497626853 0.009206025110597675 0.01142693389214264 0.209159457668404 0.7490283524080741 0.009635878423154767 0.012202972640348387 0.009732083688346113 0.9073179967812174 0.04968285524945565 0.01087759159329736 0.010186500047335038 0.013209403373572995 0.010534729765735483 0.013076182082761165 0.7754298948576582 0.176723166157693 0.011026623762579166 0.013487496076174534 0.010756513550277283 0.2659830490739772 0.6864915768546616 0.012022601234697082 0.011258763210212411 </probabilities>
    </cpt>
    <cpt id="netProfit">
      <state id="-5-5k"/>
      <state id="&lt;-5k"/>
      <state id="&gt;25k"/>
      <state id="10-15k"/>
      <state id="15-20k"/>
      <state id="20-25k"/>
      <state id="5-10k"/>
      <parents>interestrentalNetProfitBeforeInterest</parents>
      <probabilities>0.04757605849959375 0.009424934549065631 0.009587433420601246 0.3203033312268665 0.01036381691793807 0.009966597454184345 0.5927778279317504 0.03245701144619244 0.8167563894841372 0.027753096743845705 0.03245701144619244 0.030000522657189145 0.028850676841059943 0.03172529138138294 0.8579098850419942 0.008785955935569656 0.008937437934458788 0.01045225792335011 0.009661185262484643 0.009290895931866763 0.09496238197027586 0.8854613450527161 0.05358237021699169 0.011219336981554648 0.0131209195208012 0.012127870861416892 0.01166303957404551 0.012825117792473958 0.48722277391592184 0.41727904667328697 0.01757696127110228 0.02055610724925521 0.019000331016219795 0.0182720953326713 0.020092684541542533 0.27725711684872556 0.005399702085402184 0.005492800397219463 0.006423783515392254 0.005937603442568685 0.005710029791459781 0.693778963919232 0.06852035749751738 0.05759682224428997 0.6141454264592299 0.06852035749751738 0.06333443672073265 0.06090698444223767 0.06697561513847511 0.10278053624627606 0.08639523336643494 0.08788480635551141 0.43611386957960935 0.09500165508109897 0.09136047666335649 0.10046342270771266 0.06166832174776564 0.05183714001986097 0.6527308838133068 0.06166832174776564 0.05700099304865939 0.0548162859980139 0.060278053624627605 0.10278053624627607 0.08639523336643495 0.08788480635551142 0.10278053624627607 0.09500165508109898 0.4246938099966899 0.10046342270771268 0.10278053624627607 0.08639523336643495 0.08788480635551142 0.10278053624627607 0.09500165508109898 0.4246938099966899 0.10046342270771268 0.07708540218470705 0.06479642502482622 0.5659136047666335 0.07708540218470705 0.07125124131082423 0.06852035749751738 0.0753475670307845 0.01045225792335011 0.008785955935569656 0.008937437934458788 0.6545200545335196 0.2977967784828236 0.009290895931866763 0.010216619258411459 0.4231490676376476 0.41768730001103394 0.029294935451837138 0.03426017874875869 0.031667218360366324 0.030453492221118834 0.033487807569237554 0.08393969486323012 0.009424934549065631 0.009587433420601246 0.17484878577232105 0.01036381691793807 0.009966597454184345 0.7018687370226595 0.6813496004161347 0.012342176195204993 0.012554972336501631 0.01468293374946801 0.013571665011585568 0.013051496666193787 0.2524471556249113 0.8974752490144743 0.015708224248442714 0.01597905570100207 0.018687370226595647 0.017273028196563445 0.016610995756973907 0.018266076855947756 0.007170735086949493 0.006027574420914067 0.006131498117826378 0.7978684095055542 0.01825592942426272 0.006373986743955105 0.1581718667005381 0.01284756703078451 0.01079940417080437 0.010985600794438928 0.01284756703078451 0.553541873551804 0.38642005958291953 0.012557927838464085 0.8219306956567186 0.027282705273611034 0.027753096743845705 0.03245701144619244 0.030000522657189145 0.028850676841059943 0.03172529138138294 0.0116355324052388 0.009780592456577543 0.009949223361001293 0.8418242116505218 0.06735867793370931 0.010342695471323379 0.04910906672162785 0.059877156202876154 0.019198940748096655 0.019529956967891424 0.09691419323991318 0.021111478906910883 0.020302328147412552 0.7630659457868991 0.6114043798672452 0.027282705273611037 0.027753096743845712 0.032457011446192445 0.030000522657189152 0.02885067684105995 0.24225160717085661 0.008222442899702085 0.006911618669314796 0.0070307845084409135 0.27488910956636875 0.6476001324064878 0.04730883813306852 0.008037073816617014 0.025695134061569022 0.021598808341608742 0.2719712015888779 0.025695134061569022 0.023750413770274748 0.6061734524991725 0.025115855676928173 0.367593512082092 0.028798411122144985 0.029294935451837138 0.03426017874875869 0.031667218360366324 0.030453492221118834 0.47793225201368195 0.020556107249255218 0.01727904667328699 0.017576961271102285 0.15388944058258858 0.7190003310162199 0.05160542866600464 0.020092684541542536 0.02371858528760217 0.019937361546100377 0.020281109158964177 0.6775647391337561 0.2142311511725613 0.021083186922313042 0.023183866778702926 0.038542701092353526 0.03239821251241311 0.03295680238331678 0.2885427010923535 0.03562562065541212 0.03426017874875869 0.5376737835153922 0.011859292643801084 0.009968680773050185 0.029371323810251312 0.011859292643801084 0.18403865250935758 0.7413108242303872 0.011591933389351461 0.05139026812313804 0.04319761668321748 0.7106090698444224 0.05139026812313804 0.04750082754054949 0.04568023833167825 0.05023171135385634 0.10278053624627606 0.08639523336643494 0.08788480635551141 0.43611386957960935 0.09500165508109897 0.09136047666335649 0.10046342270771266 0.038542701092353526 0.03239821251241311 0.03295680238331678 0.038542701092353526 0.09812562065541211 0.7217601787487586 0.03767378351539225 0.044048801248404025 0.037026528585614976 0.03766491700950489 0.11547737267697544 0.6121435664633281 0.11058306142715278 0.04305575258901971 0.05606211067978695 0.04712467274532816 0.047937167103006224 0.6015166561343324 0.14272817549878125 0.04983298727092173 0.054798230567843276 0.018137741690519304 0.015246217652900284 0.7213914364156783 0.018137741690519304 0.01676499795548805 0.19259302529353348 0.017728839301361057 </probabilities>
    </cpt>
    <cpt id="interestRate">
      <state id="1"/>
      <state id="2"/>
      <state id="3"/>
      <state id="4"/>
      <state id="5"/>
      <state id="6"/>
      <probabilities>0.17896309239728544 0.16999002497223933 0.16600199500555213 0.16301097253053676 0.1560319200888342 0.16600199500555213 </probabilities>
    </cpt>
    <cpt id="interestTaxRelief">
      <state id="&lt;1k"/>
      <state id="&gt;5k"/>
      <state id="1-2k"/>
      <state id="2-3k"/>
      <state id="3-4k"/>
      <state id="4-5k"/>
      <parents>borrowinginterestRate</parents>
      <probabilities>0.9412414402474044 0.010733578328011728 0.013394381187621743 0.012109163202602568 0.011496676506616866 0.011024760527742636 0.09466909880920663 0.010954889221372794 0.8590313787378819 0.012358836670697466 0.011733721383041955 0.011252075177799185 0.9424049760840895 0.010521032222506544 0.013129145916579729 0.011869377792650041 0.011269019546089798 0.010806448438084365 0.7323921638707083 0.011939598364866978 0.21714655884915227 0.013469743337726452 0.012788437911854715 0.012263497665691247 0.7299310930533305 0.010316740334690884 0.22646644405412186 0.011638904437452953 0.011050203632573492 0.0105966144878303 0.015362371227182361 0.013800314993157935 0.3289096589295396 0.6129715215202294 0.014781441222793111 0.014174692107097674 0.13590621221126847 0.010954889221372794 0.8177942653358201 0.012358836670697466 0.011733721383041955 0.011252075177799185 0.012998929499923538 0.011677189609595176 0.937648832281039 0.013173705022611584 0.012507373342363402 0.011993970244467264 0.2183804390153922 0.010954889221372794 0.7353200385316964 0.012358836670697466 0.011733721383041955 0.011252075177799185 0.013916500994035786 0.012501461817331305 0.015600514559700619 0.5788094959653842 0.3663314232253538 0.012840603438194364 0.01271938262895744 0.01142606725239958 0.8314628358878984 0.12041728125868445 0.012238397571559888 0.011736035400500226 0.01391650099403579 0.012501461817331309 0.03912992632440651 0.9082212606712665 0.013390246754765528 0.012840603438194365 0.034976951477945516 0.011677189609595176 0.915670810303017 0.013173705022611584 0.012507373342363402 0.011993970244467264 0.015362371227182361 0.013800314993157935 0.017221347241227956 0.015568924117631873 0.5602359866773386 0.3778110557434613 0.010468164464540195 0.009403754464364257 0.277221625996235 0.6831752845757314 0.010072309505797078 0.009658860993332045 0.016204144993055367 0.014556496636618644 0.018164982706500722 0.3725863994117487 0.5635365886870558 0.014951387565020834 0.014973450436620784 0.013450939930040012 0.7003296675642349 0.2430228754057931 0.014407227520950248 0.013815839142361024 0.012451606152558336 0.24276446583655958 0.013958355132363712 0.012619022705870044 0.011980747096369154 0.7062258030762791 0.015772034459907224 0.01416832339297548 0.0176805831676607 0.6559840954274354 0.28184227965540093 0.014552683896620278 0.012998929499923538 0.011677189609595176 0.014571909204115963 0.013173705022611584 0.6718480326830227 0.275730233980731 0.015362371227182361 0.013800314993157935 0.43280576282564354 0.5090754176241254 0.014781441222793111 0.014174692107097674 0.011265738899933733 0.9053583262330778 0.012628987976900501 0.011417211019596706 0.010839723563381615 0.048490012307109726 0.012194872005082907 0.010954889221372796 0.013670553995613947 0.13607017687688305 0.8158574327232482 0.011252075177799187 0.014603735611025207 0.1118842500552242 0.016370910340426575 0.01480008835873647 0.08812556758216136 0.7542154480524261 </probabilities>
    </cpt>
    <cpt id="interest">
      <state id="&lt;5k"/>
      <state id="&gt;25k"/>
      <state id="10-15k"/>
      <state id="15-20k"/>
      <state id="20-25k"/>
      <state id="5-10k"/>
      <parents>interestTaxRelief</parents>
      <probabilities>0.9844045645696864 0.0028488585910808606 0.003213960206588885 0.0030513967135524654 0.002926142874655552 0.0035550770444357977 0.00902979072132093 0.9546765210265127 0.009151199672195834 0.008688328046985265 0.008331689253790237 0.010122471279195059 0.0017895651807761602 0.0016076009901258108 0.0018136265613580246 0.0017218925478896666 0.00165121224243044 0.9914161024774198 0.0029207471222050417 0.0026237635912917555 0.9856760670544634 0.0028102987016174557 0.002694941462337089 0.003274182068085315 0.004179867789728064 0.003754856022873361 0.0042360676927832314 0.9792868232302301 0.003856718347160852 0.004685666917224569 0.0062587438332965175 0.005622350552768047 0.006342895010887059 0.006022068646323119 0.9687378375251139 0.007016104431611389 </probabilities>
    </cpt>
    <cpt id="netProfit">
      <state id="-5-5k"/>
      <state id="&lt;-5k"/>
      <state id="&gt;25k"/>
      <state id="10-15k"/>
      <state id="15-20k"/>
      <state id="20-25k"/>
      <state id="5-10k"/>
      <parents>interestrentalNetProfitBeforeInterest</parents>
      <probabilities>0.04757605849959375 0.009424934549065631 0.009587433420601246 0.3203033312268665 0.01036381691793807 0.009966597454184345 0.5927778279317504 0.03245701144619244 0.8167563894841372 0.027753096743845705 0.03245701144619244 0.030000522657189145 0.028850676841059943 0.03172529138138294 0.8579098850419942 0.008785955935569656 0.008937437934458788 0.01045225792335011 0.009661185262484643 0.009290895931866763 0.09496238197027586 0.8854613450527161 0.05358237021699169 0.011219336981554648 0.0131209195208012 0.012127870861416892 0.01166303957404551 0.012825117792473958 0.48722277391592184 0.41727904667328697 0.01757696127110228 0.02055610724925521 0.019000331016219795 0.0182720953326713 0.020092684541542533 0.27725711684872556 0.005399702085402184 0.005492800397219463 0.006423783515392254 0.005937603442568685 0.005710029791459781 0.693778963919232 0.06852035749751738 0.05759682224428997 0.6141454264592299 0.06852035749751738 0.06333443672073265 0.06090698444223767 0.06697561513847511 0.10278053624627606 0.08639523336643494 0.08788480635551141 0.43611386957960935 0.09500165508109897 0.09136047666335649 0.10046342270771266 0.06166832174776564 0.05183714001986097 0.6527308838133068 0.06166832174776564 0.05700099304865939 0.0548162859980139 0.060278053624627605 0.10278053624627607 0.08639523336643495 0.08788480635551142 0.10278053624627607 0.09500165508109898 0.4246938099966899 0.10046342270771268 0.10278053624627607 0.08639523336643495 0.08788480635551142 0.10278053624627607 0.09500165508109898 0.4246938099966899 0.10046342270771268 0.07708540218470705 0.06479642502482622 0.5659136047666335 0.07708540218470705 0.07125124131082423 0.06852035749751738 0.0753475670307845 0.01045225792335011 0.008785955935569656 0.008937437934458788 0.6545200545335196 0.2977967784828236 0.009290895931866763 0.010216619258411459 0.4231490676376476 0.41768730001103394 0.029294935451837138 0.03426017874875869 0.031667218360366324 0.030453492221118834 0.033487807569237554 0.08393969486323012 0.009424934549065631 0.009587433420601246 0.17484878577232105 0.01036381691793807 0.009966597454184345 0.7018687370226595 0.6813496004161347 0.012342176195204993 0.012554972336501631 0.01468293374946801 0.013571665011585568 0.013051496666193787 0.2524471556249113 0.8974752490144743 0.015708224248442714 0.01597905570100207 0.018687370226595647 0.017273028196563445 0.016610995756973907 0.018266076855947756 0.007170735086949493 0.006027574420914067 0.006131498117826378 0.7978684095055542 0.01825592942426272 0.006373986743955105 0.1581718667005381 0.01284756703078451 0.01079940417080437 0.010985600794438928 0.01284756703078451 0.553541873551804 0.38642005958291953 0.012557927838464085 0.8219306956567186 0.027282705273611034 0.027753096743845705 0.03245701144619244 0.030000522657189145 0.028850676841059943 0.03172529138138294 0.0116355324052388 0.009780592456577543 0.009949223361001293 0.8418242116505218 0.06735867793370931 0.010342695471323379 0.04910906672162785 0.059877156202876154 0.019198940748096655 0.019529956967891424 0.09691419323991318 0.021111478906910883 0.020302328147412552 0.7630659457868991 0.6114043798672452 0.027282705273611037 0.027753096743845712 0.032457011446192445 0.030000522657189152 0.02885067684105995 0.24225160717085661 0.008222442899702085 0.006911618669314796 0.0070307845084409135 0.27488910956636875 0.6476001324064878 0.04730883813306852 0.008037073816617014 0.025695134061569022 0.021598808341608742 0.2719712015888779 0.025695134061569022 0.023750413770274748 0.6061734524991725 0.025115855676928173 0.367593512082092 0.028798411122144985 0.029294935451837138 0.03426017874875869 0.031667218360366324 0.030453492221118834 0.47793225201368195 0.020556107249255218 0.01727904667328699 0.017576961271102285 0.15388944058258858 0.7190003310162199 0.05160542866600464 0.020092684541542536 0.02371858528760217 0.019937361546100377 0.020281109158964177 0.6775647391337561 0.2142311511725613 0.021083186922313042 0.023183866778702926 0.038542701092353526 0.03239821251241311 0.03295680238331678 0.2885427010923535 0.03562562065541212 0.03426017874875869 0.5376737835153922 0.011859292643801084 0.009968680773050185 0.029371323810251312 0.011859292643801084 0.18403865250935758 0.7413108242303872 0.011591933389351461 0.05139026812313804 0.04319761668321748 0.7106090698444224 0.05139026812313804 0.04750082754054949 0.04568023833167825 0.05023171135385634 0.10278053624627606 0.08639523336643494 0.08788480635551141 0.43611386957960935 0.09500165508109897 0.09136047666335649 0.10046342270771266 0.038542701092353526 0.03239821251241311 0.03295680238331678 0.038542701092353526 0.09812562065541211 0.7217601787487586 0.03767378351539225 0.044048801248404025 0.037026528585614976 0.03766491700950489 0.11547737267697544 0.6121435664633281 0.11058306142715278 0.04305575258901971 0.05606211067978695 0.04712467274532816 0.047937167103006224 0.6015166561343324 0.14272817549878125 0.04983298727092173 0.054798230567843276 0.018137741690519304 0.015246217652900284 0.7213914364156783 0.018137741690519304 0.01676499795548805 0.19259302529353348 0.017728839301361057 </probabilities>
    </cpt>
    <cpt id="otherInterestFees">
      <state id="&lt;1k"/>
      <state id="&gt;1.5k"/>
      <state id="1-1.5k"/>
      <probabilities>0.34897652352324265 0.3290064934935712 0.3220169829831862 </probabilities>
    </cpt>
    <cpt id="otherPropertyExpensesT+1">
      <state id="&lt;3k"/>
      <state id="&gt;5k"/>
      <state id="3-5k"/>
      <probabilities>0.3359960040039562 0.3689465535529141 0.2950574424431297 </probabilities>
    </cpt>
    <cpt id="otherPropertyExpenses">
      <state id="&lt;3k"/>
      <state id="&gt;5k"/>
      <state id="3-5k"/>
      <parents>otherPropertyExpensesT+1</parents>
      <probabilities>0.996090131970951 0.0019630457739208407 0.0019468222551281063 0.0018287455692222521 0.8831900524840571 0.11498120194672047 0.0729914633204763 0.002234038624866143 0.9247744980546576 </probabilities>
    </cpt>
    <cpt id="propertyExpenses">
      <state id="&lt;5k"/>
      <state id="&gt;9k"/>
      <state id="5-8k"/>
      <state id="8-9k"/>
      <parents>otherPropertyExpensesLV_1LV_2</parents>
      <probabilities>0.649507571947281 0.0115381856630177 0.3260016746015269 0.012952567788174354 0.01179629855089261 0.012662208496908757 0.28178608106814795 0.6937554118840508 0.08078392479630403 0.01357133184020762 0.8542582861749074 0.05138645718858106 0.25094818373809735 0.2495788688406267 0.24989247647261562 0.24958047094866043 0.24976829388095598 0.2497709469477865 0.25023968853225315 0.2502210706390043 0.25152633720747364 0.24931089277050195 0.24976572381529571 0.2493970462067287 0.012041519301242882 0.030030458759732714 0.6786599076463863 0.2792681142926381 0.011532123035886698 0.4834284434222577 0.012805637255009043 0.49223379628684666 0.010891040900557411 0.15780986318505702 0.17581561191824502 0.6554834839961406 0.24959615548565806 0.25019747416410787 0.25020154112197623 0.25000482922825795 0.24939938723550067 0.2510015537290333 0.24940220016943496 0.250196858866031 0.24951988205155046 0.25040757508449957 0.24985221342522884 0.250220329438721 </probabilities>
    </cpt>
    <cpt id="propertyExpensesGrowth">
      <state id="'&lt;3\%'"/>
      <state id="'&gt;9\%'"/>
      <state id="'3-5\%'"/>
      <state id="'5-7\%'"/>
      <state id="'7-9\%'"/>
      <probabilities>0.19800499000510907 0.1990024950025545 0.19800499000510907 0.2149625749616821 0.19002495002554526 </probabilities>
    </cpt>
    <cpt id="rentalGrowth">
      <state id="'&lt;3\%'"/>
      <state id="'&gt;9\%'"/>
      <state id="'3-5\%'"/>
      <state id="'5-7\%'"/>
      <state id="'7-9\%'"/>
      <probabilities>0.19700748500766357 0.19401497001532714 0.20997504997445476 0.21396506996423664 0.18503742503831788 </probabilities>
    </cpt>
    <cpt id="rentalIncomeLoss\%">
      <state id="'&lt;3\%'"/>
      <state id="'&gt;9\%'"/>
      <state id="'3-5\%'"/>
      <state id="'5-7\%'"/>
      <state id="'7-9\%'"/>
      <probabilities>0.2039900199897819 0.20997504997445476 0.21895259495146402 0.1800499000510905 0.18703243503320885 </probabilities>
    </cpt>
    <cpt id="LV_1">
      <state id="0"/>
      <state id="1"/>
      <probabilities>0.9979174671685885 0.0020825328314114464 </probabilities>
    </cpt>
    <cpt id="propertyExpenses">
      <state id="&lt;5k"/>
      <state id="&gt;9k"/>
      <state id="5-8k"/>
      <state id="8-9k"/>
      <parents>otherPropertyExpensesLV_1LV_2</parents>
      <probabilities>0.649507571947281 0.0115381856630177 0.3260016746015269 0.012952567788174354 0.01179629855089261 0.012662208496908757 0.28178608106814795 0.6937554118840508 0.08078392479630403 0.01357133184020762 0.8542582861749074 0.05138645718858106 0.25094818373809735 0.2495788688406267 0.24989247647261562 0.24958047094866043 0.24976829388095598 0.2497709469477865 0.25023968853225315 0.2502210706390043 0.25152633720747364 0.24931089277050195 0.24976572381529571 0.2493970462067287 0.012041519301242882 0.030030458759732714 0.6786599076463863 0.2792681142926381 0.011532123035886698 0.4834284434222577 0.012805637255009043 0.49223379628684666 0.010891040900557411 0.15780986318505702 0.17581561191824502 0.6554834839961406 0.24959615548565806 0.25019747416410787 0.25020154112197623 0.25000482922825795 0.24939938723550067 0.2510015537290333 0.24940220016943496 0.250196858866031 0.24951988205155046 0.25040757508449957 0.24985221342522884 0.250220329438721 </probabilities>
    </cpt>
    <cpt id="rentalGrossProfit">
      <state id="&lt;10k"/>
      <state id="&gt;30k"/>
      <state id="10-15k"/>
      <state id="15-20k"/>
      <state id="20-25k"/>
      <state id="25-30k"/>
      <parents>actualRentalIncomeLV_1</parents>
      <probabilities>0.028557544754938186 0.008164077272515335 0.4204281522923321 0.5020643888107655 0.03262175959693361 0.008164077272515335 0.0256419850625445 0.8717900746872775 0.0256419850625445 0.0256419850625445 0.0256419850625445 0.0256419850625445 0.01041740286885458 0.01041740286885458 0.03644302202926024 0.4166787719734101 0.49480596780949415 0.031237432450126352 0.010205280009465769 0.03565726682605166 0.010205280009465769 0.02549506074345315 0.5714763601945176 0.3469607522170461 0.01197682421431172 0.3233558115125895 0.01197682421431172 0.01197682421431172 0.06584735094819918 0.5748663648962762 0.01031013764205936 0.8144717387320148 0.01031013764205936 0.01031013764205936 0.01031013764205936 0.14428771069974772 0.1666696829630145 0.16632892583477202 0.1667736180674864 0.16686603541802156 0.16703281188193358 0.16632892583477202 0.16662614247982954 0.16686928760085237 0.16662614247982954 0.16662614247982954 0.16662614247982954 0.16662614247982954 0.16647842507543836 0.16647842507543836 0.16676428980181623 0.1667555765752792 0.16680872360528554 0.1667145598667422 0.1663476158371394 0.16734540041980778 0.1663476158371394 0.16664328886260749 0.16666254024445248 0.16665353879885356 0.16651646112010335 0.16677286817072923 0.16651646112010335 0.16651646112010335 0.16686657529339993 0.16681117317556082 0.1664424021659057 0.1669127448522244 0.1664424021659057 0.1664424021659057 0.1664424021659057 0.1673176464841528 </probabilities>
    </cpt>
    <cpt id="rentalNetProfitBeforeInterest">
      <state id="&lt;15k"/>
      <state id="&gt;35k"/>
      <state id="15-20k"/>
      <state id="20-25k"/>
      <state id="25-30k"/>
      <state id="30-35k"/>
      <parents>incomeTaxrentalGrossProfit</parents>
      <probabilities>0.4801192842942347 0.09289716247966748 0.1153081510934394 0.11060907283571303 0.10383155611783847 0.09723477317910721 0.1830445896052258 0.1459812553251917 0.1811985231468333 0.17381425731326328 0.16316387389946038 0.15279750071002557 0.1830445896052258 0.1459812553251917 0.1811985231468333 0.17381425731326328 0.16316387389946038 0.15279750071002557 0.5601009328643525 0.0786052913289494 0.09756843554060256 0.09359229239944948 0.08785747056124793 0.0822755773053984 0.007765528043858065 0.24861738658955362 0.007687210072895957 0.007373938189047533 0.20086149768058315 0.5276944394240617 0.008161223740360386 0.006508718390295171 0.1482063035797951 0.6192146484152411 0.21109647845411605 0.006812627420192223 0.01133904537377505 0.02674220165731276 0.011224687274582593 0.028466369922060558 0.5941782930734179 0.32804940269885113 0.008485510776401197 0.006767342962094979 0.008399931536608165 0.4848788066304162 0.3784248153463326 0.11304359274814688 0.9120201865728703 0.015721058265789872 0.019513687108120504 0.01871845847988989 0.017571494112249578 0.016455115461079674 0.8921002288157844 0.019280543156157393 0.023931880415619486 0.022956600022506466 0.02154994560936269 0.020180801980569412 0.9030730869023148 0.0173198099538363 0.021498129864878524 0.02062203052869225 0.01935842571688513 0.01812851703339286 0.9092271766228028 0.016220139480576854 0.02013316923853703 0.01931269525702925 0.018129319322162264 0.01697750007889173 0.1575393002807895 0.010534729765735483 0.7965813367219364 0.012543296919513844 0.011774712549445595 0.011026623762579166 0.9493921427189077 0.00904308661306497 0.011224687274582592 0.010767254877812767 0.010107496613240908 0.009465331902390964 0.4807070619759703 0.008885815541533408 0.4805946927132855 0.010579998271242112 0.009931714063445415 0.009300717434523296 0.8530963750209026 0.009550175582021885 0.10531205291614795 0.011371026179372362 0.010674272124263763 0.009996098177291392 0.0126862586855107 0.010117512745310316 0.1511721748715627 0.8041257406058697 0.011308387299962601 0.010589925791783951 0.637228801106405 0.008885815541533407 0.32407295358285065 0.01057999827124211 0.009931714063445413 0.009300717434523294 0.011141844584665918 0.008885815541533408 0.7762468666263289 0.18449304174950298 0.009931714063445415 0.009300717434523296 0.05474670772358331 0.0076832239644837735 0.9117924034738935 0.009148118805961225 0.008587572310497915 0.008041973721580293 0.011543352497626853 0.009206025110597675 0.01142693389214264 0.209159457668404 0.7490283524080741 0.009635878423154767 0.012202972640348387 0.009732083688346113 0.9073179967812174 0.04968285524945565 0.01087759159329736 0.010186500047335038 0.013209403373572995 0.010534729765735483 0.013076182082761165 0.7754298948576582 0.176723166157693 0.011026623762579166 0.013487496076174534 0.010756513550277283 0.2659830490739772 0.6864915768546616 0.012022601234697082 0.011258763210212411 </probabilities>
    </cpt>
    <cpt id="netProfit">
      <state id="-5-5k"/>
      <state id="&lt;-5k"/>
      <state id="&gt;25k"/>
      <state id="10-15k"/>
      <state id="15-20k"/>
      <state id="20-25k"/>
      <state id="5-10k"/>
      <parents>interestrentalNetProfitBeforeInterest</parents>
      <probabilities>0.04757605849959375 0.009424934549065631 0.009587433420601246 0.3203033312268665 0.01036381691793807 0.009966597454184345 0.5927778279317504 0.03245701144619244 0.8167563894841372 0.027753096743845705 0.03245701144619244 0.030000522657189145 0.028850676841059943 0.03172529138138294 0.8579098850419942 0.008785955935569656 0.008937437934458788 0.01045225792335011 0.009661185262484643 0.009290895931866763 0.09496238197027586 0.8854613450527161 0.05358237021699169 0.011219336981554648 0.0131209195208012 0.012127870861416892 0.01166303957404551 0.012825117792473958 0.48722277391592184 0.41727904667328697 0.01757696127110228 0.02055610724925521 0.019000331016219795 0.0182720953326713 0.020092684541542533 0.27725711684872556 0.005399702085402184 0.005492800397219463 0.006423783515392254 0.005937603442568685 0.005710029791459781 0.693778963919232 0.06852035749751738 0.05759682224428997 0.6141454264592299 0.06852035749751738 0.06333443672073265 0.06090698444223767 0.06697561513847511 0.10278053624627606 0.08639523336643494 0.08788480635551141 0.43611386957960935 0.09500165508109897 0.09136047666335649 0.10046342270771266 0.06166832174776564 0.05183714001986097 0.6527308838133068 0.06166832174776564 0.05700099304865939 0.0548162859980139 0.060278053624627605 0.10278053624627607 0.08639523336643495 0.08788480635551142 0.10278053624627607 0.09500165508109898 0.4246938099966899 0.10046342270771268 0.10278053624627607 0.08639523336643495 0.08788480635551142 0.10278053624627607 0.09500165508109898 0.4246938099966899 0.10046342270771268 0.07708540218470705 0.06479642502482622 0.5659136047666335 0.07708540218470705 0.07125124131082423 0.06852035749751738 0.0753475670307845 0.01045225792335011 0.008785955935569656 0.008937437934458788 0.6545200545335196 0.2977967784828236 0.009290895931866763 0.010216619258411459 0.4231490676376476 0.41768730001103394 0.029294935451837138 0.03426017874875869 0.031667218360366324 0.030453492221118834 0.033487807569237554 0.08393969486323012 0.009424934549065631 0.009587433420601246 0.17484878577232105 0.01036381691793807 0.009966597454184345 0.7018687370226595 0.6813496004161347 0.012342176195204993 0.012554972336501631 0.01468293374946801 0.013571665011585568 0.013051496666193787 0.2524471556249113 0.8974752490144743 0.015708224248442714 0.01597905570100207 0.018687370226595647 0.017273028196563445 0.016610995756973907 0.018266076855947756 0.007170735086949493 0.006027574420914067 0.006131498117826378 0.7978684095055542 0.01825592942426272 0.006373986743955105 0.1581718667005381 0.01284756703078451 0.01079940417080437 0.010985600794438928 0.01284756703078451 0.553541873551804 0.38642005958291953 0.012557927838464085 0.8219306956567186 0.027282705273611034 0.027753096743845705 0.03245701144619244 0.030000522657189145 0.028850676841059943 0.03172529138138294 0.0116355324052388 0.009780592456577543 0.009949223361001293 0.8418242116505218 0.06735867793370931 0.010342695471323379 0.04910906672162785 0.059877156202876154 0.019198940748096655 0.019529956967891424 0.09691419323991318 0.021111478906910883 0.020302328147412552 0.7630659457868991 0.6114043798672452 0.027282705273611037 0.027753096743845712 0.032457011446192445 0.030000522657189152 0.02885067684105995 0.24225160717085661 0.008222442899702085 0.006911618669314796 0.0070307845084409135 0.27488910956636875 0.6476001324064878 0.04730883813306852 0.008037073816617014 0.025695134061569022 0.021598808341608742 0.2719712015888779 0.025695134061569022 0.023750413770274748 0.6061734524991725 0.025115855676928173 0.367593512082092 0.028798411122144985 0.029294935451837138 0.03426017874875869 0.031667218360366324 0.030453492221118834 0.47793225201368195 0.020556107249255218 0.01727904667328699 0.017576961271102285 0.15388944058258858 0.7190003310162199 0.05160542866600464 0.020092684541542536 0.02371858528760217 0.019937361546100377 0.020281109158964177 0.6775647391337561 0.2142311511725613 0.021083186922313042 0.023183866778702926 0.038542701092353526 0.03239821251241311 0.03295680238331678 0.2885427010923535 0.03562562065541212 0.03426017874875869 0.5376737835153922 0.011859292643801084 0.009968680773050185 0.029371323810251312 0.011859292643801084 0.18403865250935758 0.7413108242303872 0.011591933389351461 0.05139026812313804 0.04319761668321748 0.7106090698444224 0.05139026812313804 0.04750082754054949 0.04568023833167825 0.05023171135385634 0.10278053624627606 0.08639523336643494 0.08788480635551141 0.43611386957960935 0.09500165508109897 0.09136047666335649 0.10046342270771266 0.038542701092353526 0.03239821251241311 0.03295680238331678 0.038542701092353526 0.09812562065541211 0.7217601787487586 0.03767378351539225 0.044048801248404025 0.037026528585614976 0.03766491700950489 0.11547737267697544 0.6121435664633281 0.11058306142715278 0.04305575258901971 0.05606211067978695 0.04712467274532816 0.047937167103006224 0.6015166561343324 0.14272817549878125 0.04983298727092173 0.054798230567843276 0.018137741690519304 0.015246217652900284 0.7213914364156783 0.018137741690519304 0.01676499795548805 0.19259302529353348 0.017728839301361057 </probabilities>
    </cpt>
    <cpt id="LV_2">
      <state id="0"/>
      <state id="1"/>
      <probabilities>0.46932457825286233 0.5306754217471377 </probabilities>
    </cpt>
    <cpt id="propertyExpenses">
      <state id="&lt;5k"/>
      <state id="&gt;9k"/>
      <state id="5-8k"/>
      <state id="8-9k"/>
      <parents>otherPropertyExpensesLV_1LV_2</parents>
      <probabilities>0.649507571947281 0.0115381856630177 0.3260016746015269 0.012952567788174354 0.01179629855089261 0.012662208496908757 0.28178608106814795 0.6937554118840508 0.08078392479630403 0.01357133184020762 0.8542582861749074 0.05138645718858106 0.25094818373809735 0.2495788688406267 0.24989247647261562 0.24958047094866043 0.24976829388095598 0.2497709469477865 0.25023968853225315 0.2502210706390043 0.25152633720747364 0.24931089277050195 0.24976572381529571 0.2493970462067287 0.012041519301242882 0.030030458759732714 0.6786599076463863 0.2792681142926381 0.011532123035886698 0.4834284434222577 0.012805637255009043 0.49223379628684666 0.010891040900557411 0.15780986318505702 0.17581561191824502 0.6554834839961406 0.24959615548565806 0.25019747416410787 0.25020154112197623 0.25000482922825795 0.24939938723550067 0.2510015537290333 0.24940220016943496 0.250196858866031 0.24951988205155046 0.25040757508449957 0.24985221342522884 0.250220329438721 </probabilities>
    </cpt>
    <cpt id="propertyManagement">
      <state id="'&gt;17\%'"/>
      <state id="'13-17\%'"/>
      <state id="'9-13\%'"/>
      <state id="'upTo9\%'"/>
      <parents>LV_2</parents>
      <probabilities>0.0013297202707444496 0.08355611103512535 0.4178028498818414 0.49731131881228874 0.45123055851003424 0.4366769654532368 0.11092813219016832 0.001164343846560629 </probabilities>
    </cpt>
    <cpt id="LV_3">
      <state id="0"/>
      <state id="1"/>
      <probabilities>0.12775554616382795 0.34986158285786756 0.34080261418796715 0.1815802567903373 </probabilities>
    </cpt>
    <cpt id="propertyValueT+1">
      <state id="&lt;750k"/>
      <state id="&gt;1.75m"/>
      <state id="1-1.25m"/>
      <state id="1.25-1.5m"/>
      <state id="1.5-1.75m"/>
      <state id="750k-1m"/>
      <parents>LV_3</parents>
      <probabilities>0.8682669393601892 0.014431027112145178 0.017729055789302808 0.01443677935535881 0.014446281164075982 0.07068991721892817 0.005519725879610114 0.005518851595373653 0.36134319327600745 0.46305949762318754 0.15569741566257173 0.008861315963249471 0.005664060797005168 0.6137944258823698 0.0056707372159812254 0.0056719986635177504 0.36352236926013437 0.005676408180991783 0.012950175179504086 0.010369612452987528 0.17349343039264664 0.010660901542149352 0.0104343284283013 0.7820915520044112 </probabilities>
    </cpt>
    <cpt id="capitalGains">
      <state id="&lt;40k"/>
      <state id="&gt;160k"/>
      <state id="120-160k"/>
      <state id="40-80k"/>
      <state id="80-120k"/>
      <parents>capitalGrowthpropertyValueT+1</parents>
      <probabilities>0.9063681592039802 0.020696517412935326 0.02266666666666667 0.026129353233830848 0.02413930348258707 0.034694946321026446 0.027232259753862266 0.02982456140350877 0.8764859910971459 0.03176224142445666 0.9331201137171286 0.014783226723525228 0.016190476190476186 0.0186638237384506 0.017242359630419327 0.7706001243781095 0.016169154228855724 0.017708333333333336 0.17666355721393037 0.018858830845771148 0.11561756435215229 0.022496214579277526 0.024637681159420288 0.8110101665585118 0.026238373350638115 0.9268501243781095 0.016169154228855724 0.017708333333333336 0.02041355721393035 0.018858830845771148 0.01220748111295375 0.6392113506541367 0.3253086419753087 0.012096922793440207 0.01117560346416068 0.013453142451010253 0.01055944765966088 0.011564625850340135 0.9521068128744035 0.012315971164585236 0.014025616597861754 0.01100878585794432 0.012056737588652482 0.013898592145654705 0.9490102678098867 0.01373341625207297 0.010779436152570482 0.8243055555555556 0.013609038142620234 0.1375725538971808 0.9455628832581279 0.012032858961008907 0.013178294573643409 0.015191484438273745 0.014034478768945965 0.017816323786473038 0.013984133387118462 0.015315315315315315 0.017654968401237058 0.9352292591098561 0.5460889994472083 0.01437258153676064 0.01574074074074074 0.4070342730790492 0.01676340519624102 0.01938835235586772 0.015218027509511267 0.016666666666666666 0.9309774656131109 0.01774948785484343 0.025353999234596247 0.01990049751243781 0.021794871794871794 0.4866628396479143 0.44628779181017986 0.9384001047394604 0.013616129876931131 0.014912280701754382 0.017190363969625554 0.01588112071222833 0.016078145856085427 0.01261982769081422 0.5260162601626016 0.015932532459652954 0.4293532338308457 0.08310012437810946 0.01616915422885572 0.017708333333333333 0.8641635572139303 0.018858830845771144 0.019975878184833408 0.015679179858284334 0.01717171717171717 0.6258555706316901 0.321317654153475 0.017816323786473038 0.013984133387118462 0.015315315315315315 0.09873604948231814 0.854148178028775 0.9468000904568068 0.011759384893713249 0.012878787878787877 0.014846223428312978 0.013715513342379011 0.015330325118593082 0.01203285896100891 0.92015503875969 0.01519148443827375 0.037290292722434344 0.047405828002842924 0.014783226723525231 0.01619047619047619 0.9043781094527363 0.01724235963041933 0.022731171727569048 0.017841825355978728 0.01954022988505747 0.2983873734774404 0.6414993995539543 0.014648977335544499 0.011498065229408513 0.39037037037037037 0.014516307352128248 0.5689662797125483 0.9367352427053919 0.013984133387118458 0.015315315315315312 0.017654968401237054 0.016310340190937203 0.022731171727569048 0.017841825355978728 0.01954022988505747 0.5742494424429576 0.3656373305884371 0.9349778883360972 0.014372581536760638 0.015740740740740736 0.018145384190160305 0.016763405196241015 0.16169154228855723 0.014783226723525231 0.01619047619047619 0.790092395167022 0.01724235963041933 0.018311221669430625 0.01437258153676064 0.01574074074074074 0.934812050856827 0.01676340519624102 </probabilities>
    </cpt>
    <cpt id="LTV">
      <state id="'&lt;20\%'"/>
      <state id="'&gt;65\%'"/>
      <state id="'20-25\%'"/>
      <state id="'25-50\%'"/>
      <state id="'50-65\%'"/>
      <parents>borrowingpropertyValueT+1stampDutyTax</parents>
      <probabilities>0.16258706467661693 0.014783226723525231 0.7914001421464109 0.016218905472636814 0.015010660980810234 0.02227571818327716 0.7263681592039801 0.02254854758465736 0.01831166746910608 0.2104959075589793 0.020925674657017942 0.015679179858284334 0.2939092416704357 0.6535655058043118 0.015920398009950248 0.02157960199004975 0.17241915422885573 0.021843905472636815 0.2677394278606965 0.5164179104477612 0.23018242122719734 0.1724709784411277 0.2330016583747927 0.1892205638474295 0.17512437810945272 0.23018242122719734 0.1724709784411277 0.2330016583747927 0.1892205638474295 0.17512437810945272 0.23018242122719734 0.1724709784411277 0.2330016583747927 0.1892205638474295 0.17512437810945272 0.23018242122719734 0.1724709784411277 0.2330016583747927 0.1892205638474295 0.17512437810945272 0.42263681592039803 0.12935323383084577 0.17475124378109452 0.14191542288557213 0.13134328358208955 0.086318407960199 0.06467661691542288 0.08737562189054726 0.19595771144278606 0.5656716417910448 0.172636815920398 0.12935323383084577 0.4247512437810945 0.14191542288557213 0.13134328358208955 0.13810945273631842 0.10348258706467661 0.1398009950248756 0.5135323383084577 0.10507462686567164 0.23018242122719734 0.1724709784411277 0.2330016583747927 0.1892205638474295 0.17512437810945272 0.23018242122719734 0.1724709784411277 0.2330016583747927 0.1892205638474295 0.17512437810945272 0.23018242122719734 0.1724709784411277 0.2330016583747927 0.1892205638474295 0.17512437810945272 0.23018242122719734 0.1724709784411277 0.2330016583747927 0.1892205638474295 0.17512437810945272 0.23018242122719734 0.1724709784411277 0.2330016583747927 0.1892205638474295 0.17512437810945272 0.23018242122719734 0.1724709784411277 0.2330016583747927 0.1892205638474295 0.17512437810945272 0.23018242122719734 0.1724709784411277 0.2330016583747927 0.1892205638474295 0.17512437810945272 0.23018242122719734 0.1724709784411277 0.2330016583747927 0.1892205638474295 0.17512437810945272 0.43773440489858406 0.03980099502487562 0.4383849980864906 0.04366628396479143 0.04041331802525832 0.03836373687119956 0.4176340519624102 0.038833609729132114 0.2537589828634605 0.2514096185737977 0.04062042727538777 0.030436055019022534 0.570529704419081 0.32750951126719346 0.030904302019315186 0.04062042727538777 0.030436055019022534 0.15876499853672812 0.5039800995024875 0.26619841966637403 0.23018242122719734 0.1724709784411277 0.2330016583747927 0.1892205638474295 0.17512437810945272 0.23018242122719734 0.1724709784411277 0.2330016583747927 0.1892205638474295 0.17512437810945272 0.23018242122719734 0.1724709784411277 0.2330016583747927 0.1892205638474295 0.17512437810945272 0.23018242122719734 0.1724709784411277 0.2330016583747927 0.1892205638474295 0.17512437810945272 0.962750762317445 0.008345369924570694 0.01127427379232868 0.00915583373455304 0.008473760231102552 0.01113785909163858 0.008345369924570694 0.9628871770181352 0.00915583373455304 0.008473760231102552 0.9615091210613599 0.008623548922056384 0.011650082918739636 0.009461028192371474 0.008756218905472636 0.5741987735739905 0.012032858961008908 0.38834895290986926 0.013201434687029966 0.012217979868101353 0.9518864013266999 0.01077943615257048 0.014562603648424544 0.011826285240464343 0.010945273631840795 0.02301824212271973 0.017247097844112765 0.08996683250414593 0.8189220563847429 0.0508457711442786 0.22023971053821798 0.011759384893713252 0.7431592039800996 0.012901402080506557 0.011940298507462687 0.016441601516228383 0.012319355602937692 0.8023572613124853 0.15637289741767355 0.012508884150675196 0.9392249279916209 0.013616129876931133 0.018394867766431 0.014938465566902329 0.013825608798114689 0.015694255992763455 0.011759384893713252 0.5158864767073722 0.44471958389868843 0.011940298507462687 0.6261499519944139 0.00907741991795409 0.345596578510954 0.009958977044601552 0.009217072532076459 0.017706340094399795 0.013266998341625206 0.9153591019262662 0.04019645362928945 0.01347110600841944 0.9538109452736319 0.010348258706467661 0.013980099502487561 0.01135323383084577 0.010507462686567165 0.013279755070799846 0.009950248756218905 0.8595962495216227 0.107070417145044 0.01010332950631458 0.825965411040038 0.012319355602937692 0.13569059464581854 0.013515754560530679 0.012508884150675196 0.21817443395268551 0.01055944765966088 0.74895928520662 0.011584932480454868 0.010721900700578739 0.6419441255262152 0.01990049751243781 0.2961155759663222 0.021833141982395714 0.02020665901262916 0.026559510141599692 0.01990049751243781 0.026884806735553005 0.3295254496747034 0.5971297359357061 0.020310213637693884 0.015218027509511267 0.9323236757389523 0.016695932104184956 0.015452151009657593 0.02227571818327716 0.01669073984914139 0.1838388701653025 0.7602471513400738 0.0169475204622051 </probabilities>
    </cpt>
    <cpt id="stampDutyTax">
      <state id="&lt;55k"/>
      <state id="55-900k"/>
      <parents>propertyValueT+1stampDutyTaxBand</parents>
      <probabilities>0.9924549241765432 0.00754507582345682 0.3938789088489687 0.6061210911510312 0.44608457503597454 0.5539154249640255 0.3938789088489687 0.6061210911510312 0.3938789088489687 0.6061210911510312 0.48498478156808555 0.5150152184319144 0.3938789088489687 0.6061210911510312 0.3938789088489687 0.6061210911510312 0.0041460937773575655 0.9958539062226424 0.0035272738105877792 0.9964727261894122 0.010275101969973097 0.9897248980300268 0.011699373530167386 0.9883006264698325 0.3938789088489687 0.6061210911510312 0.0027289531790921618 0.9972710468209078 0.3938789088489687 0.6061210911510312 0.3938789088489687 0.6061210911510312 0.004670500895442317 0.9953294991045577 0.3938789088489687 0.6061210911510312 </probabilities>
    </cpt>
    <cpt id="rentalGrossYield">
      <state id="'&lt;2\%'"/>
      <state id="'&gt;5\%'"/>
      <state id="'2-3\%'"/>
      <state id="'3-4\%'"/>
      <state id="'4-5\%'"/>
      <parents>actualRentalIncomeLV_3</parents>
      <probabilities>0.05048042146382996 0.050085254673152335 0.2326627221653676 0.5347045846395495 0.13206701705810062 0.08817221637612531 0.645676689989519 0.08817821972921581 0.08818205004733057 0.08979082385780912 0.06602179099191977 0.1317626309653197 0.06683655863652213 0.13564204813931008 0.5997369712669283 0.05830046655117876 0.2912897443410009 0.05829749997033859 0.05924900275537857 0.5328632863821031 0.07451209050416094 0.6604161073142353 0.07451308072002408 0.0762625567045248 0.11429616475705486 0.0612487999179418 0.7540703144943447 0.06127339799875953 0.06125491203574116 0.06215257555321273 0.7091576943917501 0.022048869927079228 0.22464951858937748 0.02209246250542273 0.022051454586370475 0.07031453248601859 0.07229600085075605 0.0703185377517137 0.48564604047248944 0.30142488843902215 0.2793020301602454 0.02680823893059265 0.6402284778570695 0.026852761862301962 0.02680849118979041 0.02416604048801799 0.02416320525462968 0.7486753409336749 0.17870398652963584 0.024291426794041473 0.029976757428725857 0.030015914588096677 0.3860946871755199 0.5181067575362062 0.03580588327145138 0.029673900466887986 0.02970149255529494 0.15265217745176649 0.6961450504706225 0.0918273790554281 0.9092648460661615 0.022680222820298558 0.022680743522113633 0.022688250875450924 0.022685936715975293 0.062137835305804724 0.062171353217041994 0.7145765002410674 0.0989486757867857 0.06216563544930001 0.8949194763519173 0.026263571714756778 0.026281331821819253 0.026268521246043362 0.026267098865463367 0.6460678982212432 0.030770891349503976 0.2615956042201782 0.030783726534161022 0.030781879674913686 0.24033697957076558 0.03435619735383893 0.6564087047089437 0.034533494654713365 0.03436462371173842 0.024464947334384295 0.024472369528056714 0.9016410216961042 0.02494589846076888 0.02447576298068587 0.045718476401272835 0.03691539682245221 0.7444334694233427 0.12262485042204732 0.050307806930884824 0.08815626544195486 0.5420178984397974 0.08815745080263584 0.08821938424045594 0.193449001075156 0.05149763530963048 0.05147892271504022 0.28803963538908023 0.5368823539715977 0.07210145261465147 0.04775160825364266 0.047803120855818795 0.04818121506158154 0.600843948713619 0.255420107115338 0.04632316795661761 0.12187704016283119 0.046448916129339525 0.19390444607557636 0.5914464296756352 0.0497544752642894 0.30783956981691474 0.04979781252639091 0.050769380899098576 0.5418387614933062 </probabilities>
    </cpt>
    <cpt id="stampDutyTaxBand">
      <state id="0"/>
      <state id="1"/>
      <state id="2"/>
      <parents>rentalGrossYieldLV_3</parents>
      <probabilities>0.33220581274052335 0.33497009444227116 0.3328240928172055 0.9395884225655478 0.03055925926908025 0.02985231816537194 0.6971218219224962 0.15266500673828606 0.15021317133921772 0.8537982888220883 0.07359796527517155 0.07260374590274012 0.9064747159974346 0.046895894566399025 0.0466293894361663 0.022944859085081627 0.9531581698613338 0.023896971053584612 0.3395025655744969 0.3305335056100604 0.32996392881544273 0.013226823415930015 0.973939274039565 0.012833902544504991 0.018625710038854836 0.9624026469492065 0.018971643011938575 0.12296161370304595 0.7605081777665299 0.11653020853042424 0.009884675262891092 0.011974349172612996 0.978140975564496 0.3335092162498493 0.33333984709591 0.33315093665424067 0.013338002020287435 0.020216022336250094 0.9664459756434625 0.27650760264098595 0.3160634065688957 0.40742899079011835 0.3336134955867493 0.33335045654450374 0.33303604786874696 0.3086069203471515 0.3823706842311378 0.3090223954217108 0.6677223853562108 0.26547505911226454 0.06680255553152468 0.701424995979268 0.26123140257271005 0.03734360144802194 0.6337821943162235 0.332382946623051 0.033834859060725475 0.5490153001313002 0.4186955482188684 0.032289151649831475 </probabilities>
    </cpt>
  </nodes>
  <extensions>
    <genie app="GeNIe 2.3.3705.0 ACADEMIC" faultnameformat="nodestate" name="DAG" version="1.0">
      <node id="actualRentalIncome">
        <name>actualRentalIncome</name>
        <interior color="e5f6f7"/>
        <outline color="000080"/>
        <font bold="true" color="000080" name="Arial" size="10"/>
        <position>100 100 100 100</position>
        <barchart active="true" height="110" width="160"/>
      </node>
      <node id="borrowing">
        <name>borrowing</name>
        <interior color="e5f6f7"/>
        <outline color="000080"/>
        <font bold="true" color="000080" name="Arial" size="10"/>
        <position>100 100 100 100</position>
        <barchart active="true" height="110" width="160"/>
      </node>
      <node id="capitalGains">
        <name>capitalGains</name>
        <interior color="e5f6f7"/>
        <outline color="000080"/>
        <font bold="true" color="000080" name="Arial" size="10"/>
        <position>100 100 100 100</position>
        <barchart active="true" height="110" width="160"/>
      </node>
      <node id="capitalGrowth">
        <name>capitalGrowth</name>
        <interior color="e5f6f7"/>
        <outline color="000080"/>
        <font bold="true" color="000080" name="Arial" size="10"/>
        <position>100 100 100 100</position>
        <barchart active="true" height="110" width="160"/>
      </node>
      <node id="incomeTax">
        <name>incomeTax</name>
        <interior color="e5f6f7"/>
        <outline color="000080"/>
        <font bold="true" color="000080" name="Arial" size="10"/>
        <position>100 100 100 100</position>
        <barchart active="true" height="110" width="160"/>
      </node>
      <node id="interest">
        <name>interest</name>
        <interior color="e5f6f7"/>
        <outline color="000080"/>
        <font bold="true" color="000080" name="Arial" size="10"/>
        <position>100 100 100 100</position>
        <barchart active="true" height="110" width="160"/>
      </node>
      <node id="interestRate">
        <name>interestRate</name>
        <interior color="e5f6f7"/>
        <outline color="000080"/>
        <font bold="true" color="000080" name="Arial" size="10"/>
        <position>100 100 100 100</position>
        <barchart active="true" height="110" width="160"/>
      </node>
      <node id="interestTaxRelief">
        <name>interestTaxRelief</name>
        <interior color="e5f6f7"/>
        <outline color="000080"/>
        <font bold="true" color="000080" name="Arial" size="10"/>
        <position>100 100 100 100</position>
        <barchart active="true" height="110" width="160"/>
      </node>
      <node id="LTV">
        <name>LTV</name>
        <interior color="e5f6f7"/>
        <outline color="000080"/>
        <font bold="true" color="000080" name="Arial" size="10"/>
        <position>100 100 100 100</position>
        <barchart active="true" height="110" width="160"/>
      </node>
      <node id="netProfit">
        <name>netProfit</name>
        <interior color="e5f6f7"/>
        <outline color="000080"/>
        <font bold="true" color="000080" name="Arial" size="10"/>
        <position>100 100 100 100</position>
        <barchart active="true" height="110" width="160"/>
      </node>
      <node id="otherInterestFees">
        <name>otherInterestFees</name>
        <interior color="e5f6f7"/>
        <outline color="000080"/>
        <font bold="true" color="000080" name="Arial" size="10"/>
        <position>100 100 100 100</position>
        <barchart active="true" height="110" width="160"/>
      </node>
      <node id="otherPropertyExpenses">
        <name>otherPropertyExpenses</name>
        <interior color="e5f6f7"/>
        <outline color="000080"/>
        <font bold="true" color="000080" name="Arial" size="10"/>
        <position>100 100 100 100</position>
        <barchart active="true" height="110" width="160"/>
      </node>
      <node id="otherPropertyExpensesT+1">
        <name>otherPropertyExpensesT+1</name>
        <interior color="e5f6f7"/>
        <outline color="000080"/>
        <font bold="true" color="000080" name="Arial" size="10"/>
        <position>100 100 100 100</position>
        <barchart active="true" height="110" width="160"/>
      </node>
      <node id="propertyExpenses">
        <name>propertyExpenses</name>
        <interior color="e5f6f7"/>
        <outline color="000080"/>
        <font bold="true" color="000080" name="Arial" size="10"/>
        <position>100 100 100 100</position>
        <barchart active="true" height="110" width="160"/>
      </node>
      <node id="propertyExpensesGrowth">
        <name>propertyExpensesGrowth</name>
        <interior color="e5f6f7"/>
        <outline color="000080"/>
        <font bold="true" color="000080" name="Arial" size="10"/>
        <position>100 100 100 100</position>
        <barchart active="true" height="110" width="160"/>
      </node>
      <node id="propertyManagement">
        <name>propertyManagement</name>
        <interior color="e5f6f7"/>
        <outline color="000080"/>
        <font bold="true" color="000080" name="Arial" size="10"/>
        <position>100 100 100 100</position>
        <barchart active="true" height="110" width="160"/>
      </node>
      <node id="propertyValueT+1">
        <name>propertyValueT+1</name>
        <interior color="e5f6f7"/>
        <outline color="000080"/>
        <font bold="true" color="000080" name="Arial" size="10"/>
        <position>100 100 100 100</position>
        <barchart active="true" height="110" width="160"/>
      </node>
      <node id="rentalGrossProfit">
        <name>rentalGrossProfit</name>
        <interior color="e5f6f7"/>
        <outline color="000080"/>
        <font bold="true" color="000080" name="Arial" size="10"/>
        <position>100 100 100 100</position>
        <barchart active="true" height="110" width="160"/>
      </node>
      <node id="rentalGrossYield">
        <name>rentalGrossYield</name>
        <interior color="e5f6f7"/>
        <outline color="000080"/>
        <font bold="true" color="000080" name="Arial" size="10"/>
        <position>100 100 100 100</position>
        <barchart active="true" height="110" width="160"/>
      </node>
      <node id="rentalGrowth">
        <name>rentalGrowth</name>
        <interior color="e5f6f7"/>
        <outline color="000080"/>
        <font bold="true" color="000080" name="Arial" size="10"/>
        <position>100 100 100 100</position>
        <barchart active="true" height="110" width="160"/>
      </node>
      <node id="rentalIncome">
        <name>rentalIncome</name>
        <interior color="e5f6f7"/>
        <outline color="000080"/>
        <font bold="true" color="000080" name="Arial" size="10"/>
        <position>100 100 100 100</position>
        <barchart active="true" height="110" width="160"/>
      </node>
      <node id="rentalIncomeLoss\%">
        <name>rentalIncomeLoss\%</name>
        <interior color="e5f6f7"/>
        <outline color="000080"/>
        <font bold="true" color="000080" name="Arial" size="10"/>
        <position>100 100 100 100</position>
        <barchart active="true" height="110" width="160"/>
      </node>
      <node id="rentalIncomeT+1">
        <name>rentalIncomeT+1</name>
        <interior color="e5f6f7"/>
        <outline color="000080"/>
        <font bold="true" color="000080" name="Arial" size="10"/>
        <position>100 100 100 100</position>
        <barchart active="true" height="110" width="160"/>
      </node>
      <node id="rentalNetProfitBeforeInterest">
        <name>rentalNetProfitBeforeInterest</name>
        <interior color="e5f6f7"/>
        <outline color="000080"/>
        <font bold="true" color="000080" name="Arial" size="10"/>
        <position>100 100 100 100</position>
        <barchart active="true" height="110" width="160"/>
      </node>
      <node id="stampDutyTax">
        <name>stampDutyTax</name>
        <interior color="e5f6f7"/>
        <outline color="000080"/>
        <font bold="true" color="000080" name="Arial" size="10"/>
        <position>100 100 100 100</position>
        <barchart active="true" height="110" width="160"/>
      </node>
      <node id="stampDutyTaxBand">
        <name>stampDutyTaxBand</name>
        <interior color="e5f6f7"/>
        <outline color="000080"/>
        <font bold="true" color="000080" name="Arial" size="10"/>
        <position>100 100 100 100</position>
        <barchart active="true" height="110" width="160"/>
      </node>
      <node id="LV_1">
        <name>LV_1</name>
        <interior color="e5f6f7"/>
        <outline color="000080"/>
        <font bold="true" color="000080" name="Arial" size="10"/>
        <position>100 100 100 100</position>
        <barchart active="true" height="110" width="160"/>
      </node>
      <node id="LV_2">
        <name>LV_2</name>
        <interior color="e5f6f7"/>
        <outline color="000080"/>
