<?xml version="1.0" encoding="ISO-8859-1"?>
<smile discsamples="10000" id="DAG" numsamples="10000" version="1.0">
  <nodes>
    <cpt id="DISCONNECT">
      <state id="FALSE"/>
      <state id="TRUE"/>
      <probabilities>0.9055942035051215 0.09440579649487844 </probabilities>
    </cpt>
    <cpt id="VENTTUBE">
      <state id="HIGH"/>
      <state id="LOW"/>
      <state id="NORMAL"/>
      <state id="ZERO"/>
      <parents>DISCONNECTMINVOLPRESSVENTMACH</parents>
      <probabilities>0.562970340858787 0.19444444444444445 0.11243913235945108 0.1301460823373174 0.21334661354581672 0.35 0.20239043824701194 0.23426294820717133 0.15239043824701196 0.25 0.4302788844621514 0.16733067729083667 0.11852589641434262 0.19444444444444445 0.5568835768038956 0.1301460823373174 0.21334661354581672 0.35 0.20239043824701194 0.23426294820717133 0.21334661354581672 0.35 0.20239043824701194 0.23426294820717133 0.46061209706628037 0.3409090909090909 0.0919956537486418 0.10648315827598696 0.21334661354581672 0.35 0.20239043824701194 0.23426294820717133 0.9558059895250459 0.01966292134831461 0.011370249339719774 0.01316083978691974 0.21334661354581672 0.35 0.20239043824701194 0.23426294820717133 0.6424302788844621 0.1590909090909091 0.0919956537486418 0.10648315827598696 0.21334661354581672 0.35 0.20239043824701194 0.23426294820717133 0.4381047239612977 0.25 0.14456459874786567 0.16733067729083667 0.21334661354581672 0.35 0.20239043824701194 0.23426294820717133 0.21334661354581672 0.35 0.20239043824701194 0.23426294820717133 0.21334661354581672 0.35 0.20239043824701194 0.23426294820717133 0.8127015746537658 0.08333333333333333 0.048188199582621896 0.05577689243027889 0.21334661354581672 0.35 0.20239043824701194 0.23426294820717133 0.21334661354581672 0.35 0.20239043824701194 0.23426294820717133 0.21334661354581672 0.35 0.20239043824701194 0.23426294820717133 0.21334661354581672 0.35 0.20239043824701194 0.23426294820717133 0.21334661354581672 0.35 0.20239043824701194 0.23426294820717133 0.21334661354581672 0.35 0.20239043824701194 0.23426294820717133 0.21334661354581672 0.35 0.20239043824701194 0.23426294820717133 0.21334661354581672 0.35 0.20239043824701194 0.23426294820717133 0.21334661354581672 0.35 0.20239043824701194 0.23426294820717133 0.21334661354581672 0.35 0.20239043824701194 0.23426294820717133 0.15239043824701196 0.25 0.4302788844621514 0.16733067729083667 0.21334661354581672 0.35 0.20239043824701194 0.23426294820717133 0.21334661354581672 0.35 0.20239043824701194 0.23426294820717133 0.4381047239612977 0.25 0.14456459874786567 0.16733067729083667 0.15239043824701196 0.25 0.4302788844621514 0.16733067729083667 0.018714615223317257 0.03070175438596491 0.01775354721465017 0.9328300831760676 0.07111553784860557 0.11666666666666667 0.06746347941567064 0.7447543160690572 0.11852589641434262 0.19444444444444445 0.11243913235945108 0.5745905267817618 0.15239043824701196 0.25 0.4302788844621514 0.16733067729083667 0.15239043824701196 0.25 0.14456459874786567 0.45304496300512237 0.21334661354581672 0.35 0.20239043824701194 0.23426294820717133 0.06274900398406374 0.22058823529411764 0.05952659948441528 0.6571361612374034 0.11852589641434262 0.19444444444444445 0.11243913235945108 0.5745905267817618 0.21334661354581672 0.35 0.20239043824701194 0.23426294820717133 0.21334661354581672 0.35 0.20239043824701194 0.23426294820717133 0.21334661354581672 0.35 0.20239043824701194 0.23426294820717133 0.21334661354581672 0.35 0.20239043824701194 0.23426294820717133 0.11852589641434262 0.19444444444444445 0.11243913235945108 0.5745905267817618 0.21334661354581672 0.35 0.20239043824701194 0.23426294820717133 0.15239043824701196 0.25 0.14456459874786567 0.45304496300512237 0.21334661354581672 0.35 0.20239043824701194 0.23426294820717133 0.21334661354581672 0.35 0.20239043824701194 0.23426294820717133 0.21334661354581672 0.35 0.20239043824701194 0.23426294820717133 0.15239043824701196 0.5357142857142857 0.14456459874786567 0.16733067729083667 0.21334661354581672 0.35 0.20239043824701194 0.23426294820717133 0.15239043824701196 0.25 0.14456459874786567 0.45304496300512237 0.21334661354581672 0.35 0.20239043824701194 0.23426294820717133 0.15239043824701196 0.25 0.14456459874786567 0.45304496300512237 0.21334661354581672 0.35 0.20239043824701194 0.23426294820717133 0.21334661354581672 0.35 0.20239043824701194 0.23426294820717133 0.21334661354581672 0.35 0.20239043824701194 0.23426294820717133 0.11852589641434262 0.19444444444444445 0.11243913235945108 0.5745905267817618 0.21334661354581672 0.35 0.20239043824701194 0.23426294820717133 0.21334661354581672 0.35 0.20239043824701194 0.23426294820717133 0.21334661354581672 0.35 0.20239043824701194 0.23426294820717133 0.15239043824701196 0.25 0.14456459874786567 0.45304496300512237 0.15239043824701196 0.25 0.14456459874786567 0.45304496300512237 0.027352129941771375 0.7628205128205128 0.02594749208295025 0.18387986515476554 0.011722341403616303 0.019230769230769232 0.011120353749835821 0.9579265356157787 0.01385367620427381 0.8538961038961037 0.11703834014590986 0.015211879753712422 0.0969757334299167 0.1590909090909091 0.2738138355668236 0.47011952191235057 0.027352129941771375 0.9166666666666666 0.02594749208295025 0.03003371130861171 0.21334661354581672 0.35 0.20239043824701194 0.23426294820717133 0.001964517620127226 0.9940147329650092 0.0018636320280572003 0.0021571173868063656 0.021770062606715993 0.07653061224489796 0.020652085535409384 0.8810472396129767 0.38161148509410636 0.5431034482758621 0.03489490314603654 0.04039016348399506 0.21334661354581672 0.35 0.20239043824701194 0.23426294820717133 0.08205638982531413 0.75 0.07784247624885075 0.09010113392583513 0.21334661354581672 0.35 0.20239043824701194 0.23426294820717133 0.11852589641434262 0.6388888888888888 0.11243913235945108 0.1301460823373174 0.08205638982531413 0.1346153846153846 0.07784247624885075 0.7054857493104506 0.0029386585887853536 0.9910468319559227 0.0027877470832921754 0.0032267623719996045 0.21334661354581672 0.35 0.20239043824701194 0.23426294820717133 0.03441074412029302 0.8951612903225806 0.0326436190720987 0.03778434648502763 0.21334661354581672 0.35 0.20239043824701194 0.23426294820717133 0.08205638982531413 0.75 0.07784247624885075 0.09010113392583513 0.21334661354581672 0.35 0.20239043824701194 0.23426294820717133 0.21334661354581672 0.35 0.20239043824701194 0.23426294820717133 0.21334661354581672 0.35 0.20239043824701194 0.23426294820717133 0.0027282175645245103 0.9916879795396418 0.0025881130210615336 0.0029956898747720115 0.21334661354581672 0.35 0.20239043824701194 0.23426294820717133 0.11852589641434262 0.6388888888888888 0.11243913235945108 0.1301460823373174 0.34074811863656485 0.19444444444444445 0.11243913235945108 0.3523683045595396 0.15239043824701196 0.25 0.14456459874786567 0.45304496300512237 0.11852589641434262 0.19444444444444445 0.11243913235945108 0.5745905267817618 0.11852589641434262 0.6388888888888888 0.11243913235945108 0.1301460823373174 0.21334661354581672 0.35 0.20239043824701194 0.23426294820717133 0.04637969859691668 0.7717391304347826 0.043997921358046074 0.13788324961025464 0.15239043824701196 0.25 0.14456459874786567 0.45304496300512237 0.026017879700709356 0.042682926829268296 0.024681760761830724 0.9066174327081916 0.11852589641434262 0.19444444444444445 0.11243913235945108 0.5745905267817618 0.08205638982531413 0.1346153846153846 0.07784247624885075 0.7054857493104506 0.21334661354581672 0.35 0.20239043824701194 0.23426294820717133 0.21334661354581672 0.35 0.20239043824701194 0.23426294820717133 0.21334661354581672 0.35 0.20239043824701194 0.23426294820717133 0.05079681274900398 0.17857142857142858 0.048188199582621896 0.7224435590969456 0.15239043824701196 0.25 0.14456459874786567 0.45304496300512237 0.21334661354581672 0.35 0.20239043824701194 0.23426294820717133 0.21334661354581672 0.35 0.20239043824701194 0.23426294820717133 0.21334661354581672 0.35 0.20239043824701194 0.23426294820717133 0.21334661354581672 0.35 0.20239043824701194 0.23426294820717133 0.15239043824701196 0.25 0.14456459874786567 0.45304496300512237 0.21334661354581672 0.35 0.20239043824701194 0.23426294820717133 0.11852589641434262 0.4166666666666667 0.11243913235945108 0.3523683045595396 0.21334661354581672 0.35 0.20239043824701194 0.23426294820717133 0.15239043824701196 0.25 0.14456459874786567 0.45304496300512237 0.21334661354581672 0.35 0.20239043824701194 0.23426294820717133 0.21334661354581672 0.35 0.20239043824701194 0.23426294820717133 0.21334661354581672 0.35 0.20239043824701194 0.23426294820717133 0.21334661354581672 0.35 0.20239043824701194 0.23426294820717133 0.15239043824701196 0.25 0.14456459874786567 0.45304496300512237 0.21334661354581672 0.35 0.20239043824701194 0.23426294820717133 0.21334661354581672 0.35 0.20239043824701194 0.23426294820717133 0.4381047239612977 0.25 0.14456459874786567 0.16733067729083667 0.21334661354581672 0.35 0.20239043824701194 0.23426294820717133 0.15239043824701196 0.25 0.14456459874786567 0.45304496300512237 0.21334661354581672 0.35 0.20239043824701194 0.23426294820717133 0.21334661354581672 0.35 0.20239043824701194 0.23426294820717133 0.21334661354581672 0.35 0.20239043824701194 0.23426294820717133 0.07111553784860557 0.11666666666666667 0.06746347941567064 0.7447543160690572 0.21334661354581672 0.35 0.20239043824701194 0.23426294820717133 </probabilities>
    </cpt>
    <cpt id="ERRCAUTER">
      <state id="FALSE"/>
      <state id="TRUE"/>
      <probabilities>0.8886111949839711 0.11138880501602885 </probabilities>
    </cpt>
    <cpt id="HREKG">
      <state id="HIGH"/>
      <state id="LOW"/>
      <state id="NORMAL"/>
      <parents>ERRCAUTERHR</parents>
      <probabilities>0.9831834137476766 0.007739247631068015 0.009077338621255348 0.021361203745086578 0.018249848156679387 0.960388948098234 0.1548687271518777 0.29897806580259223 0.54615320704553 0.37168494516450645 0.11754735792622133 0.5107676969092723 0.011543010719394611 0.9725946384449137 0.015862350835691683 0.2343369890329013 0.42350947158524427 0.34215353938185444 </probabilities>
    </cpt>
    <cpt id="HRSAT">
      <state id="HIGH"/>
      <state id="LOW"/>
      <state id="NORMAL"/>
      <parents>ERRCAUTERHR</parents>
      <probabilities>0.9818018244435668 0.01050864028413375 0.007689535272299445 0.04437835917534752 0.0067498653464892686 0.9488717754781633 0.2384097706879362 0.3822698570953806 0.3793203722166833 0.3721834496510469 0.31744765702891325 0.31036889332003986 0.017769672349411392 0.9601691818953079 0.02206114575528074 0.31443668993020935 0.3434895314057826 0.34207377866400795 </probabilities>
    </cpt>
    <cpt id="ERRLOWOUTPUT">
      <state id="FALSE"/>
      <state id="TRUE"/>
      <probabilities>0.9545452280660846 0.04545477193391549 </probabilities>
    </cpt>
    <cpt id="HRBP">
      <state id="HIGH"/>
      <state id="LOW"/>
      <state id="NORMAL"/>
      <parents>ERRLOWOUTPUTHR</parents>
      <probabilities>0.9777313054335045 0.005973626584485815 0.01629506798200976 0.02188434695912263 0.03984297108673978 0.9382726819541375 0.06252670559749322 0.39955134596211367 0.5379219484403931 0.29179129278830174 0.5312396144898638 0.1769690927218345 0.0049178307773309286 0.9808635890082561 0.014218580214412942 0.23442173479561315 0.3242148554336989 0.44136340977068794 </probabilities>
    </cpt>
    <cpt id="FIO2">
      <state id="LOW"/>
      <state id="NORMAL"/>
      <probabilities>0.05344677594386863 0.9465532240561314 </probabilities>
    </cpt>
    <cpt id="HISTORY">
      <state id="FALSE"/>
      <state id="TRUE"/>
      <probabilities>0.9435562225523989 0.056443777447601054 </probabilities>
    </cpt>
    <cpt id="LVFAILURE">
      <state id="FALSE"/>
      <state id="TRUE"/>
      <parents>HISTORY</parents>
      <probabilities>0.9952126418764797 0.004787358123520278 0.15606178946454916 0.8439382105354508 </probabilities>
    </cpt>
    <cpt id="LVEDVOLUME">
      <state id="HIGH"/>
      <state id="LOW"/>
      <state id="NORMAL"/>
      <parents>HYPOVOLEMIALVFAILURE</parents>
      <probabilities>0.05677888210368894 0.047583161972416084 0.895637955923895 0.9163379426936582 0.008390589102258442 0.07527146820408341 0.03650412399166138 0.944178827154899 0.01931704885343968 0.05051512130275839 0.7953223662346295 0.15416251246261217 </probabilities>
    </cpt>
    <cpt id="CVP">
      <state id="HIGH"/>
      <state id="LOW"/>
      <state id="NORMAL"/>
      <parents>LVEDVOLUME</parents>
      <probabilities>0.7597348142488423 0.016620698651708427 0.2236444870994493 0.02902528369946341 0.8938969608029842 0.07707775549755229 0.003674609173900773 0.044888804425982365 0.9514365864001169 </probabilities>
    </cpt>
    <cpt id="PCWP">
      <state id="HIGH"/>
      <state id="LOW"/>
      <state id="NORMAL"/>
      <parents>LVEDVOLUME</parents>
      <probabilities>0.9561036516618369 0.0025973481424884223 0.04129900019567465 0.006811027591383153 0.9613014887920508 0.03188748361656603 0.012242078884257612 0.03777501067210885 0.9499829104436336 </probabilities>
    </cpt>
    <cpt id="STROKEVOLUME">
      <state id="HIGH"/>
      <state id="LOW"/>
      <state id="NORMAL"/>
      <parents>HYPOVOLEMIALVFAILURE</parents>
      <probabilities>0.05276488243602526 0.038525698944832175 0.9087094186191426 0.03001863973297499 0.5358029173349517 0.4341784429320733 0.011896129792440858 0.922448563400707 0.06565530680685217 0.12695247590561648 0.7156447324692589 0.15740279162512463 </probabilities>
    </cpt>
    <cpt id="CO">
      <state id="HIGH"/>
      <state id="LOW"/>
      <state id="NORMAL"/>
      <parents>HRSTROKEVOLUME</parents>
      <probabilities>0.9412438360593893 0.0428174934655493 0.015938670475061305 0.4130109670987039 0.292123629112662 0.29486540378863413 0.7558478410921083 0.044942096786563385 0.19921006212132836 0.012769384155226628 0.8012884423652121 0.18594217347956132 0.2753406447324693 0.5280824194084414 0.19657693585908942 0.05217205526278308 0.9309784930921522 0.01684945164506481 0.9585198445866836 0.007265051122385617 0.03421510429093069 0.13043013815695767 0.6845890898732374 0.18498077196980486 0.027328728101410054 0.05417319470160946 0.9184980771969805 </probabilities>
    </cpt>
    <cpt id="BP">
      <state id="HIGH"/>
      <state id="LOW"/>
      <state id="NORMAL"/>
      <parents>COTPR</parents>
      <probabilities>0.9302616840835518 0.004289600334798075 0.06544871558165012 0.06275242070398973 0.2999138178684286 0.6373337614275816 0.4719804002626268 0.04505994212484497 0.48295965761252824 0.007845128209840525 0.9018198859642271 0.09033498582593234 0.01494452811777434 0.9722322394518573 0.012823232430368472 0.015608729367453198 0.9487758945386066 0.03561537609394041 0.7560799743626264 0.05962469733656174 0.18429532830081183 0.01032930619904991 0.9808075772681955 0.008863116532754678 0.046592979681644726 0.11542957334891876 0.8379774469694364 </probabilities>
    </cpt>
    <cpt id="HYPOVOLEMIA">
      <state id="FALSE"/>
      <state id="TRUE"/>
      <probabilities>0.8076921543831957 0.1923078456168043 </probabilities>
    </cpt>
    <cpt id="LVEDVOLUME">
      <state id="HIGH"/>
      <state id="LOW"/>
      <state id="NORMAL"/>
      <parents>HYPOVOLEMIALVFAILURE</parents>
      <probabilities>0.05677888210368894 0.047583161972416084 0.895637955923895 0.9163379426936582 0.008390589102258442 0.07527146820408341 0.03650412399166138 0.944178827154899 0.01931704885343968 0.05051512130275839 0.7953223662346295 0.15416251246261217 </probabilities>
    </cpt>
    <cpt id="CVP">
      <state id="HIGH"/>
      <state id="LOW"/>
      <state id="NORMAL"/>
      <parents>LVEDVOLUME</parents>
      <probabilities>0.7597348142488423 0.016620698651708427 0.2236444870994493 0.02902528369946341 0.8938969608029842 0.07707775549755229 0.003674609173900773 0.044888804425982365 0.9514365864001169 </probabilities>
    </cpt>
    <cpt id="PCWP">
      <state id="HIGH"/>
      <state id="LOW"/>
      <state id="NORMAL"/>
      <parents>LVEDVOLUME</parents>
      <probabilities>0.9561036516618369 0.0025973481424884223 0.04129900019567465 0.006811027591383153 0.9613014887920508 0.03188748361656603 0.012242078884257612 0.03777501067210885 0.9499829104436336 </probabilities>
    </cpt>
    <cpt id="STROKEVOLUME">
      <state id="HIGH"/>
      <state id="LOW"/>
      <state id="NORMAL"/>
      <parents>HYPOVOLEMIALVFAILURE</parents>
      <probabilities>0.05276488243602526 0.038525698944832175 0.9087094186191426 0.03001863973297499 0.5358029173349517 0.4341784429320733 0.011896129792440858 0.922448563400707 0.06565530680685217 0.12695247590561648 0.7156447324692589 0.15740279162512463 </probabilities>
    </cpt>
    <cpt id="CO">
      <state id="HIGH"/>
      <state id="LOW"/>
      <state id="NORMAL"/>
      <parents>HRSTROKEVOLUME</parents>
      <probabilities>0.9412438360593893 0.0428174934655493 0.015938670475061305 0.4130109670987039 0.292123629112662 0.29486540378863413 0.7558478410921083 0.044942096786563385 0.19921006212132836 0.012769384155226628 0.8012884423652121 0.18594217347956132 0.2753406447324693 0.5280824194084414 0.19657693585908942 0.05217205526278308 0.9309784930921522 0.01684945164506481 0.9585198445866836 0.007265051122385617 0.03421510429093069 0.13043013815695767 0.6845890898732374 0.18498077196980486 0.027328728101410054 0.05417319470160946 0.9184980771969805 </probabilities>
    </cpt>
    <cpt id="BP">
      <state id="HIGH"/>
      <state id="LOW"/>
      <state id="NORMAL"/>
      <parents>COTPR</parents>
      <probabilities>0.9302616840835518 0.004289600334798075 0.06544871558165012 0.06275242070398973 0.2999138178684286 0.6373337614275816 0.4719804002626268 0.04505994212484497 0.48295965761252824 0.007845128209840525 0.9018198859642271 0.09033498582593234 0.01494452811777434 0.9722322394518573 0.012823232430368472 0.015608729367453198 0.9487758945386066 0.03561537609394041 0.7560799743626264 0.05962469733656174 0.18429532830081183 0.01032930619904991 0.9808075772681955 0.008863116532754678 0.046592979681644726 0.11542957334891876 0.8379774469694364 </probabilities>
    </cpt>
    <cpt id="INSUFFANESTH">
      <state id="FALSE"/>
      <state id="TRUE"/>
      <probabilities>0.8916081964877035 0.10839180351229642 </probabilities>
    </cpt>
    <cpt id="MINVOL">
      <state id="HIGH"/>
      <state id="LOW"/>
      <state id="NORMAL"/>
      <state id="ZERO"/>
      <probabilities>0.1941118319738502 0.06836345391501325 0.0324353458982027 0.7050893682129338 </probabilities>
    </cpt>
    <cpt id="VENTALV">
      <state id="HIGH"/>
      <state id="LOW"/>
      <state id="NORMAL"/>
      <state id="ZERO"/>
      <parents>MINVOLPVSATLV_1</parents>
      <probabilities>0.22226506945672173 0.22226506945672173 0.33320479162983485 0.22226506945672173 0.25 0.25 0.25 0.25 0.33307324103581243 0.2223089196547292 0.2223089196547292 0.2223089196547292 0.6271489811785941 0.10662377147791698 0.15960347586557197 0.10662377147791698 0.010548104288808877 0.030519473445128086 0.9280379380662009 0.030894484199862227 0.029236543984161405 0.7151787585624779 0.08081740059723141 0.17476729685612927 0.05143409200238535 0.05143409200238535 0.6666859540340296 0.23044586196119965 0.002963516337335332 0.008235805899167357 0.014334486617934785 0.9744661911455625 0.16672117473061582 0.16672117473061582 0.49983647580815255 0.16672117473061582 0.16689759494494172 0.49930721516517496 0.16689759494494172 0.16689759494494172 0.25 0.25 0.25 0.25 0.31503872126385773 0.1576513676840023 0.1798201937651212 0.34748971728701866 0.24994579367861264 0.24994579367861264 0.25016261896416203 0.24994579367861264 0.25 0.25 0.25 0.25 0.2503289066359116 0.24989036445469612 0.24989036445469612 0.24989036445469612 0.2713057460632709 0.24264610046973598 0.24340205299725703 0.24264610046973598 0.12993366206180537 0.4036569835512997 0.13233865948096848 0.33407069490592645 0.17252590846137889 0.17911482299673298 0.4719860788338341 0.17637318970805418 0.2464485175629762 0.2464485175629762 0.2558267211996866 0.2512762436743612 0.06638774506376952 0.5457693062945475 0.20998537639604944 0.17785757224563364 0.24987745704979888 0.24987745704979888 0.2503676288506033 0.24987745704979888 0.24948220497658008 0.2515533850702598 0.24948220497658008 0.24948220497658008 0.25 0.25 0.25 0.25 0.21509520640625032 0.2147355950271522 0.29190742196643954 0.278261776600158 </probabilities>
    </cpt>
    <cpt id="ARTCO2">
      <state id="HIGH"/>
      <state id="LOW"/>
      <state id="NORMAL"/>
      <parents>VENTALV</parents>
      <probabilities>0.058325024925224324 0.7675972083748753 0.17407776669990033 0.9730996882769414 0.00650579905852064 0.020394512664538032 0.034844581300346754 0.02439804480364217 0.9407573738960111 0.9722018537411022 0.016735404252359202 0.011062742006538524 </probabilities>
    </cpt>
    <cpt id="CATECHOL">
      <state id="HIGH"/>
      <state id="NORMAL"/>
      <parents>ARTCO2TPR</parents>
      <probabilities>0.8683768320819386 0.13162316791806142 0.1857713145138295 0.8142286854861706 0.284971410562334 0.7150285894376661 0.9886440926610032 0.01135590733899684 0.9267465069860279 0.07325349301397206 0.979478129833049 0.020521870166950864 0.9851569292084673 0.01484307079153276 0.9593036149922377 0.04069638500776226 0.9106579739928427 0.0893420260071573 </probabilities>
    </cpt>
    <cpt id="HR">
      <state id="HIGH"/>
      <state id="LOW"/>
      <state id="NORMAL"/>
      <parents>CATECHOL</parents>
      <probabilities>0.8859533126284863 0.01272895914027828 0.1013177282312355 0.059017946161515455 0.02506979062811565 0.9159122632103689 </probabilities>
    </cpt>
    <cpt id="CO">
      <state id="HIGH"/>
      <state id="LOW"/>
      <state id="NORMAL"/>
      <parents>HRSTROKEVOLUME</parents>
      <probabilities>0.9412438360593893 0.0428174934655493 0.015938670475061305 0.4130109670987039 0.292123629112662 0.29486540378863413 0.7558478410921083 0.044942096786563385 0.19921006212132836 0.012769384155226628 0.8012884423652121 0.18594217347956132 0.2753406447324693 0.5280824194084414 0.19657693585908942 0.05217205526278308 0.9309784930921522 0.01684945164506481 0.9585198445866836 0.007265051122385617 0.03421510429093069 0.13043013815695767 0.6845890898732374 0.18498077196980486 0.027328728101410054 0.05417319470160946 0.9184980771969805 </probabilities>
    </cpt>
    <cpt id="BP">
      <state id="HIGH"/>
      <state id="LOW"/>
      <state id="NORMAL"/>
      <parents>COTPR</parents>
      <probabilities>0.9302616840835518 0.004289600334798075 0.06544871558165012 0.06275242070398973 0.2999138178684286 0.6373337614275816 0.4719804002626268 0.04505994212484497 0.48295965761252824 0.007845128209840525 0.9018198859642271 0.09033498582593234 0.01494452811777434 0.9722322394518573 0.012823232430368472 0.015608729367453198 0.9487758945386066 0.03561537609394041 0.7560799743626264 0.05962469733656174 0.18429532830081183 0.01032930619904991 0.9808075772681955 0.008863116532754678 0.046592979681644726 0.11542957334891876 0.8379774469694364 </probabilities>
    </cpt>
    <cpt id="HRBP">
      <state id="HIGH"/>
      <state id="LOW"/>
      <state id="NORMAL"/>
      <parents>ERRLOWOUTPUTHR</parents>
      <probabilities>0.9777313054335045 0.005973626584485815 0.01629506798200976 0.02188434695912263 0.03984297108673978 0.9382726819541375 0.06252670559749322 0.39955134596211367 0.5379219484403931 0.29179129278830174 0.5312396144898638 0.1769690927218345 0.0049178307773309286 0.9808635890082561 0.014218580214412942 0.23442173479561315 0.3242148554336989 0.44136340977068794 </probabilities>
    </cpt>
    <cpt id="HREKG">
      <state id="HIGH"/>
      <state id="LOW"/>
      <state id="NORMAL"/>
      <parents>ERRCAUTERHR</parents>
      <probabilities>0.9831834137476766 0.007739247631068015 0.009077338621255348 0.021361203745086578 0.018249848156679387 0.960388948098234 0.1548687271518777 0.29897806580259223 0.54615320704553 0.37168494516450645 0.11754735792622133 0.5107676969092723 0.011543010719394611 0.9725946384449137 0.015862350835691683 0.2343369890329013 0.42350947158524427 0.34215353938185444 </probabilities>
    </cpt>
    <cpt id="HRSAT">
      <state id="HIGH"/>
      <state id="LOW"/>
      <state id="NORMAL"/>
      <parents>ERRCAUTERHR</parents>
      <probabilities>0.9818018244435668 0.01050864028413375 0.007689535272299445 0.04437835917534752 0.0067498653464892686 0.9488717754781633 0.2384097706879362 0.3822698570953806 0.3793203722166833 0.3721834496510469 0.31744765702891325 0.31036889332003986 0.017769672349411392 0.9601691818953079 0.02206114575528074 0.31443668993020935 0.3434895314057826 0.34207377866400795 </probabilities>
    </cpt>
    <cpt id="EXPCO2">
      <state id="HIGH"/>
      <state id="LOW"/>
      <state id="NORMAL"/>
      <state id="ZERO"/>
      <parents>ARTCO2VENTLUNG</parents>
      <probabilities>0.8781811529392634 0.03435238637287585 0.06268802341653794 0.024778437271322878 0.20617529880478086 0.33665338645418325 0.2143426294820717 0.24282868525896414 0.43298235628912923 0.2404667046101309 0.15310187820147977 0.1734490608992601 0.00912280083206995 0.03259528258646829 0.9298381694461093 0.028443747135352394 0.1145418326693227 0.6314741035856574 0.11907923860115094 0.13490482514386898 0.013859163895382658 0.010146740860250457 0.0029523778165574614 0.9730417174278094 0.1145418326693227 0.18702965914121292 0.11907923860115094 0.5793492695883135 0.14726807057484348 0.2404667046101309 0.4388161639157655 0.1734490608992601 0.06063979376611202 0.09901570189828919 0.7689243027888446 0.07142020154675416 0.00964535639824123 0.9605353567226284 0.014116738080984721 0.01570254879814568 0.019450499887243476 0.03175975343907388 0.020221002781327515 0.9285687438923551 0.01338800641589486 0.879003466652869 0.06586640451182282 0.04174212241941325 </probabilities>
    </cpt>
    <cpt id="SHUNT">
      <state id="HIGH"/>
      <state id="NORMAL"/>
      <parents>VENTALVVENTLUNG</parents>
      <probabilities>0.3739188290086493 0.6260811709913506 0.2791863082345946 0.7208136917654053 0.3739188290086493 0.6260811709913506 0.2243512974051896 0.7756487025948104 0.3739188290086493 0.6260811709913506 0.8890388237609288 0.11096117623907116 0.06165801729873586 0.9383419827012641 0.033992620818968124 0.9660073791810319 0.2243512974051896 0.7756487025948104 0.3739188290086493 0.6260811709913506 0.07478376580172987 0.9252162341982701 0.731679498146564 0.268320501853436 0.11562061063059066 0.8843793893694093 0.024927921933909955 0.9750720780660901 0.6436083057765067 0.3563916942234933 0.07402670387380579 0.9259732961261942 </probabilities>
    </cpt>
    <cpt id="ANAPHYLAXIS">
      <state id="FALSE"/>
      <state id="TRUE"/>
      <parents>SHUNT</parents>
      <probabilities>0.9550653794451912 0.04493462055480875 0.9960198852720454 0.003980114727954653 </probabilities>
    </cpt>
    <cpt id="TPR">
      <state id="HIGH"/>
      <state id="LOW"/>
      <state id="NORMAL"/>
      <parents>ANAPHYLAXIS</parents>
      <probabilities>0.29944522569113585 0.2974361623379359 0.40311861197092824 0.06485543369890327 0.8651545363908275 0.06999002991026917 </probabilities>
    </cpt>
    <cpt id="PULMEMBOLUS">
      <state id="FALSE"/>
      <state id="TRUE"/>
      <parents>SHUNT</parents>
      <probabilities>0.9060735671514114 0.09392643284858854 0.9994253401204405 5.746598795594502E-4 </probabilities>
    </cpt>
    <cpt id="PAP">
      <state id="HIGH"/>
      <state id="LOW"/>
      <state id="NORMAL"/>
      <parents>PULMEMBOLUS</parents>
      <probabilities>0.0570458151277751 0.05300345180402284 0.8899507330682022 0.6563386762788557 0.040493902906664624 0.30316742081447967 </probabilities>
    </cpt>
    <cpt id="VENTLUNG">
      <state id="HIGH"/>
      <state id="LOW"/>
      <state id="NORMAL"/>
      <state id="ZERO"/>
      <parents>MINVOLLV_1</parents>
      <probabilities>0.01050298290762967 0.9686517084383408 0.01027739344259672 0.010567915211432721 0.28970202748943935 0.3078067072934294 0.030317653597119895 0.3721736116200114 0.050148936131501225 0.07436390988898489 0.050148936131501225 0.8253382178480128 0.0028972166547705396 0.014389414686545896 0.007094446198753439 0.9756189224599302 0.38680674346022 0.16226417092730833 0.1298859159654913 0.32104316964698043 0.17470824987964717 0.2340916089958187 0.4139245042359304 0.17727563688860362 0.24634197417824832 0.2505639884626241 0.24634197417824832 0.25675206318087923 0.06312677303413267 0.6333740194793511 0.16105464367745975 0.14244456380905643 </probabilities>
    </cpt>
    <cpt id="VENTTUBE">
      <state id="HIGH"/>
      <state id="LOW"/>
      <state id="NORMAL"/>
      <state id="ZERO"/>
      <parents>DISCONNECTMINVOLPRESSVENTMACH</parents>
      <probabilities>0.562970340858787 0.19444444444444445 0.11243913235945108 0.1301460823373174 0.21334661354581672 0.35 0.20239043824701194 0.23426294820717133 0.15239043824701196 0.25 0.4302788844621514 0.16733067729083667 0.11852589641434262 0.19444444444444445 0.5568835768038956 0.1301460823373174 0.21334661354581672 0.35 0.20239043824701194 0.23426294820717133 0.21334661354581672 0.35 0.20239043824701194 0.23426294820717133 0.46061209706628037 0.3409090909090909 0.0919956537486418 0.10648315827598696 0.21334661354581672 0.35 0.20239043824701194 0.23426294820717133 0.9558059895250459 0.01966292134831461 0.011370249339719774 0.01316083978691974 0.21334661354581672 0.35 0.20239043824701194 0.23426294820717133 0.6424302788844621 0.1590909090909091 0.0919956537486418 0.10648315827598696 0.21334661354581672 0.35 0.20239043824701194 0.23426294820717133 0.4381047239612977 0.25 0.14456459874786567 0.16733067729083667 0.21334661354581672 0.35 0.20239043824701194 0.23426294820717133 0.21334661354581672 0.35 0.20239043824701194 0.23426294820717133 0.21334661354581672 0.35 0.20239043824701194 0.23426294820717133 0.8127015746537658 0.08333333333333333 0.048188199582621896 0.05577689243027889 0.21334661354581672 0.35 0.20239043824701194 0.23426294820717133 0.21334661354581672 0.35 0.20239043824701194 0.23426294820717133 0.21334661354581672 0.35 0.20239043824701194 0.23426294820717133 0.21334661354581672 0.35 0.20239043824701194 0.23426294820717133 0.21334661354581672 0.35 0.20239043824701194 0.23426294820717133 0.21334661354581672 0.35 0.20239043824701194 0.23426294820717133 0.21334661354581672 0.35 0.20239043824701194 0.23426294820717133 0.21334661354581672 0.35 0.20239043824701194 0.23426294820717133 0.21334661354581672 0.35 0.20239043824701194 0.23426294820717133 0.21334661354581672 0.35 0.20239043824701194 0.23426294820717133 0.15239043824701196 0.25 0.4302788844621514 0.16733067729083667 0.21334661354581672 0.35 0.20239043824701194 0.23426294820717133 0.21334661354581672 0.35 0.20239043824701194 0.23426294820717133 0.4381047239612977 0.25 0.14456459874786567 0.16733067729083667 0.15239043824701196 0.25 0.4302788844621514 0.16733067729083667 0.018714615223317257 0.03070175438596491 0.01775354721465017 0.9328300831760676 0.07111553784860557 0.11666666666666667 0.06746347941567064 0.7447543160690572 0.11852589641434262 0.19444444444444445 0.11243913235945108 0.5745905267817618 0.15239043824701196 0.25 0.4302788844621514 0.16733067729083667 0.15239043824701196 0.25 0.14456459874786567 0.45304496300512237 0.21334661354581672 0.35 0.20239043824701194 0.23426294820717133 0.06274900398406374 0.22058823529411764 0.05952659948441528 0.6571361612374034 0.11852589641434262 0.19444444444444445 0.11243913235945108 0.5745905267817618 0.21334661354581672 0.35 0.20239043824701194 0.23426294820717133 0.21334661354581672 0.35 0.20239043824701194 0.23426294820717133 0.21334661354581672 0.35 0.20239043824701194 0.23426294820717133 0.21334661354581672 0.35 0.20239043824701194 0.23426294820717133 0.11852589641434262 0.19444444444444445 0.11243913235945108 0.5745905267817618 0.21334661354581672 0.35 0.20239043824701194 0.23426294820717133 0.15239043824701196 0.25 0.14456459874786567 0.45304496300512237 0.21334661354581672 0.35 0.20239043824701194 0.23426294820717133 0.21334661354581672 0.35 0.20239043824701194 0.23426294820717133 0.21334661354581672 0.35 0.20239043824701194 0.23426294820717133 0.15239043824701196 0.5357142857142857 0.14456459874786567 0.16733067729083667 0.21334661354581672 0.35 0.20239043824701194 0.23426294820717133 0.15239043824701196 0.25 0.14456459874786567 0.45304496300512237 0.21334661354581672 0.35 0.20239043824701194 0.23426294820717133 0.15239043824701196 0.25 0.14456459874786567 0.45304496300512237 0.21334661354581672 0.35 0.20239043824701194 0.23426294820717133 0.21334661354581672 0.35 0.20239043824701194 0.23426294820717133 0.21334661354581672 0.35 0.20239043824701194 0.23426294820717133 0.11852589641434262 0.19444444444444445 0.11243913235945108 0.5745905267817618 0.21334661354581672 0.35 0.20239043824701194 0.23426294820717133 0.21334661354581672 0.35 0.20239043824701194 0.23426294820717133 0.21334661354581672 0.35 0.20239043824701194 0.23426294820717133 0.15239043824701196 0.25 0.14456459874786567 0.45304496300512237 0.15239043824701196 0.25 0.14456459874786567 0.45304496300512237 0.027352129941771375 0.7628205128205128 0.02594749208295025 0.18387986515476554 0.011722341403616303 0.019230769230769232 0.011120353749835821 0.9579265356157787 0.01385367620427381 0.8538961038961037 0.11703834014590986 0.015211879753712422 0.0969757334299167 0.1590909090909091 0.2738138355668236 0.47011952191235057 0.027352129941771375 0.9166666666666666 0.02594749208295025 0.03003371130861171 0.21334661354581672 0.35 0.20239043824701194 0.23426294820717133 0.001964517620127226 0.9940147329650092 0.0018636320280572003 0.0021571173868063656 0.021770062606715993 0.07653061224489796 0.020652085535409384 0.8810472396129767 0.38161148509410636 0.5431034482758621 0.03489490314603654 0.04039016348399506 0.21334661354581672 0.35 0.20239043824701194 0.23426294820717133 0.08205638982531413 0.75 0.07784247624885075 0.09010113392583513 0.21334661354581672 0.35 0.20239043824701194 0.23426294820717133 0.11852589641434262 0.6388888888888888 0.11243913235945108 0.1301460823373174 0.08205638982531413 0.1346153846153846 0.07784247624885075 0.7054857493104506 0.0029386585887853536 0.9910468319559227 0.0027877470832921754 0.0032267623719996045 0.21334661354581672 0.35 0.20239043824701194 0.23426294820717133 0.03441074412029302 0.8951612903225806 0.0326436190720987 0.03778434648502763 0.21334661354581672 0.35 0.20239043824701194 0.23426294820717133 0.08205638982531413 0.75 0.07784247624885075 0.09010113392583513 0.21334661354581672 0.35 0.20239043824701194 0.23426294820717133 0.21334661354581672 0.35 0.20239043824701194 0.23426294820717133 0.21334661354581672 0.35 0.20239043824701194 0.23426294820717133 0.0027282175645245103 0.9916879795396418 0.0025881130210615336 0.0029956898747720115 0.21334661354581672 0.35 0.20239043824701194 0.23426294820717133 0.11852589641434262 0.6388888888888888 0.11243913235945108 0.1301460823373174 0.34074811863656485 0.19444444444444445 0.11243913235945108 0.3523683045595396 0.15239043824701196 0.25 0.14456459874786567 0.45304496300512237 0.11852589641434262 0.19444444444444445 0.11243913235945108 0.5745905267817618 0.11852589641434262 0.6388888888888888 0.11243913235945108 0.1301460823373174 0.21334661354581672 0.35 0.20239043824701194 0.23426294820717133 0.04637969859691668 0.7717391304347826 0.043997921358046074 0.13788324961025464 0.15239043824701196 0.25 0.14456459874786567 0.45304496300512237 0.026017879700709356 0.042682926829268296 0.024681760761830724 0.9066174327081916 0.11852589641434262 0.19444444444444445 0.11243913235945108 0.5745905267817618 0.08205638982531413 0.1346153846153846 0.07784247624885075 0.7054857493104506 0.21334661354581672 0.35 0.20239043824701194 0.23426294820717133 0.21334661354581672 0.35 0.20239043824701194 0.23426294820717133 0.21334661354581672 0.35 0.20239043824701194 0.23426294820717133 0.05079681274900398 0.17857142857142858 0.048188199582621896 0.7224435590969456 0.15239043824701196 0.25 0.14456459874786567 0.45304496300512237 0.21334661354581672 0.35 0.20239043824701194 0.23426294820717133 0.21334661354581672 0.35 0.20239043824701194 0.23426294820717133 0.21334661354581672 0.35 0.20239043824701194 0.23426294820717133 0.21334661354581672 0.35 0.20239043824701194 0.23426294820717133 0.15239043824701196 0.25 0.14456459874786567 0.45304496300512237 0.21334661354581672 0.35 0.20239043824701194 0.23426294820717133 0.11852589641434262 0.4166666666666667 0.11243913235945108 0.3523683045595396 0.21334661354581672 0.35 0.20239043824701194 0.23426294820717133 0.15239043824701196 0.25 0.14456459874786567 0.45304496300512237 0.21334661354581672 0.35 0.20239043824701194 0.23426294820717133 0.21334661354581672 0.35 0.20239043824701194 0.23426294820717133 0.21334661354581672 0.35 0.20239043824701194 0.23426294820717133 0.21334661354581672 0.35 0.20239043824701194 0.23426294820717133 0.15239043824701196 0.25 0.14456459874786567 0.45304496300512237 0.21334661354581672 0.35 0.20239043824701194 0.23426294820717133 0.21334661354581672 0.35 0.20239043824701194 0.23426294820717133 0.4381047239612977 0.25 0.14456459874786567 0.16733067729083667 0.21334661354581672 0.35 0.20239043824701194 0.23426294820717133 0.15239043824701196 0.25 0.14456459874786567 0.45304496300512237 0.21334661354581672 0.35 0.20239043824701194 0.23426294820717133 0.21334661354581672 0.35 0.20239043824701194 0.23426294820717133 0.21334661354581672 0.35 0.20239043824701194 0.23426294820717133 0.07111553784860557 0.11666666666666667 0.06746347941567064 0.7447543160690572 0.21334661354581672 0.35 0.20239043824701194 0.23426294820717133 </probabilities>
    </cpt>
    <cpt id="PRESS">
      <state id="HIGH"/>
      <state id="LOW"/>
      <state id="NORMAL"/>
      <state id="ZERO"/>
      <probabilities>0.49051872311253736 0.2529940090014009 0.2230539189873921 0.03343334889866966 </probabilities>
    </cpt>
    <cpt id="KINKEDTUBE">
      <state id="FALSE"/>
      <state id="TRUE"/>
      <parents>PRESS</parents>
      <probabilities>0.9786457541769253 0.02135424582307466 0.9783223337215549 0.021677666278445074 0.9709711979159721 0.029028802084027937 0.6371893893372675 0.36281061066273246 </probabilities>
    </cpt>
    <cpt id="VENTTUBE">
      <state id="HIGH"/>
      <state id="LOW"/>
      <state id="NORMAL"/>
      <state id="ZERO"/>
      <parents>DISCONNECTMINVOLPRESSVENTMACH</parents>
      <probabilities>0.562970340858787 0.19444444444444445 0.11243913235945108 0.1301460823373174 0.21334661354581672 0.35 0.20239043824701194 0.23426294820717133 0.15239043824701196 0.25 0.4302788844621514 0.16733067729083667 0.11852589641434262 0.19444444444444445 0.5568835768038956 0.1301460823373174 0.21334661354581672 0.35 0.20239043824701194 0.23426294820717133 0.21334661354581672 0.35 0.20239043824701194 0.23426294820717133 0.46061209706628037 0.3409090909090909 0.0919956537486418 0.10648315827598696 0.21334661354581672 0.35 0.20239043824701194 0.23426294820717133 0.9558059895250459 0.01966292134831461 0.011370249339719774 0.01316083978691974 0.21334661354581672 0.35 0.20239043824701194 0.23426294820717133 0.6424302788844621 0.1590909090909091 0.0919956537486418 0.10648315827598696 0.21334661354581672 0.35 0.20239043824701194 0.23426294820717133 0.4381047239612977 0.25 0.14456459874786567 0.16733067729083667 0.21334661354581672 0.35 0.20239043824701194 0.23426294820717133 0.21334661354581672 0.35 0.20239043824701194 0.23426294820717133 0.21334661354581672 0.35 0.20239043824701194 0.23426294820717133 0.8127015746537658 0.08333333333333333 0.048188199582621896 0.05577689243027889 0.21334661354581672 0.35 0.20239043824701194 0.23426294820717133 0.21334661354581672 0.35 0.20239043824701194 0.23426294820717133 0.21334661354581672 0.35 0.20239043824701194 0.23426294820717133 0.21334661354581672 0.35 0.20239043824701194 0.23426294820717133 0.21334661354581672 0.35 0.20239043824701194 0.23426294820717133 0.21334661354581672 0.35 0.20239043824701194 0.23426294820717133 0.21334661354581672 0.35 0.20239043824701194 0.23426294820717133 0.21334661354581672 0.35 0.20239043824701194 0.23426294820717133 0.21334661354581672 0.35 0.20239043824701194 0.23426294820717133 0.21334661354581672 0.35 0.20239043824701194 0.23426294820717133 0.15239043824701196 0.25 0.4302788844621514 0.16733067729083667 0.21334661354581672 0.35 0.20239043824701194 0.23426294820717133 0.21334661354581672 0.35 0.20239043824701194 0.23426294820717133 0.4381047239612977 0.25 0.14456459874786567 0.16733067729083667 0.15239043824701196 0.25 0.4302788844621514 0.16733067729083667 0.018714615223317257 0.03070175438596491 0.01775354721465017 0.9328300831760676 0.07111553784860557 0.11666666666666667 0.06746347941567064 0.7447543160690572 0.11852589641434262 0.19444444444444445 0.11243913235945108 0.5745905267817618 0.15239043824701196 0.25 0.4302788844621514 0.16733067729083667 0.15239043824701196 0.25 0.14456459874786567 0.45304496300512237 0.21334661354581672 0.35 0.20239043824701194 0.23426294820717133 0.06274900398406374 0.22058823529411764 0.05952659948441528 0.6571361612374034 0.11852589641434262 0.19444444444444445 0.11243913235945108 0.5745905267817618 0.21334661354581672 0.35 0.20239043824701194 0.23426294820717133 0.21334661354581672 0.35 0.20239043824701194 0.23426294820717133 0.21334661354581672 0.35 0.20239043824701194 0.23426294820717133 0.21334661354581672 0.35 0.20239043824701194 0.23426294820717133 0.11852589641434262 0.19444444444444445 0.11243913235945108 0.5745905267817618 0.21334661354581672 0.35 0.20239043824701194 0.23426294820717133 0.15239043824701196 0.25 0.14456459874786567 0.45304496300512237 0.21334661354581672 0.35 0.20239043824701194 0.23426294820717133 0.21334661354581672 0.35 0.20239043824701194 0.23426294820717133 0.21334661354581672 0.35 0.20239043824701194 0.23426294820717133 0.15239043824701196 0.5357142857142857 0.14456459874786567 0.16733067729083667 0.21334661354581672 0.35 0.20239043824701194 0.23426294820717133 0.15239043824701196 0.25 0.14456459874786567 0.45304496300512237 0.21334661354581672 0.35 0.20239043824701194 0.23426294820717133 0.15239043824701196 0.25 0.14456459874786567 0.45304496300512237 0.21334661354581672 0.35 0.20239043824701194 0.23426294820717133 0.21334661354581672 0.35 0.20239043824701194 0.23426294820717133 0.21334661354581672 0.35 0.20239043824701194 0.23426294820717133 0.11852589641434262 0.19444444444444445 0.11243913235945108 0.5745905267817618 0.21334661354581672 0.35 0.20239043824701194 0.23426294820717133 0.21334661354581672 0.35 0.20239043824701194 0.23426294820717133 0.21334661354581672 0.35 0.20239043824701194 0.23426294820717133 0.15239043824701196 0.25 0.14456459874786567 0.45304496300512237 0.15239043824701196 0.25 0.14456459874786567 0.45304496300512237 0.027352129941771375 0.7628205128205128 0.02594749208295025 0.18387986515476554 0.011722341403616303 0.019230769230769232 0.011120353749835821 0.9579265356157787 0.01385367620427381 0.8538961038961037 0.11703834014590986 0.015211879753712422 0.0969757334299167 0.1590909090909091 0.2738138355668236 0.47011952191235057 0.027352129941771375 0.9166666666666666 0.02594749208295025 0.03003371130861171 0.21334661354581672 0.35 0.20239043824701194 0.23426294820717133 0.001964517620127226 0.9940147329650092 0.0018636320280572003 0.0021571173868063656 0.021770062606715993 0.07653061224489796 0.020652085535409384 0.8810472396129767 0.38161148509410636 0.5431034482758621 0.03489490314603654 0.04039016348399506 0.21334661354581672 0.35 0.20239043824701194 0.23426294820717133 0.08205638982531413 0.75 0.07784247624885075 0.09010113392583513 0.21334661354581672 0.35 0.20239043824701194 0.23426294820717133 0.11852589641434262 0.6388888888888888 0.11243913235945108 0.1301460823373174 0.08205638982531413 0.1346153846153846 0.07784247624885075 0.7054857493104506 0.0029386585887853536 0.9910468319559227 0.0027877470832921754 0.0032267623719996045 0.21334661354581672 0.35 0.20239043824701194 0.23426294820717133 0.03441074412029302 0.8951612903225806 0.0326436190720987 0.03778434648502763 0.21334661354581672 0.35 0.20239043824701194 0.23426294820717133 0.08205638982531413 0.75 0.07784247624885075 0.09010113392583513 0.21334661354581672 0.35 0.20239043824701194 0.23426294820717133 0.21334661354581672 0.35 0.20239043824701194 0.23426294820717133 0.21334661354581672 0.35 0.20239043824701194 0.23426294820717133 0.0027282175645245103 0.9916879795396418 0.0025881130210615336 0.0029956898747720115 0.21334661354581672 0.35 0.20239043824701194 0.23426294820717133 0.11852589641434262 0.6388888888888888 0.11243913235945108 0.1301460823373174 0.34074811863656485 0.19444444444444445 0.11243913235945108 0.3523683045595396 0.15239043824701196 0.25 0.14456459874786567 0.45304496300512237 0.11852589641434262 0.19444444444444445 0.11243913235945108 0.5745905267817618 0.11852589641434262 0.6388888888888888 0.11243913235945108 0.1301460823373174 0.21334661354581672 0.35 0.20239043824701194 0.23426294820717133 0.04637969859691668 0.7717391304347826 0.043997921358046074 0.13788324961025464 0.15239043824701196 0.25 0.14456459874786567 0.45304496300512237 0.026017879700709356 0.042682926829268296 0.024681760761830724 0.9066174327081916 0.11852589641434262 0.19444444444444445 0.11243913235945108 0.5745905267817618 0.08205638982531413 0.1346153846153846 0.07784247624885075 0.7054857493104506 0.21334661354581672 0.35 0.20239043824701194 0.23426294820717133 0.21334661354581672 0.35 0.20239043824701194 0.23426294820717133 0.21334661354581672 0.35 0.20239043824701194 0.23426294820717133 0.05079681274900398 0.17857142857142858 0.048188199582621896 0.7224435590969456 0.15239043824701196 0.25 0.14456459874786567 0.45304496300512237 0.21334661354581672 0.35 0.20239043824701194 0.23426294820717133 0.21334661354581672 0.35 0.20239043824701194 0.23426294820717133 0.21334661354581672 0.35 0.20239043824701194 0.23426294820717133 0.21334661354581672 0.35 0.20239043824701194 0.23426294820717133 0.15239043824701196 0.25 0.14456459874786567 0.45304496300512237 0.21334661354581672 0.35 0.20239043824701194 0.23426294820717133 0.11852589641434262 0.4166666666666667 0.11243913235945108 0.3523683045595396 0.21334661354581672 0.35 0.20239043824701194 0.23426294820717133 0.15239043824701196 0.25 0.14456459874786567 0.45304496300512237 0.21334661354581672 0.35 0.20239043824701194 0.23426294820717133 0.21334661354581672 0.35 0.20239043824701194 0.23426294820717133 0.21334661354581672 0.35 0.20239043824701194 0.23426294820717133 0.21334661354581672 0.35 0.20239043824701194 0.23426294820717133 0.15239043824701196 0.25 0.14456459874786567 0.45304496300512237 0.21334661354581672 0.35 0.20239043824701194 0.23426294820717133 0.21334661354581672 0.35 0.20239043824701194 0.23426294820717133 0.4381047239612977 0.25 0.14456459874786567 0.16733067729083667 0.21334661354581672 0.35 0.20239043824701194 0.23426294820717133 0.15239043824701196 0.25 0.14456459874786567 0.45304496300512237 0.21334661354581672 0.35 0.20239043824701194 0.23426294820717133 0.21334661354581672 0.35 0.20239043824701194 0.23426294820717133 0.21334661354581672 0.35 0.20239043824701194 0.23426294820717133 0.07111553784860557 0.11666666666666667 0.06746347941567064 0.7447543160690572 0.21334661354581672 0.35 0.20239043824701194 0.23426294820717133 </probabilities>
    </cpt>
    <cpt id="SAO2">
      <state id="HIGH"/>
      <state id="LOW"/>
      <state id="NORMAL"/>
      <probabilities>0.016475523529212763 0.9640534484371238 0.01947102803366348 </probabilities>
    </cpt>
    <cpt id="PVSAT">
      <state id="HIGH"/>
      <state id="LOW"/>
      <state id="NORMAL"/>
      <parents>SAO2</parents>
      <probabilities>0.694832170156198 0.27697463166057384 0.02819319818322809 5.242803131453623E-4 0.9968826715303933 0.0025930481564613297 0.07176090775293169 0.33264492237572996 0.5955941698713384 </probabilities>
    </cpt>
    <cpt id="VENTALV">
      <state id="HIGH"/>
      <state id="LOW"/>
      <state id="NORMAL"/>
      <state id="ZERO"/>
      <parents>MINVOLPVSATLV_1</parents>
      <probabilities>0.22226506945672173 0.22226506945672173 0.33320479162983485 0.22226506945672173 0.25 0.25 0.25 0.25 0.33307324103581243 0.2223089196547292 0.2223089196547292 0.2223089196547292 0.6271489811785941 0.10662377147791698 0.15960347586557197 0.10662377147791698 0.010548104288808877 0.030519473445128086 0.9280379380662009 0.030894484199862227 0.029236543984161405 0.7151787585624779 0.08081740059723141 0.17476729685612927 0.05143409200238535 0.05143409200238535 0.6666859540340296 0.23044586196119965 0.002963516337335332 0.008235805899167357 0.014334486617934785 0.9744661911455625 0.16672117473061582 0.16672117473061582 0.49983647580815255 0.16672117473061582 0.16689759494494172 0.49930721516517496 0.16689759494494172 0.16689759494494172 0.25 0.25 0.25 0.25 0.31503872126385773 0.1576513676840023 0.1798201937651212 0.34748971728701866 0.24994579367861264 0.24994579367861264 0.25016261896416203 0.24994579367861264 0.25 0.25 0.25 0.25 0.2503289066359116 0.24989036445469612 0.24989036445469612 0.24989036445469612 0.2713057460632709 0.24264610046973598 0.24340205299725703 0.24264610046973598 0.12993366206180537 0.4036569835512997 0.13233865948096848 0.33407069490592645 0.17252590846137889 0.17911482299673298 0.4719860788338341 0.17637318970805418 0.2464485175629762 0.2464485175629762 0.2558267211996866 0.2512762436743612 0.06638774506376952 0.5457693062945475 0.20998537639604944 0.17785757224563364 0.24987745704979888 0.24987745704979888 0.2503676288506033 0.24987745704979888 0.24948220497658008 0.2515533850702598 0.24948220497658008 0.24948220497658008 0.25 0.25 0.25 0.25 0.21509520640625032 0.2147355950271522 0.29190742196643954 0.278261776600158 </probabilities>
    </cpt>
    <cpt id="ARTCO2">
      <state id="HIGH"/>
      <state id="LOW"/>
      <state id="NORMAL"/>
      <parents>VENTALV</parents>
      <probabilities>0.058325024925224324 0.7675972083748753 0.17407776669990033 0.9730996882769414 0.00650579905852064 0.020394512664538032 0.034844581300346754 0.02439804480364217 0.9407573738960111 0.9722018537411022 0.016735404252359202 0.011062742006538524 </probabilities>
    </cpt>
    <cpt id="CATECHOL">
      <state id="HIGH"/>
      <state id="NORMAL"/>
      <parents>ARTCO2TPR</parents>
      <probabilities>0.8683768320819386 0.13162316791806142 0.1857713145138295 0.8142286854861706 0.284971410562334 0.7150285894376661 0.9886440926610032 0.01135590733899684 0.9267465069860279 0.07325349301397206 0.979478129833049 0.020521870166950864 0.9851569292084673 0.01484307079153276 0.9593036149922377 0.04069638500776226 0.9106579739928427 0.0893420260071573 </probabilities>
    </cpt>
    <cpt id="HR">
      <state id="HIGH"/>
      <state id="LOW"/>
      <state id="NORMAL"/>
      <parents>CATECHOL</parents>
      <probabilities>0.8859533126284863 0.01272895914027828 0.1013177282312355 0.059017946161515455 0.02506979062811565 0.9159122632103689 </probabilities>
    </cpt>
    <cpt id="CO">
      <state id="HIGH"/>
      <state id="LOW"/>
      <state id="NORMAL"/>
      <parents>HRSTROKEVOLUME</parents>
      <probabilities>0.9412438360593893 0.0428174934655493 0.015938670475061305 0.4130109670987039 0.292123629112662 0.29486540378863413 0.7558478410921083 0.044942096786563385 0.19921006212132836 0.012769384155226628 0.8012884423652121 0.18594217347956132 0.2753406447324693 0.5280824194084414 0.19657693585908942 0.05217205526278308 0.9309784930921522 0.01684945164506481 0.9585198445866836 0.007265051122385617 0.03421510429093069 0.13043013815695767 0.6845890898732374 0.18498077196980486 0.027328728101410054 0.05417319470160946 0.9184980771969805 </probabilities>
    </cpt>
    <cpt id="BP">
      <state id="HIGH"/>
      <state id="LOW"/>
      <state id="NORMAL"/>
      <parents>COTPR</parents>
      <probabilities>0.9302616840835518 0.004289600334798075 0.06544871558165012 0.06275242070398973 0.2999138178684286 0.6373337614275816 0.4719804002626268 0.04505994212484497 0.48295965761252824 0.007845128209840525 0.9018198859642271 0.09033498582593234 0.01494452811777434 0.9722322394518573 0.012823232430368472 0.015608729367453198 0.9487758945386066 0.03561537609394041 0.7560799743626264 0.05962469733656174 0.18429532830081183 0.01032930619904991 0.9808075772681955 0.008863116532754678 0.046592979681644726 0.11542957334891876 0.8379774469694364 </probabilities>
    </cpt>
    <cpt id="HRBP">
      <state id="HIGH"/>
      <state id="LOW"/>
      <state id="NORMAL"/>
      <parents>ERRLOWOUTPUTHR</parents>
      <probabilities>0.9777313054335045 0.005973626584485815 0.01629506798200976 0.02188434695912263 0.03984297108673978 0.9382726819541375 0.06252670559749322 0.39955134596211367 0.5379219484403931 0.29179129278830174 0.5312396144898638 0.1769690927218345 0.0049178307773309286 0.9808635890082561 0.014218580214412942 0.23442173479561315 0.3242148554336989 0.44136340977068794 </probabilities>
    </cpt>
    <cpt id="HREKG">
      <state id="HIGH"/>
      <state id="LOW"/>
      <state id="NORMAL"/>
      <parents>ERRCAUTERHR</parents>
      <probabilities>0.9831834137476766 0.007739247631068015 0.009077338621255348 0.021361203745086578 0.018249848156679387 0.960388948098234 0.1548687271518777 0.29897806580259223 0.54615320704553 0.37168494516450645 0.11754735792622133 0.5107676969092723 0.011543010719394611 0.9725946384449137 0.015862350835691683 0.2343369890329013 0.42350947158524427 0.34215353938185444 </probabilities>
    </cpt>
    <cpt id="HRSAT">
      <state id="HIGH"/>
      <state id="LOW"/>
      <state id="NORMAL"/>
      <parents>ERRCAUTERHR</parents>
      <probabilities>0.9818018244435668 0.01050864028413375 0.007689535272299445 0.04437835917534752 0.0067498653464892686 0.9488717754781633 0.2384097706879362 0.3822698570953806 0.3793203722166833 0.3721834496510469 0.31744765702891325 0.31036889332003986 0.017769672349411392 0.9601691818953079 0.02206114575528074 0.31443668993020935 0.3434895314057826 0.34207377866400795 </probabilities>
    </cpt>
    <cpt id="EXPCO2">
      <state id="HIGH"/>
      <state id="LOW"/>
      <state id="NORMAL"/>
      <state id="ZERO"/>
      <parents>ARTCO2VENTLUNG</parents>
      <probabilities>0.8781811529392634 0.03435238637287585 0.06268802341653794 0.024778437271322878 0.20617529880478086 0.33665338645418325 0.2143426294820717 0.24282868525896414 0.43298235628912923 0.2404667046101309 0.15310187820147977 0.1734490608992601 0.00912280083206995 0.03259528258646829 0.9298381694461093 0.028443747135352394 0.1145418326693227 0.6314741035856574 0.11907923860115094 0.13490482514386898 0.013859163895382658 0.010146740860250457 0.0029523778165574614 0.9730417174278094 0.1145418326693227 0.18702965914121292 0.11907923860115094 0.5793492695883135 0.14726807057484348 0.2404667046101309 0.4388161639157655 0.1734490608992601 0.06063979376611202 0.09901570189828919 0.7689243027888446 0.07142020154675416 0.00964535639824123 0.9605353567226284 0.014116738080984721 0.01570254879814568 0.019450499887243476 0.03175975343907388 0.020221002781327515 0.9285687438923551 0.01338800641589486 0.879003466652869 0.06586640451182282 0.04174212241941325 </probabilities>
    </cpt>
    <cpt id="SHUNT">
      <state id="HIGH"/>
      <state id="NORMAL"/>
      <parents>VENTALVVENTLUNG</parents>
      <probabilities>0.3739188290086493 0.6260811709913506 0.2791863082345946 0.7208136917654053 0.3739188290086493 0.6260811709913506 0.2243512974051896 0.7756487025948104 0.3739188290086493 0.6260811709913506 0.8890388237609288 0.11096117623907116 0.06165801729873586 0.9383419827012641 0.033992620818968124 0.9660073791810319 0.2243512974051896 0.7756487025948104 0.3739188290086493 0.6260811709913506 0.07478376580172987 0.9252162341982701 0.731679498146564 0.268320501853436 0.11562061063059066 0.8843793893694093 0.024927921933909955 0.9750720780660901 0.6436083057765067 0.3563916942234933 0.07402670387380579 0.9259732961261942 </probabilities>
    </cpt>
    <cpt id="ANAPHYLAXIS">
      <state id="FALSE"/>
      <state id="TRUE"/>
      <parents>SHUNT</parents>
      <probabilities>0.9550653794451912 0.04493462055480875 0.9960198852720454 0.003980114727954653 </probabilities>
    </cpt>
    <cpt id="TPR">
      <state id="HIGH"/>
      <state id="LOW"/>
      <state id="NORMAL"/>
      <parents>ANAPHYLAXIS</parents>
      <probabilities>0.29944522569113585 0.2974361623379359 0.40311861197092824 0.06485543369890327 0.8651545363908275 0.06999002991026917 </probabilities>
    </cpt>
    <cpt id="PULMEMBOLUS">
      <state id="FALSE"/>
      <state id="TRUE"/>
      <parents>SHUNT</parents>
      <probabilities>0.9060735671514114 0.09392643284858854 0.9994253401204405 5.746598795594502E-4 </probabilities>
    </cpt>
    <cpt id="PAP">
      <state id="HIGH"/>
      <state id="LOW"/>
      <state id="NORMAL"/>
      <parents>PULMEMBOLUS</parents>
      <probabilities>0.0570458151277751 0.05300345180402284 0.8899507330682022 0.6563386762788557 0.040493902906664624 0.30316742081447967 </probabilities>
    </cpt>
    <cpt id="VENTMACH">
      <state id="HIGH"/>
      <state id="LOW"/>
      <state id="NORMAL"/>
      <state id="ZERO"/>
      <probabilities>0.06536944491361238 0.05339340890800886 0.8358277612741055 0.04540938490427318 </probabilities>
    </cpt>
    <cpt id="MINVOLSET">
      <state id="HIGH"/>
      <state id="LOW"/>
      <state id="NORMAL"/>
      <parents>VENTMACH</parents>
      <probabilities>0.7839838692876594 0.007857025937114032 0.20815910477522656 0.009580349859512371 0.8822985588688479 0.10812109127163962 6.280324699322771E-4 6.274383048708464E-4 0.9987445292251969 0.03248764345262086 0.0963068242082264 0.8712055323391528 </probabilities>
    </cpt>
    <cpt id="VENTTUBE">
      <state id="HIGH"/>
      <state id="LOW"/>
      <state id="NORMAL"/>
      <state id="ZERO"/>
      <parents>DISCONNECTMINVOLPRESSVENTMACH</parents>
      <probabilities>0.562970340858787 0.19444444444444445 0.11243913235945108 0.1301460823373174 0.21334661354581672 0.35 0.20239043824701194 0.23426294820717133 0.15239043824701196 0.25 0.4302788844621514 0.16733067729083667 0.11852589641434262 0.19444444444444445 0.5568835768038956 0.1301460823373174 0.21334661354581672 0.35 0.20239043824701194 0.23426294820717133 0.21334661354581672 0.35 0.20239043824701194 0.23426294820717133 0.46061209706628037 0.3409090909090909 0.0919956537486418 0.10648315827598696 0.21334661354581672 0.35 0.20239043824701194 0.23426294820717133 0.9558059895250459 0.01966292134831461 0.011370249339719774 0.01316083978691974 0.21334661354581672 0.35 0.20239043824701194 0.23426294820717133 0.6424302788844621 0.1590909090909091 0.0919956537486418 0.10648315827598696 0.21334661354581672 0.35 0.20239043824701194 0.23426294820717133 0.4381047239612977 0.25 0.14456459874786567 0.16733067729083667 0.21334661354581672 0.35 0.20239043824701194 0.23426294820717133 0.21334661354581672 0.35 0.20239043824701194 0.23426294820717133 0.21334661354581672 0.35 0.20239043824701194 0.23426294820717133 0.8127015746537658 0.08333333333333333 0.048188199582621896 0.05577689243027889 0.21334661354581672 0.35 0.20239043824701194 0.23426294820717133 0.21334661354581672 0.35 0.20239043824701194 0.23426294820717133 0.21334661354581672 0.35 0.20239043824701194 0.23426294820717133 0.21334661354581672 0.35 0.20239043824701194 0.23426294820717133 0.21334661354581672 0.35 0.20239043824701194 0.23426294820717133 0.21334661354581672 0.35 0.20239043824701194 0.23426294820717133 0.21334661354581672 0.35 0.20239043824701194 0.23426294820717133 0.21334661354581672 0.35 0.20239043824701194 0.23426294820717133 0.21334661354581672 0.35 0.20239043824701194 0.23426294820717133 0.21334661354581672 0.35 0.20239043824701194 0.23426294820717133 0.15239043824701196 0.25 0.4302788844621514 0.16733067729083667 0.21334661354581672 0.35 0.20239043824701194 0.23426294820717133 0.21334661354581672 0.35 0.20239043824701194 0.23426294820717133 0.4381047239612977 0.25 0.14456459874786567 0.16733067729083667 0.15239043824701196 0.25 0.4302788844621514 0.16733067729083667 0.018714615223317257 0.03070175438596491 0.01775354721465017 0.9328300831760676 0.07111553784860557 0.11666666666666667 0.06746347941567064 0.7447543160690572 0.11852589641434262 0.19444444444444445 0.11243913235945108 0.5745905267817618 0.15239043824701196 0.25 0.4302788844621514 0.16733067729083667 0.15239043824701196 0.25 0.14456459874786567 0.45304496300512237 0.21334661354581672 0.35 0.20239043824701194 0.23426294820717133 0.06274900398406374 0.22058823529411764 0.05952659948441528 0.6571361612374034 0.11852589641434262 0.19444444444444445 0.11243913235945108 0.5745905267817618 0.21334661354581672 0.35 0.20239043824701194 0.23426294820717133 0.21334661354581672 0.35 0.20239043824701194 0.23426294820717133 0.21334661354581672 0.35 0.20239043824701194 0.23426294820717133 0.21334661354581672 0.35 0.20239043824701194 0.23426294820717133 0.11852589641434262 0.19444444444444445 0.11243913235945108 0.5745905267817618 0.21334661354581672 0.35 0.20239043824701194 0.23426294820717133 0.15239043824701196 0.25 0.14456459874786567 0.45304496300512237 0.21334661354581672 0.35 0.20239043824701194 0.23426294820717133 0.21334661354581672 0.35 0.20239043824701194 0.23426294820717133 0.21334661354581672 0.35 0.20239043824701194 0.23426294820717133 0.15239043824701196 0.5357142857142857 0.14456459874786567 0.16733067729083667 0.21334661354581672 0.35 0.20239043824701194 0.23426294820717133 0.15239043824701196 0.25 0.14456459874786567 0.45304496300512237 0.21334661354581672 0.35 0.20239043824701194 0.23426294820717133 0.15239043824701196 0.25 0.14456459874786567 0.45304496300512237 0.21334661354581672 0.35 0.20239043824701194 0.23426294820717133 0.21334661354581672 0.35 0.20239043824701194 0.23426294820717133 0.21334661354581672 0.35 0.20239043824701194 0.23426294820717133 0.11852589641434262 0.19444444444444445 0.11243913235945108 0.5745905267817618 0.21334661354581672 0.35 0.20239043824701194 0.23426294820717133 0.21334661354581672 0.35 0.20239043824701194 0.23426294820717133 0.21334661354581672 0.35 0.20239043824701194 0.23426294820717133 0.15239043824701196 0.25 0.14456459874786567 0.45304496300512237 0.15239043824701196 0.25 0.14456459874786567 0.45304496300512237 0.027352129941771375 0.7628205128205128 0.02594749208295025 0.18387986515476554 0.011722341403616303 0.019230769230769232 0.011120353749835821 0.9579265356157787 0.01385367620427381 0.8538961038961037 0.11703834014590986 0.015211879753712422 0.0969757334299167 0.1590909090909091 0.2738138355668236 0.47011952191235057 0.027352129941771375 0.9166666666666666 0.02594749208295025 0.03003371130861171 0.21334661354581672 0.35 0.20239043824701194 0.23426294820717133 0.001964517620127226 0.9940147329650092 0.0018636320280572003 0.0021571173868063656 0.021770062606715993 0.07653061224489796 0.020652085535409384 0.8810472396129767 0.38161148509410636 0.5431034482758621 0.03489490314603654 0.04039016348399506 0.21334661354581672 0.35 0.20239043824701194 0.23426294820717133 0.08205638982531413 0.75 0.07784247624885075 0.09010113392583513 0.21334661354581672 0.35 0.20239043824701194 0.23426294820717133 0.11852589641434262 0.6388888888888888 0.11243913235945108 0.1301460823373174 0.08205638982531413 0.1346153846153846 0.07784247624885075 0.7054857493104506 0.0029386585887853536 0.9910468319559227 0.0027877470832921754 0.0032267623719996045 0.21334661354581672 0.35 0.20239043824701194 0.23426294820717133 0.03441074412029302 0.8951612903225806 0.0326436190720987 0.03778434648502763 0.21334661354581672 0.35 0.20239043824701194 0.23426294820717133 0.08205638982531413 0.75 0.07784247624885075 0.09010113392583513 0.21334661354581672 0.35 0.20239043824701194 0.23426294820717133 0.21334661354581672 0.35 0.20239043824701194 0.23426294820717133 0.21334661354581672 0.35 0.20239043824701194 0.23426294820717133 0.0027282175645245103 0.9916879795396418 0.0025881130210615336 0.0029956898747720115 0.21334661354581672 0.35 0.20239043824701194 0.23426294820717133 0.11852589641434262 0.6388888888888888 0.11243913235945108 0.1301460823373174 0.34074811863656485 0.19444444444444445 0.11243913235945108 0.3523683045595396 0.15239043824701196 0.25 0.14456459874786567 0.45304496300512237 0.11852589641434262 0.19444444444444445 0.11243913235945108 0.5745905267817618 0.11852589641434262 0.6388888888888888 0.11243913235945108 0.1301460823373174 0.21334661354581672 0.35 0.20239043824701194 0.23426294820717133 0.04637969859691668 0.7717391304347826 0.043997921358046074 0.13788324961025464 0.15239043824701196 0.25 0.14456459874786567 0.45304496300512237 0.026017879700709356 0.042682926829268296 0.024681760761830724 0.9066174327081916 0.11852589641434262 0.19444444444444445 0.11243913235945108 0.5745905267817618 0.08205638982531413 0.1346153846153846 0.07784247624885075 0.7054857493104506 0.21334661354581672 0.35 0.20239043824701194 0.23426294820717133 0.21334661354581672 0.35 0.20239043824701194 0.23426294820717133 0.21334661354581672 0.35 0.20239043824701194 0.23426294820717133 0.05079681274900398 0.17857142857142858 0.048188199582621896 0.7224435590969456 0.15239043824701196 0.25 0.14456459874786567 0.45304496300512237 0.21334661354581672 0.35 0.20239043824701194 0.23426294820717133 0.21334661354581672 0.35 0.20239043824701194 0.23426294820717133 0.21334661354581672 0.35 0.20239043824701194 0.23426294820717133 0.21334661354581672 0.35 0.20239043824701194 0.23426294820717133 0.15239043824701196 0.25 0.14456459874786567 0.45304496300512237 0.21334661354581672 0.35 0.20239043824701194 0.23426294820717133 0.11852589641434262 0.4166666666666667 0.11243913235945108 0.3523683045595396 0.21334661354581672 0.35 0.20239043824701194 0.23426294820717133 0.15239043824701196 0.25 0.14456459874786567 0.45304496300512237 0.21334661354581672 0.35 0.20239043824701194 0.23426294820717133 0.21334661354581672 0.35 0.20239043824701194 0.23426294820717133 0.21334661354581672 0.35 0.20239043824701194 0.23426294820717133 0.21334661354581672 0.35 0.20239043824701194 0.23426294820717133 0.15239043824701196 0.25 0.14456459874786567 0.45304496300512237 0.21334661354581672 0.35 0.20239043824701194 0.23426294820717133 0.21334661354581672 0.35 0.20239043824701194 0.23426294820717133 0.4381047239612977 0.25 0.14456459874786567 0.16733067729083667 0.21334661354581672 0.35 0.20239043824701194 0.23426294820717133 0.15239043824701196 0.25 0.14456459874786567 0.45304496300512237 0.21334661354581672 0.35 0.20239043824701194 0.23426294820717133 0.21334661354581672 0.35 0.20239043824701194 0.23426294820717133 0.21334661354581672 0.35 0.20239043824701194 0.23426294820717133 0.07111553784860557 0.11666666666666667 0.06746347941567064 0.7447543160690572 0.21334661354581672 0.35 0.20239043824701194 0.23426294820717133 </probabilities>
    </cpt>
    <cpt id="LV_1">
      <state id="0"/>
      <state id="1"/>
      <probabilities>0.9633383790773349 0.0366616209226651 </probabilities>
    </cpt>
    <cpt id="VENTALV">
      <state id="HIGH"/>
      <state id="LOW"/>
      <state id="NORMAL"/>
      <state id="ZERO"/>
      <parents>MINVOLPVSATLV_1</parents>
      <probabilities>0.22226506945672173 0.22226506945672173 0.33320479162983485 0.22226506945672173 0.25 0.25 0.25 0.25 0.33307324103581243 0.2223089196547292 0.2223089196547292 0.2223089196547292 0.6271489811785941 0.10662377147791698 0.15960347586557197 0.10662377147791698 0.010548104288808877 0.030519473445128086 0.9280379380662009 0.030894484199862227 0.029236543984161405 0.7151787585624779 0.08081740059723141 0.17476729685612927 0.05143409200238535 0.05143409200238535 0.6666859540340296 0.23044586196119965 0.002963516337335332 0.008235805899167357 0.014334486617934785 0.9744661911455625 0.16672117473061582 0.16672117473061582 0.49983647580815255 0.16672117473061582 0.16689759494494172 0.49930721516517496 0.16689759494494172 0.16689759494494172 0.25 0.25 0.25 0.25 0.31503872126385773 0.1576513676840023 0.1798201937651212 0.34748971728701866 0.24994579367861264 0.24994579367861264 0.25016261896416203 0.24994579367861264 0.25 0.25 0.25 0.25 0.2503289066359116 0.24989036445469612 0.24989036445469612 0.24989036445469612 0.2713057460632709 0.24264610046973598 0.24340205299725703 0.24264610046973598 0.12993366206180537 0.4036569835512997 0.13233865948096848 0.33407069490592645 0.17252590846137889 0.17911482299673298 0.4719860788338341 0.17637318970805418 0.2464485175629762 0.2464485175629762 0.2558267211996866 0.2512762436743612 0.06638774506376952 0.5457693062945475 0.20998537639604944 0.17785757224563364 0.24987745704979888 0.24987745704979888 0.2503676288506033 0.24987745704979888 0.24948220497658008 0.2515533850702598 0.24948220497658008 0.24948220497658008 0.25 0.25 0.25 0.25 0.21509520640625032 0.2147355950271522 0.29190742196643954 0.278261776600158 </probabilities>
    </cpt>
    <cpt id="ARTCO2">
      <state id="HIGH"/>
      <state id="LOW"/>
      <state id="NORMAL"/>
      <parents>VENTALV</parents>
      <probabilities>0.058325024925224324 0.7675972083748753 0.17407776669990033 0.9730996882769414 0.00650579905852064 0.020394512664538032 0.034844581300346754 0.02439804480364217 0.9407573738960111 0.9722018537411022 0.016735404252359202 0.011062742006538524 </probabilities>
    </cpt>
    <cpt id="CATECHOL">
      <state id="HIGH"/>
      <state id="NORMAL"/>
      <parents>ARTCO2TPR</parents>
      <probabilities>0.8683768320819386 0.13162316791806142 0.1857713145138295 0.8142286854861706 0.284971410562334 0.7150285894376661 0.9886440926610032 0.01135590733899684 0.9267465069860279 0.07325349301397206 0.979478129833049 0.020521870166950864 0.9851569292084673 0.01484307079153276 0.9593036149922377 0.04069638500776226 0.9106579739928427 0.0893420260071573 </probabilities>
    </cpt>
    <cpt id="HR">
      <state id="HIGH"/>
      <state id="LOW"/>
      <state id="NORMAL"/>
      <parents>CATECHOL</parents>
      <probabilities>0.8859533126284863 0.01272895914027828 0.1013177282312355 0.059017946161515455 0.02506979062811565 0.9159122632103689 </probabilities>
    </cpt>
    <cpt id="CO">
      <state id="HIGH"/>
      <state id="LOW"/>
      <state id="NORMAL"/>
      <parents>HRSTROKEVOLUME</parents>
      <probabilities>0.9412438360593893 0.0428174934655493 0.015938670475061305 0.4130109670987039 0.292123629112662 0.29486540378863413 0.7558478410921083 0.044942096786563385 0.19921006212132836 0.012769384155226628 0.8012884423652121 0.18594217347956132 0.2753406447324693 0.5280824194084414 0.19657693585908942 0.05217205526278308 0.9309784930921522 0.01684945164506481 0.9585198445866836 0.007265051122385617 0.03421510429093069 0.13043013815695767 0.6845890898732374 0.18498077196980486 0.027328728101410054 0.05417319470160946 0.9184980771969805 </probabilities>
    </cpt>
    <cpt id="BP">
      <state id="HIGH"/>
      <state id="LOW"/>
      <state id="NORMAL"/>
      <parents>COTPR</parents>
      <probabilities>0.9302616840835518 0.004289600334798075 0.06544871558165012 0.06275242070398973 0.2999138178684286 0.6373337614275816 0.4719804002626268 0.04505994212484497 0.48295965761252824 0.007845128209840525 0.9018198859642271 0.09033498582593234 0.01494452811777434 0.9722322394518573 0.012823232430368472 0.015608729367453198 0.9487758945386066 0.03561537609394041 0.7560799743626264 0.05962469733656174 0.18429532830081183 0.01032930619904991 0.9808075772681955 0.008863116532754678 0.046592979681644726 0.11542957334891876 0.8379774469694364 </probabilities>
    </cpt>
    <cpt id="HRBP">
      <state id="HIGH"/>
      <state id="LOW"/>
      <state id="NORMAL"/>
      <parents>ERRLOWOUTPUTHR</parents>
      <probabilities>0.9777313054335045 0.005973626584485815 0.01629506798200976 0.02188434695912263 0.03984297108673978 0.9382726819541375 0.06252670559749322 0.39955134596211367 0.5379219484403931 0.29179129278830174 0.5312396144898638 0.1769690927218345 0.0049178307773309286 0.9808635890082561 0.014218580214412942 0.23442173479561315 0.3242148554336989 0.44136340977068794 </probabilities>
    </cpt>
    <cpt id="HREKG">
      <state id="HIGH"/>
      <state id="LOW"/>
      <state id="NORMAL"/>
      <parents>ERRCAUTERHR</parents>
      <probabilities>0.9831834137476766 0.007739247631068015 0.009077338621255348 0.021361203745086578 0.018249848156679387 0.960388948098234 0.1548687271518777 0.29897806580259223 0.54615320704553 0.37168494516450645 0.11754735792622133 0.5107676969092723 0.011543010719394611 0.9725946384449137 0.015862350835691683 0.2343369890329013 0.42350947158524427 0.34215353938185444 </probabilities>
    </cpt>
    <cpt id="HRSAT">
      <state id="HIGH"/>
      <state id="LOW"/>
      <state id="NORMAL"/>
      <parents>ERRCAUTERHR</parents>
      <probabilities>0.9818018244435668 0.01050864028413375 0.007689535272299445 0.04437835917534752 0.0067498653464892686 0.9488717754781633 0.2384097706879362 0.3822698570953806 0.3793203722166833 0.3721834496510469 0.31744765702891325 0.31036889332003986 0.017769672349411392 0.9601691818953079 0.02206114575528074 0.31443668993020935 0.3434895314057826 0.34207377866400795 </probabilities>
    </cpt>
    <cpt id="EXPCO2">
      <state id="HIGH"/>
      <state id="LOW"/>
      <state id="NORMAL"/>
      <state id="ZERO"/>
      <parents>ARTCO2VENTLUNG</parents>
      <probabilities>0.8781811529392634 0.03435238637287585 0.06268802341653794 0.024778437271322878 0.20617529880478086 0.33665338645418325 0.2143426294820717 0.24282868525896414 0.43298235628912923 0.2404667046101309 0.15310187820147977 0.1734490608992601 0.00912280083206995 0.03259528258646829 0.9298381694461093 0.028443747135352394 0.1145418326693227 0.6314741035856574 0.11907923860115094 0.13490482514386898 0.013859163895382658 0.010146740860250457 0.0029523778165574614 0.9730417174278094 0.1145418326693227 0.18702965914121292 0.11907923860115094 0.5793492695883135 0.14726807057484348 0.2404667046101309 0.4388161639157655 0.1734490608992601 0.06063979376611202 0.09901570189828919 0.7689243027888446 0.07142020154675416 0.00964535639824123 0.9605353567226284 0.014116738080984721 0.01570254879814568 0.019450499887243476 0.03175975343907388 0.020221002781327515 0.9285687438923551 0.01338800641589486 0.879003466652869 0.06586640451182282 0.04174212241941325 </probabilities>
    </cpt>
    <cpt id="SHUNT">
      <state id="HIGH"/>
      <state id="NORMAL"/>
      <parents>VENTALVVENTLUNG</parents>
      <probabilities>0.3739188290086493 0.6260811709913506 0.2791863082345946 0.7208136917654053 0.3739188290086493 0.6260811709913506 0.2243512974051896 0.7756487025948104 0.3739188290086493 0.6260811709913506 0.8890388237609288 0.11096117623907116 0.06165801729873586 0.9383419827012641 0.033992620818968124 0.9660073791810319 0.2243512974051896 0.7756487025948104 0.3739188290086493 0.6260811709913506 0.07478376580172987 0.9252162341982701 0.731679498146564 0.268320501853436 0.11562061063059066 0.8843793893694093 0.024927921933909955 0.9750720780660901 0.6436083057765067 0.3563916942234933 0.07402670387380579 0.9259732961261942 </probabilities>
    </cpt>
    <cpt id="ANAPHYLAXIS">
      <state id="FALSE"/>
      <state id="TRUE"/>
      <parents>SHUNT</parents>
      <probabilities>0.9550653794451912 0.04493462055480875 0.9960198852720454 0.003980114727954653 </probabilities>
    </cpt>
    <cpt id="TPR">
      <state id="HIGH"/>
      <state id="LOW"/>
      <state id="NORMAL"/>
      <parents>ANAPHYLAXIS</parents>
      <probabilities>0.29944522569113585 0.2974361623379359 0.40311861197092824 0.06485543369890327 0.8651545363908275 0.06999002991026917 </probabilities>
    </cpt>
    <cpt id="PULMEMBOLUS">
      <state id="FALSE"/>
      <state id="TRUE"/>
      <parents>SHUNT</parents>
      <probabilities>0.9060735671514114 0.09392643284858854 0.9994253401204405 5.746598795594502E-4 </probabilities>
    </cpt>
    <cpt id="PAP">
      <state id="HIGH"/>
      <state id="LOW"/>
      <state id="NORMAL"/>
      <parents>PULMEMBOLUS</parents>
      <probabilities>0.0570458151277751 0.05300345180402284 0.8899507330682022 0.6563386762788557 0.040493902906664624 0.30316742081447967 </probabilities>
    </cpt>
    <cpt id="VENTLUNG">
      <state id="HIGH"/>
      <state id="LOW"/>
      <state id="NORMAL"/>
      <state id="ZERO"/>
      <parents>MINVOLLV_1</parents>
      <probabilities>0.01050298290762967 0.9686517084383408 0.01027739344259672 0.010567915211432721 0.28970202748943935 0.3078067072934294 0.030317653597119895 0.3721736116200114 0.050148936131501225 0.07436390988898489 0.050148936131501225 0.8253382178480128 0.0028972166547705396 0.014389414686545896 0.007094446198753439 0.9756189224599302 0.38680674346022 0.16226417092730833 0.1298859159654913 0.32104316964698043 0.17470824987964717 0.2340916089958187 0.4139245042359304 0.17727563688860362 0.24634197417824832 0.2505639884626241 0.24634197417824832 0.25675206318087923 0.06312677303413267 0.6333740194793511 0.16105464367745975 0.14244456380905643 </probabilities>
    </cpt>
  </nodes>
  <extensions>
    <genie app="GeNIe 2.3.3705.0 ACADEMIC" faultnameformat="nodestate" name="DAG" version="1.0">
      <node id="ANAPHYLAXIS">
        <name>ANAPHYLAXIS</name>
        <interior color="e5f6f7"/>
        <outline color="000080"/>
        <font bold="true" color="000080" name="Arial" size="10"/>
        <position>100 100 100 100</position>
        <barchart active="true" height="110" width="160"/>
      </node>
      <node id="ARTCO2">
        <name>ARTCO2</name>
        <interior color="e5f6f7"/>
        <outline color="000080"/>
        <font bold="true" color="000080" name="Arial" size="10"/>
        <position>100 100 100 100</position>
        <barchart active="true" height="110" width="160"/>
      </node>
      <node id="BP">
        <name>BP</name>
        <interior color="e5f6f7"/>
        <outline color="000080"/>
        <font bold="true" color="000080" name="Arial" size="10"/>
        <position>100 100 100 100</position>
        <barchart active="true" height="110" width="160"/>
      </node>
      <node id="CATECHOL">
        <name>CATECHOL</name>
        <interior color="e5f6f7"/>
        <outline color="000080"/>
        <font bold="true" color="000080" name="Arial" size="10"/>
        <position>100 100 100 100</position>
        <barchart active="true" height="110" width="160"/>
      </node>
      <node id="CO">
        <name>CO</name>
        <interior color="e5f6f7"/>
        <outline color="000080"/>
        <font bold="true" color="000080" name="Arial" size="10"/>
        <position>100 100 100 100</position>
        <barchart active="true" height="110" width="160"/>
      </node>
      <node id="CVP">
        <name>CVP</name>
        <interior color="e5f6f7"/>
        <outline color="000080"/>
        <font bold="true" color="000080" name="Arial" size="10"/>
        <position>100 100 100 100</position>
        <barchart active="true" height="110" width="160"/>
      </node>
      <node id="DISCONNECT">
        <name>DISCONNECT</name>
        <interior color="e5f6f7"/>
        <outline color="000080"/>
        <font bold="true" color="000080" name="Arial" size="10"/>
        <position>100 100 100 100</position>
        <barchart active="true" height="110" width="160"/>
      </node>
      <node id="ERRCAUTER">
        <name>ERRCAUTER</name>
        <interior color="e5f6f7"/>
        <outline color="000080"/>
        <font bold="true" color="000080" name="Arial" size="10"/>
        <position>100 100 100 100</position>
        <barchart active="true" height="110" width="160"/>
      </node>
      <node id="ERRLOWOUTPUT">
        <name>ERRLOWOUTPUT</name>
        <interior color="e5f6f7"/>
        <outline color="000080"/>
        <font bold="true" color="000080" name="Arial" size="10"/>
        <position>100 100 100 100</position>
        <barchart active="true" height="110" width="160"/>
      </node>
      <node id="EXPCO2">
        <name>EXPCO2</name>
        <interior color="e5f6f7"/>
        <outline color="000080"/>
        <font bold="true" color="000080" name="Arial" size="10"/>
        <position>100 100 100 100</position>
        <barchart active="true" height="110" width="160"/>
      </node>
      <node id="FIO2">
        <name>FIO2</name>
        <interior color="e5f6f7"/>
        <outline color="000080"/>
        <font bold="true" color="000080" name="Arial" size="10"/>
        <position>100 100 100 100</position>
        <barchart active="true" height="110" width="160"/>
      </node>
      <node id="HISTORY">
        <name>HISTORY</name>
        <interior color="e5f6f7"/>
        <outline color="000080"/>
        <font bold="true" color="000080" name="Arial" size="10"/>
        <position>100 100 100 100</position>
        <barchart active="true" height="110" width="160"/>
      </node>
      <node id="HR">
        <name>HR</name>
        <interior color="e5f6f7"/>
        <outline color="000080"/>
        <font bold="true" color="000080" name="Arial" size="10"/>
        <position>100 100 100 100</position>
        <barchart active="true" height="110" width="160"/>
      </node>
      <node id="HRBP">
        <name>HRBP</name>
        <interior color="e5f6f7"/>
        <outline color="000080"/>
        <font bold="true" color="000080" name="Arial" size="10"/>
        <position>100 100 100 100</position>
        <barchart active="true" height="110" width="160"/>
      </node>
      <node id="HREKG">
        <name>HREKG</name>
        <interior color="e5f6f7"/>
        <outline color="000080"/>
        <font bold="true" color="000080" name="Arial" size="10"/>
        <position>100 100 100 100</position>
        <barchart active="true" height="110" width="160"/>
      </node>
      <node id="HRSAT">
        <name>HRSAT</name>
        <interior color="e5f6f7"/>
        <outline color="000080"/>
        <font bold="true" color="000080" name="Arial" size="10"/>
        <position>100 100 100 100</position>
        <barchart active="true" height="110" width="160"/>
      </node>
      <node id="HYPOVOLEMIA">
        <name>HYPOVOLEMIA</name>
        <interior color="e5f6f7"/>
        <outline color="000080"/>
        <font bold="true" color="000080" name="Arial" size="10"/>
        <position>100 100 100 100</position>
        <barchart active="true" height="110" width="160"/>
      </node>
      <node id="INSUFFANESTH">
        <name>INSUFFANESTH</name>
        <interior color="e5f6f7"/>
        <outline color="000080"/>
        <font bold="true" color="000080" name="Arial" size="10"/>
        <position>100 100 100 100</position>
        <barchart active="true" height="110" width="160"/>
      </node>
      <node id="KINKEDTUBE">
        <name>KINKEDTUBE</name>
        <interior color="e5f6f7"/>
        <outline color="000080"/>
        <font bold="true" color="000080" name="Arial" size="10"/>
        <position>100 100 100 100</position>
        <barchart active="true" height="110" width="160"/>
      </node>
      <node id="LVEDVOLUME">
        <name>LVEDVOLUME</name>
        <interior color="e5f6f7"/>
        <outline color="000080"/>
        <font bold="true" color="000080" name="Arial" size="10"/>
        <position>100 100 100 100</position>
        <barchart active="true" height="110" width="160"/>
      </node>
      <node id="LVFAILURE">
        <name>LVFAILURE</name>
        <interior color="e5f6f7"/>
        <outline color="000080"/>
        <font bold="true" color="000080" name="Arial" size="10"/>
        <position>100 100 100 100</position>
        <barchart active="true" height="110" width="160"/>
      </node>
      <node id="MINVOL">
        <name>MINVOL</name>
        <interior color="e5f6f7"/>
        <outline color="000080"/>
        <font bold="true" color="000080" name="Arial" size="10"/>
        <position>100 100 100 100</position>
        <barchart active="true" height="110" width="160"/>
      </node>
      <node id="MINVOLSET">
        <name>MINVOLSET</name>
        <interior color="e5f6f7"/>
        <outline color="000080"/>
        <font bold="true" color="000080" name="Arial" size="10"/>
        <position>100 100 100 100</position>
        <barchart active="true" height="110" width="160"/>
      </node>
      <node id="PAP">
        <name>PAP</name>
        <interior color="e5f6f7"/>
        <outline color="000080"/>
        <font bold="true" color="000080" name="Arial" size="10"/>
        <position>100 100 100 100</position>
        <barchart active="true" height="110" width="160"/>
      </node>
      <node id="PCWP">
        <name>PCWP</name>
        <interior color="e5f6f7"/>
        <outline color="000080"/>
        <font bold="true" color="000080" name="Arial" size="10"/>
        <position>100 100 100 100</position>
        <barchart active="true" height="110" width="160"/>
      </node>
      <node id="PRESS">
        <name>PRESS</name>
        <interior color="e5f6f7"/>
        <outline color="000080"/>
        <font bold="true" color="000080" name="Arial" size="10"/>
        <position>100 100 100 100</position>
        <barchart active="true" height="110" width="160"/>
      </node>
      <node id="PULMEMBOLUS">
        <name>PULMEMBOLUS</name>
        <interior color="e5f6f7"/>
        <outline color="000080"/>
        <font bold="true" color="000080" name="Arial" size="10"/>
        <position>100 100 100 100</position>
        <barchart active="true" height="110" width="160"/>
      </node>
      <node id="PVSAT">
        <name>PVSAT</name>
        <interior color="e5f6f7"/>
        <outline color="000080"/>
        <font bold="true" color="000080" name="Arial" size="10"/>
        <position>100 100 100 100</position>
        <barchart active="true" height="110" width="160"/>
      </node>
      <node id="SAO2">
        <name>SAO2</name>
        <interior color="e5f6f7"/>
        <outline color="000080"/>
        <font bold="true" color="000080" name="Arial" size="10"/>
        <position>100 100 100 100</position>
        <barchart active="true" height="110" width="160"/>
      </node>
      <node id="SHUNT">
        <name>SHUNT</name>
        <interior color="e5f6f7"/>
        <outline color="000080"/>
        <font bold="true" color="000080" name="Arial" size="10"/>
        <position>100 100 100 100</position>
        <barchart active="true" height="110" width="160"/>
      </node>
      <node id="STROKEVOLUME">
        <name>STROKEVOLUME</name>
        <interior color="e5f6f7"/>
        <outline color="000080"/>
        <font bold="true" color="000080" name="Arial" size="10"/>
        <position>100 100 100 100</position>
        <barchart active="true" height="110" width="160"/>
      </node>
      <node id="TPR">
        <name>TPR</name>
        <interior color="e5f6f7"/>
        <outline color="000080"/>
        <font bold="true" color="000080" name="Arial" size="10"/>
        <position>100 100 100 100</position>
        <barchart active="true" height="110" width="160"/>
      </node>
      <node id="VENTALV">
        <name>VENTALV</name>
        <interior color="e5f6f7"/>
        <outline color="000080"/>
        <font bold="true" color="000080" name="Arial" size="10"/>
        <position>100 100 100 100</position>
        <barchart active="true" height="110" width="160"/>
      </node>
      <node id="VENTLUNG">
        <name>VENTLUNG</name>
        <interior color="e5f6f7"/>
        <outline color="000080"/>
        <font bold="true" color="000080" name="Arial" size="10"/>
        <position>100 100 100 100</position>
        <barchart active="true" height="110" width="160"/>
      </node>
      <node id="VENTMACH">
        <name>VENTMACH</name>
        <interior color="e5f6f7"/>
        <outline color="000080"/>
        <font bold="true" color="000080" name="Arial" size="10"/>
        <position>100 100 100 100</position>
        <barchart active="true" height="110" width="160"/>
      </node>
      <node id="VENTTUBE">
        <name>VENTTUBE</name>
        <interior color="e5f6f7"/>
        <outline color="000080"/>
        <font bold="true" color="000080" name="Arial" size="10"/>
        <position>100 100 100 100</position>
        <barchart active="true" height="110" width="160"/>
      </node>
      <node id="LV_1">
        <name>LV_1</name>
        <interior color="e5f6f7"/>
        <outline color="000080"/>
        <font bold="true" color="000080" name="Arial" size="10"/>
        <position>100 100 100 100</position>
        <barchart active="true" height="110" width="160"/>
      </node>
    </genie>
  </extensions>
</smile>
