<?xml version="1.0" encoding="ISO-8859-1"?>
<smile discsamples="10000" id="DAG" numsamples="10000" version="1.0">
  <nodes>
    <cpt id="ANAPHYLAXIS">
      <state id="FALSE"/>
      <state id="TRUE"/>
      <probabilities>0.9905509424536131 0.009449057546387038 </probabilities>
    </cpt>
    <cpt id="TPR">
      <state id="HIGH"/>
      <state id="LOW"/>
      <state id="NORMAL"/>
      <parents>ANAPHYLAXIS</parents>
      <probabilities>0.29487747841977646 0.3056778364149213 0.39944468516530224 0.006729751907761004 0.9651666999900029 0.028103548102235993 </probabilities>
    </cpt>
    <cpt id="BP">
      <state id="HIGH"/>
      <state id="LOW"/>
      <state id="NORMAL"/>
      <parents>COTPR</parents>
      <probabilities>0.8968572683435413 0.011528169169471107 0.09161456248698756 0.09241459061332832 0.28975083566011794 0.6178345737265538 0.5484607831018303 0.04717055320421868 0.40436866369395097 0.007050960598663688 0.9136500630412583 0.07929897636007804 0.011806395969407937 0.9766018434635241 0.011591760567067975 0.006496368397173157 0.984852621136736 0.008651010466090943 0.7490793239079234 0.04904181076721437 0.20187886532486227 0.0069052705627371995 0.9819364029264054 0.011158326510857314 0.04778044342983372 0.09999746691079717 0.8522220896593692 </probabilities>
    </cpt>
    <cpt id="CATECHOL">
      <state id="HIGH"/>
      <state id="NORMAL"/>
      <parents>ARTCO2TPR</parents>
      <probabilities>0.8925439169481271 0.10745608305187299 0.24771804259837688 0.7522819574016232 0.3188926901356913 0.6811073098643087 0.9910676168726446 0.008932383127355455 0.9931153896609213 0.00688461033907868 0.9849638425348816 0.015036157465118482 0.9925399828192562 0.007460017180743894 0.9128726766062313 0.08712732339376873 0.9573087784845433 0.04269122151545667 </probabilities>
    </cpt>
    <cpt id="HR">
      <state id="HIGH"/>
      <state id="LOW"/>
      <state id="NORMAL"/>
      <parents>CATECHOL</parents>
      <probabilities>0.9067781732045537 0.008756362649612773 0.08446546414583349 0.04557842523786073 0.04877283728461707 0.9056487374775222 </probabilities>
    </cpt>
    <cpt id="CO">
      <state id="HIGH"/>
      <state id="LOW"/>
      <state id="NORMAL"/>
      <parents>HRSTROKEVOLUME</parents>
      <probabilities>0.9706082394934699 0.016139522305158163 0.013252238201371959 0.13840847745676296 0.0973791195974541 0.764212402945783 0.6971741810790096 0.00973791195974541 0.2930879069612449 0.009880380322945088 0.7885304961476247 0.20158912352943015 0.029658959455020638 0.9494383827708831 0.02090265777409634 0.0031818040794658153 0.9715872594543475 0.02523093646618658 0.9506707167148585 0.011573154910057375 0.037756128375084165 0.009125833678467888 0.9514755463470849 0.03939861997444723 0.010745771243501323 0.04822803577687163 0.9410261929796271 </probabilities>
    </cpt>
    <cpt id="HRBP">
      <state id="HIGH"/>
      <state id="LOW"/>
      <state id="NORMAL"/>
      <parents>ERRLOWOUTPUTHR</parents>
      <probabilities>0.9812584630845035 0.009248061428730758 0.009493475486765737 0.00688650547692835 0.013279944588052156 0.9798335499350195 0.02493389914060265 0.3584273855774302 0.6166387152819672 0.1274760429014153 0.7967966752831294 0.07572728181545536 0.00901561699322371 0.9815227809279594 0.009461602078816914 0.32400400361819165 0.29611538225279405 0.3798806141290143 </probabilities>
    </cpt>
    <cpt id="HREKG">
      <state id="HIGH"/>
      <state id="LOW"/>
      <state id="NORMAL"/>
      <parents>ERRCAUTERHR</parents>
      <probabilities>0.9791693673125691 0.011212531772749761 0.009618100914681182 0.01185418684118654 0.007894510398381085 0.9802513027604324 0.338298510446866 0.3539094235032243 0.3077920660499098 0.5624669741934563 0.11258051156081747 0.3249525142457263 0.009438810585563335 0.9820939348693926 0.008467254545044111 0.2944599841524053 0.3662827326298755 0.33925728321771925 </probabilities>
    </cpt>
    <cpt id="HRSAT">
      <state id="HIGH"/>
      <state id="LOW"/>
      <state id="NORMAL"/>
      <parents>ERRCAUTERHR</parents>
      <probabilities>0.9789042274458057 0.00948898679196453 0.011606785762229703 0.011854246847194341 0.010294630698425528 0.9778511224543802 0.25573016168543933 0.37225162726411437 0.37201821105044636 0.49104197312234904 0.18395909798489027 0.3249989288927607 0.0138376742109332 0.9754951813576161 0.010667144431450625 0.3414401853940462 0.38641226424019104 0.27214755036576277 </probabilities>
    </cpt>
    <cpt id="DISCONNECT">
      <state id="FALSE"/>
      <state id="TRUE"/>
      <probabilities>0.8987601219944982 0.10123987800550172 </probabilities>
    </cpt>
    <cpt id="VENTTUBE">
      <state id="HIGH"/>
      <state id="LOW"/>
      <state id="NORMAL"/>
      <state id="ZERO"/>
      <parents>DISCONNECTVENTMACH</parents>
      <probabilities>0.9585278456923242 0.01501945669819504 0.012036387630740055 0.014416309978740743 0.010636149580571812 0.03780608968533799 0.9395282291123953 0.012029531621694756 0.003007860895050847 0.00959882057029405 0.008880093282883892 0.9785132252517712 0.009318396535191233 0.03312214937034036 0.008967209576346452 0.948592244518122 0.010444085547867661 0.972601142746001 0.009259524242046565 0.007695247464084824 0.008797766691102635 0.01153875095198624 0.005267851947473495 0.9743956304094377 0.010815984239518052 0.01164014680866005 0.008379085641728972 0.9691647833100929 0.008702304202286027 0.014403329577260005 0.008374336215926852 0.9685200300045271 </probabilities>
    </cpt>
    <cpt id="MINVOL">
      <state id="HIGH"/>
      <state id="LOW"/>
      <state id="NORMAL"/>
      <state id="ZERO"/>
      <parents>VENTTUBELV_2</parents>
      <probabilities>0.25034636274101446 0.49050697206324784 0.13172117087650126 0.12742549431923636 0.7141815152869707 0.043295402223554255 0.00660116756502992 0.2359219149244452 0.14055728411730714 0.15468807369833038 0.19955304411011082 0.5052015980742517 0.8182393114570446 0.053617057274985336 0.06116888835612943 0.06697474291184059 0.9340064249654125 0.02463597151574001 0.02133104546584653 0.02002655805300093 0.004965540476032877 0.18297639698287277 0.09933107105183663 0.7127269914892578 0.054224748190151 0.749735174023328 0.12631792072710163 0.06972215705941949 0.005148243865238425 0.005323635151720954 0.16398589842489042 0.8255422225581501 0.034218462860781965 0.19236289195662842 0.03463733175493913 0.7387813134276504 0.019696293482525818 0.005625188424184769 0.005059740217567391 0.9696187778757219 0.47688670815264506 0.16571945971064456 0.16627781900937513 0.1911160131273351 0.01796392481970795 0.5419856848109723 0.013329169845444234 0.4267212205238755 0.9668902568497664 0.009733246267026565 0.011839966875366792 0.01153653000784022 0.0020813720164689067 6.188294401438857E-4 6.41416445370182E-4 0.996658382098017 0.02538783428238917 0.9131521103524548 0.02774630345376557 0.03371375191139042 0.9769726077074095 0.004731109412830197 0.009632631361760353 0.008663651517999957 </probabilities>
    </cpt>
    <cpt id="PRESS">
      <state id="HIGH"/>
      <state id="LOW"/>
      <state id="NORMAL"/>
      <state id="ZERO"/>
      <parents>KINKEDTUBEMINVOLVENTLUNGVENTTUBE</parents>
      <probabilities>0.9186093004658601 0.029160428851715124 0.028328203602280014 0.02390206708014468 0.3000399840063975 0.2507796881247501 0.24362255097960817 0.20555777688924431 0.11539999384861441 0.7118383415864423 0.09370098114600314 0.07906068341894011 0.3000399840063975 0.2507796881247501 0.24362255097960817 0.20555777688924431 0.3000399840063975 0.2507796881247501 0.24362255097960817 0.20555777688924431 0.3000399840063975 0.2507796881247501 0.24362255097960817 0.20555777688924431 0.3000399840063975 0.2507796881247501 0.24362255097960817 0.20555777688924431 0.3000399840063975 0.2507796881247501 0.24362255097960817 0.20555777688924431 0.008591294295569287 0.9132347061175531 0.072414791242724 0.005759208344153748 0.3000399840063975 0.2507796881247501 0.24362255097960817 0.20555777688924431 0.08824705411952867 0.6619940259190441 0.18930075028812005 0.060458169673307145 0.3000399840063975 0.2507796881247501 0.24362255097960817 0.20555777688924431 0.11539999384861441 0.7118383415864423 0.09370098114600314 0.07906068341894011 0.3000399840063975 0.2507796881247501 0.24362255097960817 0.20555777688924431 0.11539999384861441 0.7118383415864423 0.09370098114600314 0.07906068341894011 0.3000399840063975 0.2507796881247501 0.24362255097960817 0.20555777688924431 0.3000399840063975 0.2507796881247501 0.24362255097960817 0.20555777688924431 0.3000399840063975 0.2507796881247501 0.24362255097960817 0.20555777688924431 0.3857199977151996 0.32153995544639286 0.26337465013994404 0.029365396698463473 0.3000399840063975 0.2507796881247501 0.24362255097960817 0.20555777688924431 0.3000399840063975 0.2507796881247501 0.24362255097960817 0.20555777688924431 0.3000399840063975 0.2507796881247501 0.24362255097960817 0.20555777688924431 0.5400079968012794 0.29015593762495 0.12872451019592163 0.04111155537784886 0.3000399840063975 0.2507796881247501 0.24362255097960817 0.20555777688924431 0.3000399840063975 0.2507796881247501 0.24362255097960817 0.20555777688924431 0.3000399840063975 0.2507796881247501 0.24362255097960817 0.20555777688924431 0.3000399840063975 0.2507796881247501 0.24362255097960817 0.20555777688924431 0.3000399840063975 0.2507796881247501 0.24362255097960817 0.20555777688924431 0.5000285600045696 0.17912834866053579 0.17401610784257726 0.14682698349231735 0.3000399840063975 0.2507796881247501 0.24362255097960817 0.20555777688924431 0.11539999384861441 0.7118383415864423 0.09370098114600314 0.07906068341894011 0.09016721180380306 0.6435065318135041 0.01996906155570559 0.24635719482698723 0.5769384553870759 0.09645372620182696 0.09370098114600314 0.23290683726509395 0.3000399840063975 0.2507796881247501 0.24362255097960817 0.20555777688924431 0.2964619461949733 0.31198140212941367 0.38246117482210656 0.009095476853506384 0.5000133280021325 0.21692656270825003 0.08120751699320272 0.20185259229641475 0.5000285600045696 0.17912834866053579 0.17401610784257726 0.14682698349231735 0.3000399840063975 0.2507796881247501 0.24362255097960817 0.20555777688924431 0.5000285600045696 0.17912834866053579 0.17401610784257726 0.14682698349231735 0.3000399840063975 0.2507796881247501 0.24362255097960817 0.20555777688924431 0.4023865508026724 0.27170043045688447 0.31934514697374844 0.006567871766694622 0.5000181745483624 0.11399076732943186 0.11073752317254916 0.2752535349496565 0.90444533297792 0.06779510418055 0.005413834466213515 0.02234572837531654 0.3000399840063975 0.2507796881247501 0.24362255097960817 0.20555777688924431 0.38891110222577635 0.1393220489581945 0.35756808387756006 0.11419876493846906 0.3000399840063975 0.2507796881247501 0.24362255097960817 0.20555777688924431 0.9476390142095112 0.014895068666578545 0.027141915307798855 0.01032400181611134 0.3000399840063975 0.2507796881247501 0.24362255097960817 0.20555777688924431 0.21431427429028393 0.46484263437482154 0.1740161078425773 0.14682698349231738 0.3000399840063975 0.2507796881247501 0.24362255097960817 0.20555777688924431 0.6269873003179681 0.17863330858132936 0.17806528182377843 0.01631410927692415 0.4230923015409221 0.2502998800479808 0.24754713499215697 0.07906068341894011 0.3000399840063975 0.2507796881247501 0.24362255097960817 0.20555777688924431 0.3000399840063975 0.2507796881247501 0.24362255097960817 0.20555777688924431 0.39011208703331857 0.29949338945740384 0.2991001401637147 0.011294383345562873 0.5000181745483624 0.2958089491476137 0.11073752317254916 0.09343535313147468 0.33688085049668076 0.30676523716754434 0.33488023230424147 0.021473680031533486 0.5769384553870759 0.09645372620182696 0.24754713499215697 0.07906068341894011 0.733645482616922 0.09113364000194313 0.1595579836601185 0.01566289372101626 0.46552413517351676 0.11220339450426725 0.17993492258269106 0.24233754773952487 0.6959659940058558 0.13617838167326726 0.13607525289595976 0.031780371424917055 0.16667110933404417 0.16119774312497223 0.07151361677551202 0.6006175307654716 0.3878975795059919 0.2908925153606463 0.3105508560722758 0.010659049061086017 0.46598684789122896 0.24774126630526921 0.21591408787958738 0.07035779792391433 0.5000285600045696 0.17912834866053579 0.17401610784257726 0.14682698349231735 0.3000399840063975 0.2507796881247501 0.24362255097960817 0.20555777688924431 0.941048907947738 0.0054755390420251114 0.022786518580340788 0.030689034429896164 0.3000399840063975 0.2507796881247501 0.24362255097960817 0.20555777688924431 0.6111333244479985 0.1393220489581945 0.13534586165533788 0.11419876493846906 0.3000399840063975 0.2507796881247501 0.24362255097960817 0.20555777688924431 0.6111333244479985 0.1393220489581945 0.13534586165533788 0.11419876493846906 0.3000399840063975 0.2507796881247501 0.24362255097960817 0.20555777688924431 0.7307846092332297 0.09645372620182696 0.09370098114600314 0.07906068341894011 0.3000399840063975 0.2507796881247501 0.24362255097960817 0.20555777688924431 0.3000399840063975 0.2507796881247501 0.24362255097960817 0.20555777688924431 0.3000399840063975 0.2507796881247501 0.24362255097960817 0.20555777688924431 0.3000399840063975 0.2507796881247501 0.24362255097960817 0.20555777688924431 0.3000399840063975 0.2507796881247501 0.24362255097960817 0.20555777688924431 0.3000399840063975 0.2507796881247501 0.24362255097960817 0.20555777688924431 0.3000399840063975 0.2507796881247501 0.24362255097960817 0.20555777688924431 0.3000399840063975 0.2507796881247501 0.24362255097960817 0.20555777688924431 0.3000399840063975 0.2507796881247501 0.24362255097960817 0.20555777688924431 0.3000399840063975 0.2507796881247501 0.24362255097960817 0.20555777688924431 0.3000399840063975 0.2507796881247501 0.24362255097960817 0.20555777688924431 0.3000399840063975 0.2507796881247501 0.24362255097960817 0.20555777688924431 0.3000399840063975 0.2507796881247501 0.24362255097960817 0.20555777688924431 0.5000285600045696 0.17912834866053579 0.17401610784257726 0.14682698349231735 0.3000399840063975 0.2507796881247501 0.24362255097960817 0.20555777688924431 0.3000399840063975 0.2507796881247501 0.24362255097960817 0.20555777688924431 0.3000399840063975 0.2507796881247501 0.24362255097960817 0.20555777688924431 0.16668888000355414 0.1393220489581945 0.13534586165533788 0.5586432093829135 0.3000399840063975 0.2507796881247501 0.24362255097960817 0.20555777688924431 0.13638181091199886 0.4776271309657955 0.11073752317254916 0.2752535349496565 0.3000399840063975 0.2507796881247501 0.24362255097960817 0.20555777688924431 0.5000285600045696 0.17912834866053579 0.17401610784257726 0.14682698349231735 0.11539999384861441 0.09645372620182696 0.09370098114600314 0.6944452988035554 0.16668888000355414 0.583766493402639 0.13534586165533788 0.11419876493846906 0.3000399840063975 0.2507796881247501 0.24362255097960817 0.20555777688924431 0.9000057120009137 0.03582566973210715 0.034803221568515445 0.029365396698463466 0.13638181091199886 0.11399076732943186 0.11073752317254916 0.6388898985860201 0.3000399840063975 0.2507796881247501 0.24362255097960817 0.20555777688924431 0.3000399840063975 0.2507796881247501 0.24362255097960817 0.20555777688924431 0.3000399840063975 0.2507796881247501 0.24362255097960817 0.20555777688924431 0.3000399840063975 0.2507796881247501 0.24362255097960817 0.20555777688924431 0.9700134162239148 0.01299595665953965 0.007649094959972475 0.009341532156573178 0.3000399840063975 0.2507796881247501 0.24362255097960817 0.20555777688924431 0.7381047580967612 0.15494754479160716 0.05800536928085909 0.04894232783077245 0.5000285600045696 0.17912834866053579 0.17401610784257726 0.14682698349231735 0.8225870941945803 0.04044833679431453 0.10381008886767873 0.0331544801434265 0.3000399840063975 0.2507796881247501 0.24362255097960817 0.20555777688924431 0.7432486464873509 0.1419972551519932 0.03292196634859569 0.08183213201206002 0.5000285600045696 0.17912834866053579 0.17401610784257726 0.14682698349231735 0.3000399840063975 0.2507796881247501 0.24362255097960817 0.20555777688924431 0.3000399840063975 0.2507796881247501 0.24362255097960817 0.20555777688924431 0.8157999957911573 0.06599465476967108 0.06411119762621267 0.054094151812959027 0.2143142742902839 0.17912834866053579 0.17401610784257726 0.432541269206603 0.3000399840063975 0.2507796881247501 0.24362255097960817 0.20555777688924431 0.3000399840063975 0.2507796881247501 0.24362255097960817 0.20555777688924431 0.5476285676205709 0.1549475447916072 0.15324346451895435 0.1441804230688677 0.3000399840063975 0.2507796881247501 0.24362255097960817 0.20555777688924431 0.7381047580967612 0.15494754479160716 0.05800536928085909 0.04894232783077245 0.3000399840063975 0.2507796881247501 0.24362255097960817 0.20555777688924431 0.1635532702806728 0.030410265800221967 0.011384231354187297 0.794652232564918 0.26924614769476823 0.09645372620182696 0.4013932888383108 0.23290683726509395 0.14248808248721237 0.7836989556509002 0.04776224225335772 0.026050719608529643 0.6818363563665443 0.11399076732943186 0.11073752317254916 0.09343535313147468 0.9482760709718203 0.01593928781674373 0.009632301729256052 0.026152339482179966 0.00967870916149669 0.008089667358862905 0.020762017773535743 0.9614696057061046 </probabilities>
    </cpt>
    <cpt id="VENTALV">
      <state id="HIGH"/>
      <state id="LOW"/>
      <state id="NORMAL"/>
      <state id="ZERO"/>
      <parents>MINVOLSHUNTVENTLUNG</parents>
      <probabilities>0.021519051953686613 0.8739206445081543 0.025887517333492135 0.07867278620466708 0.03262565941365389 0.8733635578026854 0.039248816602391295 0.05476196618126943 0.20227908836465414 0.21485405837664934 0.24334266293482604 0.3395241903238705 0.14448506311761009 0.43918147026903526 0.17381618781059002 0.2425172788027646 0.06742636278821805 0.7382846861255498 0.08111422097827535 0.11317473010795683 0.01372985052554321 0.9673267679229679 0.0033334611360935082 0.01560992041539549 0.09194504016575188 0.6431154810802951 0.11061030133401184 0.15432917741994112 0.11237727131369674 0.5638078102092496 0.13519036829712558 0.18862455017992805 0.013504015434185073 0.03172318516539573 0.9471601493931575 0.007612650007261671 0.014408590630733353 0.9238003363248002 0.044099106768775743 0.017691966275690682 0.11237727131369674 0.34158558798702743 0.3574125905193478 0.18862455017992805 0.016987781158722955 0.898556848447062 0.024463434964997057 0.05999193542921816 0.008012873165773739 0.017524256983649733 0.9591268802476043 0.01533598960297222 0.01983128317300531 0.374005299840848 0.5728767316602772 0.03328668532586966 0.02593321645700694 0.02754539209957043 0.8517105978121572 0.09481079363126545 0.020968181764950924 0.07980866230913491 0.13898206407813443 0.7602410918477797 0.20227908836465414 0.21485405837664934 0.24334266293482604 0.3395241903238705 0.09194504016575188 0.0976609356257497 0.6560648467885574 0.15432917741994112 0.20227908836465414 0.21485405837664934 0.24334266293482604 0.3395241903238705 0.05949384951901592 0.06319237011077922 0.3068654890984783 0.5704482912717266 0.14448506311761009 0.15346718455474953 0.45953047352487575 0.2425172788027646 0.20730986884525468 0.009678110737686907 0.7497001199520191 0.03331190046503921 0.20227908836465414 0.21485405837664934 0.24334266293482604 0.3395241903238705 0.138304027982303 0.008733904812058916 0.7903797830461311 0.06258228415950692 0.04816168770587003 0.05115572818491651 0.43889111022257765 0.46179147388663583 0.024668181507884652 0.4164456168752011 0.17601739791888124 0.382868803698033 0.002402364469889004 0.016803492379770184 0.9482582264006513 0.032535916749689676 0.015218006364705581 0.01295236291448333 0.024814869373887872 0.9470147613469232 0.006787888871297118 0.007209867730760045 0.021588679964255907 0.9644135634336869 0.007119138160338702 0.7306720337869581 0.012332655590246173 0.2498761724624571 0.028967603709961102 0.05245242943285114 0.16888273592297184 0.7496972309342158 0.010026532637120016 0.010808601095195713 0.010042489571358833 0.9691223766963255 </probabilities>
    </cpt>
    <cpt id="ARTCO2">
      <state id="HIGH"/>
      <state id="LOW"/>
      <state id="NORMAL"/>
      <parents>VENTALV</parents>
      <probabilities>0.02507204360431001 0.882720401270923 0.09220755512476692 0.976993662653892 0.01547425557279053 0.007532081773317468 0.04190100738335437 0.034814590201086286 0.9232844024155593 0.981358636821561 0.009958860479391998 0.00868250269904702 </probabilities>
    </cpt>
    <cpt id="CATECHOL">
      <state id="HIGH"/>
      <state id="NORMAL"/>
      <parents>ARTCO2TPR</parents>
      <probabilities>0.8925439169481271 0.10745608305187299 0.24771804259837688 0.7522819574016232 0.3188926901356913 0.6811073098643087 0.9910676168726446 0.008932383127355455 0.9931153896609213 0.00688461033907868 0.9849638425348816 0.015036157465118482 0.9925399828192562 0.007460017180743894 0.9128726766062313 0.08712732339376873 0.9573087784845433 0.04269122151545667 </probabilities>
    </cpt>
    <cpt id="HR">
      <state id="HIGH"/>
      <state id="LOW"/>
      <state id="NORMAL"/>
      <parents>CATECHOL</parents>
      <probabilities>0.9067781732045537 0.008756362649612773 0.08446546414583349 0.04557842523786073 0.04877283728461707 0.9056487374775222 </probabilities>
    </cpt>
    <cpt id="CO">
      <state id="HIGH"/>
      <state id="LOW"/>
      <state id="NORMAL"/>
      <parents>HRSTROKEVOLUME</parents>
      <probabilities>0.9706082394934699 0.016139522305158163 0.013252238201371959 0.13840847745676296 0.0973791195974541 0.764212402945783 0.6971741810790096 0.00973791195974541 0.2930879069612449 0.009880380322945088 0.7885304961476247 0.20158912352943015 0.029658959455020638 0.9494383827708831 0.02090265777409634 0.0031818040794658153 0.9715872594543475 0.02523093646618658 0.9506707167148585 0.011573154910057375 0.037756128375084165 0.009125833678467888 0.9514755463470849 0.03939861997444723 0.010745771243501323 0.04822803577687163 0.9410261929796271 </probabilities>
    </cpt>
    <cpt id="BP">
      <state id="HIGH"/>
      <state id="LOW"/>
      <state id="NORMAL"/>
      <parents>COTPR</parents>
      <probabilities>0.8968572683435413 0.011528169169471107 0.09161456248698756 0.09241459061332832 0.28975083566011794 0.6178345737265538 0.5484607831018303 0.04717055320421868 0.40436866369395097 0.007050960598663688 0.9136500630412583 0.07929897636007804 0.011806395969407937 0.9766018434635241 0.011591760567067975 0.006496368397173157 0.984852621136736 0.008651010466090943 0.7490793239079234 0.04904181076721437 0.20187886532486227 0.0069052705627371995 0.9819364029264054 0.011158326510857314 0.04778044342983372 0.09999746691079717 0.8522220896593692 </probabilities>
    </cpt>
    <cpt id="HRBP">
      <state id="HIGH"/>
      <state id="LOW"/>
      <state id="NORMAL"/>
      <parents>ERRLOWOUTPUTHR</parents>
      <probabilities>0.9812584630845035 0.009248061428730758 0.009493475486765737 0.00688650547692835 0.013279944588052156 0.9798335499350195 0.02493389914060265 0.3584273855774302 0.6166387152819672 0.1274760429014153 0.7967966752831294 0.07572728181545536 0.00901561699322371 0.9815227809279594 0.009461602078816914 0.32400400361819165 0.29611538225279405 0.3798806141290143 </probabilities>
    </cpt>
    <cpt id="HREKG">
      <state id="HIGH"/>
      <state id="LOW"/>
      <state id="NORMAL"/>
      <parents>ERRCAUTERHR</parents>
      <probabilities>0.9791693673125691 0.011212531772749761 0.009618100914681182 0.01185418684118654 0.007894510398381085 0.9802513027604324 0.338298510446866 0.3539094235032243 0.3077920660499098 0.5624669741934563 0.11258051156081747 0.3249525142457263 0.009438810585563335 0.9820939348693926 0.008467254545044111 0.2944599841524053 0.3662827326298755 0.33925728321771925 </probabilities>
    </cpt>
    <cpt id="HRSAT">
      <state id="HIGH"/>
      <state id="LOW"/>
      <state id="NORMAL"/>
      <parents>ERRCAUTERHR</parents>
      <probabilities>0.9789042274458057 0.00948898679196453 0.011606785762229703 0.011854246847194341 0.010294630698425528 0.9778511224543802 0.25573016168543933 0.37225162726411437 0.37201821105044636 0.49104197312234904 0.18395909798489027 0.3249989288927607 0.0138376742109332 0.9754951813576161 0.010667144431450625 0.3414401853940462 0.38641226424019104 0.27214755036576277 </probabilities>
    </cpt>
    <cpt id="EXPCO2">
      <state id="HIGH"/>
      <state id="LOW"/>
      <state id="NORMAL"/>
      <state id="ZERO"/>
      <parents>ARTCO2VENTLUNG</parents>
      <probabilities>0.9684699483637695 0.012908606309169334 0.006921836231647296 0.011699609095413755 0.6947836250115339 0.13219327653553964 0.08202872697075018 0.09099437148217637 0.5591319027944377 0.19094584388466831 0.11848593895775023 0.1314363143631436 0.00941833902518242 0.005962995406634011 0.9646156136085713 0.020003051959612404 0.01732678357228537 0.9583915005426401 0.006093562574970013 0.018188153310104527 0.009469693965562995 0.012120388341459265 0.004597611672450336 0.9738123060205274 0.03822915278333111 0.13772268870229687 0.03949531298591675 0.7845528455284553 0.06738193611444311 0.03818916877693368 0.8681416322359946 0.02628726287262873 0.005519717246791123 0.009189906924930562 0.9789645639070574 0.006325811921220816 0.011133370709166963 0.9681665000068195 0.010992199170601059 0.009707930113412444 0.016830057274748966 0.02581442339452179 0.010255429600734957 0.9471000897299943 0.004325516583666106 0.9639351106918147 0.018639619758373402 0.013099752966145926 </probabilities>
    </cpt>
    <cpt id="PVSAT">
      <state id="HIGH"/>
      <state id="LOW"/>
      <state id="NORMAL"/>
      <parents>VENTALV</parents>
      <probabilities>0.9348478065276069 0.008561344640086236 0.05659084883230684 0.019499324933702687 0.9448717132172176 0.03562896184907969 0.013143152489937667 0.9552718094207515 0.03158503808931088 7.270741413679047E-5 0.9915450651337551 0.008382227452108206 </probabilities>
    </cpt>
    <cpt id="SAO2">
      <state id="HIGH"/>
      <state id="LOW"/>
      <state id="NORMAL"/>
      <parents>PVSAT</parents>
      <probabilities>0.8510678584504119 0.11243315746997755 0.03649898407961055 0.009748452462713999 0.9811219604721988 0.009129587065087283 0.015695291412576227 0.1498587923622913 0.8344459162251324 </probabilities>
    </cpt>
    <cpt id="VENTLUNG">
      <state id="HIGH"/>
      <state id="LOW"/>
      <state id="NORMAL"/>
      <state id="ZERO"/>
      <parents>SHUNTVENTTUBELV_2</parents>
      <probabilities>0.2010921107403205 0.22952623568639516 0.2612289623015791 0.30815269127170525 0.255939839916317 0.39922460200174653 0.2688569733762204 0.07597858470571604 0.21260569175188265 0.4938836024685452 0.057327015247061165 0.23618369053251106 0.005747742317712717 0.8156395417148868 0.008719340681465319 0.16989337528593515 0.22661197346652612 0.22574849795553115 0.22574849795553115 0.32189103062241164 0.17486975100812543 0.1479067261007506 0.20501614873465088 0.4722073741564732 0.16829028051471154 0.5590462705617469 0.12404318087742101 0.1486202680461204 0.0235022213877008 0.898375435669937 0.02376410857120033 0.05435823437116165 0.40896337578871256 0.4857916214699008 0.050954659186550656 0.054290343554835876 0.027510608178699665 0.9364060145572138 0.01812685511789887 0.017956522146187603 0.007997304539549355 0.3907343348954981 0.005149032786500043 0.5961193277784524 0.04265932553225487 0.008437690191202109 0.05417685657653017 0.8947261277000128 0.5289026099729428 0.11922077263970696 0.11922077263970696 0.23265584474764317 0.7800725888466405 0.06122503438605778 0.06165608868744424 0.09704628807985746 0.015441631384781619 0.04315058316588813 0.022075075766860745 0.9193327096824696 0.004119595563064647 0.007366096727216137 0.009207172568146401 0.9793071351415727 0.20093451657499983 0.20382495186024013 0.22979974211041376 0.3654407894543462 0.03828101772608634 0.04385054235155592 0.35802376592303436 0.5598446739993233 0.13355869922360053 0.21193361984180517 0.20520297753855443 0.44930470339603984 0.003760641205198959 0.026434557750001732 0.005992688363319579 0.9638121126814797 0.2474591171324754 0.24694885243312828 0.24694885243312828 0.258643178001268 0.20126239933741646 0.4541801127762919 0.16305448154824007 0.18150300633805166 0.1497194020207806 0.3297324970032576 0.30323840092800386 0.21730970004795802 0.13250965181239818 0.02667948949570857 0.08270796955491082 0.7581028891369824 0.14451631111711924 0.6436993822095857 0.10491524899295004 0.10686905768034509 0.011075437575214847 0.9762358022825661 0.006354176864505589 0.006334583277713294 0.01197323954965333 0.02327729840539593 0.02504961410057554 0.9396998479443752 4.5483415746616043E-4 0.002375389791077429 7.011412002157421E-4 0.9964686348512407 0.4008866825975 0.19481518400039763 0.19481518400039763 0.2094829494017047 0.9246047673730163 0.02177194905604722 0.0218485980490141 0.03177468552192224 0.04341411648808267 0.8964694469086225 0.027407599493786468 0.0327088371095084 0.001970868651119351 0.990980968451016 0.001974410024579712 0.005073752873285014 </probabilities>
    </cpt>
    <cpt id="ERRCAUTER">
      <state id="FALSE"/>
      <state id="TRUE"/>
      <probabilities>0.900959902005501 0.099040097994499 </probabilities>
    </cpt>
    <cpt id="HREKG">
      <state id="HIGH"/>
      <state id="LOW"/>
      <state id="NORMAL"/>
      <parents>ERRCAUTERHR</parents>
      <probabilities>0.9791693673125691 0.011212531772749761 0.009618100914681182 0.01185418684118654 0.007894510398381085 0.9802513027604324 0.338298510446866 0.3539094235032243 0.3077920660499098 0.5624669741934563 0.11258051156081747 0.3249525142457263 0.009438810585563335 0.9820939348693926 0.008467254545044111 0.2944599841524053 0.3662827326298755 0.33925728321771925 </probabilities>
    </cpt>
    <cpt id="HRSAT">
      <state id="HIGH"/>
      <state id="LOW"/>
      <state id="NORMAL"/>
      <parents>ERRCAUTERHR</parents>
      <probabilities>0.9789042274458057 0.00948898679196453 0.011606785762229703 0.011854246847194341 0.010294630698425528 0.9778511224543802 0.25573016168543933 0.37225162726411437 0.37201821105044636 0.49104197312234904 0.18395909798489027 0.3249989288927607 0.0138376742109332 0.9754951813576161 0.010667144431450625 0.3414401853940462 0.38641226424019104 0.27214755036576277 </probabilities>
    </cpt>
    <cpt id="ERRLOWOUTPUT">
      <state id="FALSE"/>
      <state id="TRUE"/>
      <probabilities>0.9495550422485617 0.050444957751438264 </probabilities>
    </cpt>
    <cpt id="HRBP">
      <state id="HIGH"/>
      <state id="LOW"/>
      <state id="NORMAL"/>
      <parents>ERRLOWOUTPUTHR</parents>
      <probabilities>0.9812584630845035 0.009248061428730758 0.009493475486765737 0.00688650547692835 0.013279944588052156 0.9798335499350195 0.02493389914060265 0.3584273855774302 0.6166387152819672 0.1274760429014153 0.7967966752831294 0.07572728181545536 0.00901561699322371 0.9815227809279594 0.009461602078816914 0.32400400361819165 0.29611538225279405 0.3798806141290143 </probabilities>
    </cpt>
    <cpt id="FIO2">
      <state id="LOW"/>
      <state id="NORMAL"/>
      <probabilities>0.04614538772993289 0.9538546122700671 </probabilities>
    </cpt>
    <cpt id="HYPOVOLEMIA">
      <state id="FALSE"/>
      <state id="TRUE"/>
      <probabilities>0.7953704614773691 0.20462953852263094 </probabilities>
    </cpt>
    <cpt id="LVEDVOLUME">
      <state id="HIGH"/>
      <state id="LOW"/>
      <state id="NORMAL"/>
      <parents>HYPOVOLEMIALVFAILURE</parents>
      <probabilities>0.05123697523921938 0.047923844921870434 0.9008391798389102 0.9081871938675732 0.01417595822642811 0.07763684790599877 0.006635413955965883 0.9912058189159029 0.002158767128131281 0.015025398922379363 0.9303166993827086 0.05465790169491209 </probabilities>
    </cpt>
    <cpt id="CVP">
      <state id="HIGH"/>
      <state id="LOW"/>
      <state id="NORMAL"/>
      <parents>LVEDVOLUME</parents>
      <probabilities>0.7103803691916544 0.007215599698569094 0.28240403110977647 0.00976117858612837 0.9448883196247041 0.04535050178916745 0.008977202119811624 0.0418242480203866 0.9491985498598018 </probabilities>
    </cpt>
    <cpt id="PCWP">
      <state id="HIGH"/>
      <state id="LOW"/>
      <state id="NORMAL"/>
      <parents>LVEDVOLUME</parents>
      <probabilities>0.9474054119571179 0.010926638520503218 0.04166794952237891 0.012066061637708913 0.9562660212175256 0.03166791714476556 0.009985090830518741 0.04211129431217974 0.9479036148573016 </probabilities>
    </cpt>
    <cpt id="STROKEVOLUME">
      <state id="HIGH"/>
      <state id="LOW"/>
      <state id="NORMAL"/>
      <parents>HYPOVOLEMIALVFAILURE</parents>
      <probabilities>0.04963917302007018 0.049383902608463995 0.9009769243714658 0.013134505350916599 0.4820325389773701 0.5048329556717133 0.014046676582267052 0.9506087105166161 0.03534461290111694 0.014208821465709823 0.9587777872245803 0.027013391309709894 </probabilities>
    </cpt>
    <cpt id="CO">
      <state id="HIGH"/>
      <state id="LOW"/>
      <state id="NORMAL"/>
      <parents>HRSTROKEVOLUME</parents>
      <probabilities>0.9706082394934699 0.016139522305158163 0.013252238201371959 0.13840847745676296 0.0973791195974541 0.764212402945783 0.6971741810790096 0.00973791195974541 0.2930879069612449 0.009880380322945088 0.7885304961476247 0.20158912352943015 0.029658959455020638 0.9494383827708831 0.02090265777409634 0.0031818040794658153 0.9715872594543475 0.02523093646618658 0.9506707167148585 0.011573154910057375 0.037756128375084165 0.009125833678467888 0.9514755463470849 0.03939861997444723 0.010745771243501323 0.04822803577687163 0.9410261929796271 </probabilities>
    </cpt>
    <cpt id="BP">
      <state id="HIGH"/>
      <state id="LOW"/>
      <state id="NORMAL"/>
      <parents>COTPR</parents>
      <probabilities>0.8968572683435413 0.011528169169471107 0.09161456248698756 0.09241459061332832 0.28975083566011794 0.6178345737265538 0.5484607831018303 0.04717055320421868 0.40436866369395097 0.007050960598663688 0.9136500630412583 0.07929897636007804 0.011806395969407937 0.9766018434635241 0.011591760567067975 0.006496368397173157 0.984852621136736 0.008651010466090943 0.7490793239079234 0.04904181076721437 0.20187886532486227 0.0069052705627371995 0.9819364029264054 0.011158326510857314 0.04778044342983372 0.09999746691079717 0.8522220896593692 </probabilities>
    </cpt>
    <cpt id="INSUFFANESTH">
      <state id="FALSE"/>
      <state id="TRUE"/>
      <probabilities>0.9039596020205048 0.09604039797949523 </probabilities>
    </cpt>
    <cpt id="KINKEDTUBE">
      <state id="FALSE"/>
      <state id="TRUE"/>
      <probabilities>0.9610538923060761 0.0389461076939239 </probabilities>
    </cpt>
    <cpt id="PRESS">
      <state id="HIGH"/>
      <state id="LOW"/>
      <state id="NORMAL"/>
      <state id="ZERO"/>
      <parents>KINKEDTUBEMINVOLVENTLUNGVENTTUBE</parents>
      <probabilities>0.9186093004658601 0.029160428851715124 0.028328203602280014 0.02390206708014468 0.3000399840063975 0.2507796881247501 0.24362255097960817 0.20555777688924431 0.11539999384861441 0.7118383415864423 0.09370098114600314 0.07906068341894011 0.3000399840063975 0.2507796881247501 0.24362255097960817 0.20555777688924431 0.3000399840063975 0.2507796881247501 0.24362255097960817 0.20555777688924431 0.3000399840063975 0.2507796881247501 0.24362255097960817 0.20555777688924431 0.3000399840063975 0.2507796881247501 0.24362255097960817 0.20555777688924431 0.3000399840063975 0.2507796881247501 0.24362255097960817 0.20555777688924431 0.008591294295569287 0.9132347061175531 0.072414791242724 0.005759208344153748 0.3000399840063975 0.2507796881247501 0.24362255097960817 0.20555777688924431 0.08824705411952867 0.6619940259190441 0.18930075028812005 0.060458169673307145 0.3000399840063975 0.2507796881247501 0.24362255097960817 0.20555777688924431 0.11539999384861441 0.7118383415864423 0.09370098114600314 0.07906068341894011 0.3000399840063975 0.2507796881247501 0.24362255097960817 0.20555777688924431 0.11539999384861441 0.7118383415864423 0.09370098114600314 0.07906068341894011 0.3000399840063975 0.2507796881247501 0.24362255097960817 0.20555777688924431 0.3000399840063975 0.2507796881247501 0.24362255097960817 0.20555777688924431 0.3000399840063975 0.2507796881247501 0.24362255097960817 0.20555777688924431 0.3857199977151996 0.32153995544639286 0.26337465013994404 0.029365396698463473 0.3000399840063975 0.2507796881247501 0.24362255097960817 0.20555777688924431 0.3000399840063975 0.2507796881247501 0.24362255097960817 0.20555777688924431 0.3000399840063975 0.2507796881247501 0.24362255097960817 0.20555777688924431 0.5400079968012794 0.29015593762495 0.12872451019592163 0.04111155537784886 0.3000399840063975 0.2507796881247501 0.24362255097960817 0.20555777688924431 0.3000399840063975 0.2507796881247501 0.24362255097960817 0.20555777688924431 0.3000399840063975 0.2507796881247501 0.24362255097960817 0.20555777688924431 0.3000399840063975 0.2507796881247501 0.24362255097960817 0.20555777688924431 0.3000399840063975 0.2507796881247501 0.24362255097960817 0.20555777688924431 0.5000285600045696 0.17912834866053579 0.17401610784257726 0.14682698349231735 0.3000399840063975 0.2507796881247501 0.24362255097960817 0.20555777688924431 0.11539999384861441 0.7118383415864423 0.09370098114600314 0.07906068341894011 0.09016721180380306 0.6435065318135041 0.01996906155570559 0.24635719482698723 0.5769384553870759 0.09645372620182696 0.09370098114600314 0.23290683726509395 0.3000399840063975 0.2507796881247501 0.24362255097960817 0.20555777688924431 0.2964619461949733 0.31198140212941367 0.38246117482210656 0.009095476853506384 0.5000133280021325 0.21692656270825003 0.08120751699320272 0.20185259229641475 0.5000285600045696 0.17912834866053579 0.17401610784257726 0.14682698349231735 0.3000399840063975 0.2507796881247501 0.24362255097960817 0.20555777688924431 0.5000285600045696 0.17912834866053579 0.17401610784257726 0.14682698349231735 0.3000399840063975 0.2507796881247501 0.24362255097960817 0.20555777688924431 0.4023865508026724 0.27170043045688447 0.31934514697374844 0.006567871766694622 0.5000181745483624 0.11399076732943186 0.11073752317254916 0.2752535349496565 0.90444533297792 0.06779510418055 0.005413834466213515 0.02234572837531654 0.3000399840063975 0.2507796881247501 0.24362255097960817 0.20555777688924431 0.38891110222577635 0.1393220489581945 0.35756808387756006 0.11419876493846906 0.3000399840063975 0.2507796881247501 0.24362255097960817 0.20555777688924431 0.9476390142095112 0.014895068666578545 0.027141915307798855 0.01032400181611134 0.3000399840063975 0.2507796881247501 0.24362255097960817 0.20555777688924431 0.21431427429028393 0.46484263437482154 0.1740161078425773 0.14682698349231738 0.3000399840063975 0.2507796881247501 0.24362255097960817 0.20555777688924431 0.6269873003179681 0.17863330858132936 0.17806528182377843 0.01631410927692415 0.4230923015409221 0.2502998800479808 0.24754713499215697 0.07906068341894011 0.3000399840063975 0.2507796881247501 0.24362255097960817 0.20555777688924431 0.3000399840063975 0.2507796881247501 0.24362255097960817 0.20555777688924431 0.39011208703331857 0.29949338945740384 0.2991001401637147 0.011294383345562873 0.5000181745483624 0.2958089491476137 0.11073752317254916 0.09343535313147468 0.33688085049668076 0.30676523716754434 0.33488023230424147 0.021473680031533486 0.5769384553870759 0.09645372620182696 0.24754713499215697 0.07906068341894011 0.733645482616922 0.09113364000194313 0.1595579836601185 0.01566289372101626 0.46552413517351676 0.11220339450426725 0.17993492258269106 0.24233754773952487 0.6959659940058558 0.13617838167326726 0.13607525289595976 0.031780371424917055 0.16667110933404417 0.16119774312497223 0.07151361677551202 0.6006175307654716 0.3878975795059919 0.2908925153606463 0.3105508560722758 0.010659049061086017 0.46598684789122896 0.24774126630526921 0.21591408787958738 0.07035779792391433 0.5000285600045696 0.17912834866053579 0.17401610784257726 0.14682698349231735 0.3000399840063975 0.2507796881247501 0.24362255097960817 0.20555777688924431 0.941048907947738 0.0054755390420251114 0.022786518580340788 0.030689034429896164 0.3000399840063975 0.2507796881247501 0.24362255097960817 0.20555777688924431 0.6111333244479985 0.1393220489581945 0.13534586165533788 0.11419876493846906 0.3000399840063975 0.2507796881247501 0.24362255097960817 0.20555777688924431 0.6111333244479985 0.1393220489581945 0.13534586165533788 0.11419876493846906 0.3000399840063975 0.2507796881247501 0.24362255097960817 0.20555777688924431 0.7307846092332297 0.09645372620182696 0.09370098114600314 0.07906068341894011 0.3000399840063975 0.2507796881247501 0.24362255097960817 0.20555777688924431 0.3000399840063975 0.2507796881247501 0.24362255097960817 0.20555777688924431 0.3000399840063975 0.2507796881247501 0.24362255097960817 0.20555777688924431 0.3000399840063975 0.2507796881247501 0.24362255097960817 0.20555777688924431 0.3000399840063975 0.2507796881247501 0.24362255097960817 0.20555777688924431 0.3000399840063975 0.2507796881247501 0.24362255097960817 0.20555777688924431 0.3000399840063975 0.2507796881247501 0.24362255097960817 0.20555777688924431 0.3000399840063975 0.2507796881247501 0.24362255097960817 0.20555777688924431 0.3000399840063975 0.2507796881247501 0.24362255097960817 0.20555777688924431 0.3000399840063975 0.2507796881247501 0.24362255097960817 0.20555777688924431 0.3000399840063975 0.2507796881247501 0.24362255097960817 0.20555777688924431 0.3000399840063975 0.2507796881247501 0.24362255097960817 0.20555777688924431 0.3000399840063975 0.2507796881247501 0.24362255097960817 0.20555777688924431 0.5000285600045696 0.17912834866053579 0.17401610784257726 0.14682698349231735 0.3000399840063975 0.2507796881247501 0.24362255097960817 0.20555777688924431 0.3000399840063975 0.2507796881247501 0.24362255097960817 0.20555777688924431 0.3000399840063975 0.2507796881247501 0.24362255097960817 0.20555777688924431 0.16668888000355414 0.1393220489581945 0.13534586165533788 0.5586432093829135 0.3000399840063975 0.2507796881247501 0.24362255097960817 0.20555777688924431 0.13638181091199886 0.4776271309657955 0.11073752317254916 0.2752535349496565 0.3000399840063975 0.2507796881247501 0.24362255097960817 0.20555777688924431 0.5000285600045696 0.17912834866053579 0.17401610784257726 0.14682698349231735 0.11539999384861441 0.09645372620182696 0.09370098114600314 0.6944452988035554 0.16668888000355414 0.583766493402639 0.13534586165533788 0.11419876493846906 0.3000399840063975 0.2507796881247501 0.24362255097960817 0.20555777688924431 0.9000057120009137 0.03582566973210715 0.034803221568515445 0.029365396698463466 0.13638181091199886 0.11399076732943186 0.11073752317254916 0.6388898985860201 0.3000399840063975 0.2507796881247501 0.24362255097960817 0.20555777688924431 0.3000399840063975 0.2507796881247501 0.24362255097960817 0.20555777688924431 0.3000399840063975 0.2507796881247501 0.24362255097960817 0.20555777688924431 0.3000399840063975 0.2507796881247501 0.24362255097960817 0.20555777688924431 0.9700134162239148 0.01299595665953965 0.007649094959972475 0.009341532156573178 0.3000399840063975 0.2507796881247501 0.24362255097960817 0.20555777688924431 0.7381047580967612 0.15494754479160716 0.05800536928085909 0.04894232783077245 0.5000285600045696 0.17912834866053579 0.17401610784257726 0.14682698349231735 0.8225870941945803 0.04044833679431453 0.10381008886767873 0.0331544801434265 0.3000399840063975 0.2507796881247501 0.24362255097960817 0.20555777688924431 0.7432486464873509 0.1419972551519932 0.03292196634859569 0.08183213201206002 0.5000285600045696 0.17912834866053579 0.17401610784257726 0.14682698349231735 0.3000399840063975 0.2507796881247501 0.24362255097960817 0.20555777688924431 0.3000399840063975 0.2507796881247501 0.24362255097960817 0.20555777688924431 0.8157999957911573 0.06599465476967108 0.06411119762621267 0.054094151812959027 0.2143142742902839 0.17912834866053579 0.17401610784257726 0.432541269206603 0.3000399840063975 0.2507796881247501 0.24362255097960817 0.20555777688924431 0.3000399840063975 0.2507796881247501 0.24362255097960817 0.20555777688924431 0.5476285676205709 0.1549475447916072 0.15324346451895435 0.1441804230688677 0.3000399840063975 0.2507796881247501 0.24362255097960817 0.20555777688924431 0.7381047580967612 0.15494754479160716 0.05800536928085909 0.04894232783077245 0.3000399840063975 0.2507796881247501 0.24362255097960817 0.20555777688924431 0.1635532702806728 0.030410265800221967 0.011384231354187297 0.794652232564918 0.26924614769476823 0.09645372620182696 0.4013932888383108 0.23290683726509395 0.14248808248721237 0.7836989556509002 0.04776224225335772 0.026050719608529643 0.6818363563665443 0.11399076732943186 0.11073752317254916 0.09343535313147468 0.9482760709718203 0.01593928781674373 0.009632301729256052 0.026152339482179966 0.00967870916149669 0.008089667358862905 0.020762017773535743 0.9614696057061046 </probabilities>
    </cpt>
    <cpt id="MINVOLSET">
      <state id="HIGH"/>
      <state id="LOW"/>
      <state id="NORMAL"/>
      <probabilities>0.04624306569256977 0.050842375761576665 0.9029145585458536 </probabilities>
    </cpt>
    <cpt id="VENTMACH">
      <state id="HIGH"/>
      <state id="LOW"/>
      <state id="NORMAL"/>
      <state id="ZERO"/>
      <parents>MINVOLSET</parents>
      <probabilities>0.905328611289607 0.007595239622127469 0.01705733207255311 0.07001881701571255 0.012781860811013498 0.9119059526042669 0.011602606753576727 0.06370957983114295 0.008472199274179061 0.01013318447876869 0.935944990949095 0.0454496252979572 </probabilities>
    </cpt>
    <cpt id="VENTTUBE">
      <state id="HIGH"/>
      <state id="LOW"/>
      <state id="NORMAL"/>
      <state id="ZERO"/>
      <parents>DISCONNECTVENTMACH</parents>
      <probabilities>0.9585278456923242 0.01501945669819504 0.012036387630740055 0.014416309978740743 0.010636149580571812 0.03780608968533799 0.9395282291123953 0.012029531621694756 0.003007860895050847 0.00959882057029405 0.008880093282883892 0.9785132252517712 0.009318396535191233 0.03312214937034036 0.008967209576346452 0.948592244518122 0.010444085547867661 0.972601142746001 0.009259524242046565 0.007695247464084824 0.008797766691102635 0.01153875095198624 0.005267851947473495 0.9743956304094377 0.010815984239518052 0.01164014680866005 0.008379085641728972 0.9691647833100929 0.008702304202286027 0.014403329577260005 0.008374336215926852 0.9685200300045271 </probabilities>
    </cpt>
    <cpt id="MINVOL">
      <state id="HIGH"/>
      <state id="LOW"/>
      <state id="NORMAL"/>
      <state id="ZERO"/>
      <parents>VENTTUBELV_2</parents>
      <probabilities>0.25034636274101446 0.49050697206324784 0.13172117087650126 0.12742549431923636 0.7141815152869707 0.043295402223554255 0.00660116756502992 0.2359219149244452 0.14055728411730714 0.15468807369833038 0.19955304411011082 0.5052015980742517 0.8182393114570446 0.053617057274985336 0.06116888835612943 0.06697474291184059 0.9340064249654125 0.02463597151574001 0.02133104546584653 0.02002655805300093 0.004965540476032877 0.18297639698287277 0.09933107105183663 0.7127269914892578 0.054224748190151 0.749735174023328 0.12631792072710163 0.06972215705941949 0.005148243865238425 0.005323635151720954 0.16398589842489042 0.8255422225581501 0.034218462860781965 0.19236289195662842 0.03463733175493913 0.7387813134276504 0.019696293482525818 0.005625188424184769 0.005059740217567391 0.9696187778757219 0.47688670815264506 0.16571945971064456 0.16627781900937513 0.1911160131273351 0.01796392481970795 0.5419856848109723 0.013329169845444234 0.4267212205238755 0.9668902568497664 0.009733246267026565 0.011839966875366792 0.01153653000784022 0.0020813720164689067 6.188294401438857E-4 6.41416445370182E-4 0.996658382098017 0.02538783428238917 0.9131521103524548 0.02774630345376557 0.03371375191139042 0.9769726077074095 0.004731109412830197 0.009632631361760353 0.008663651517999957 </probabilities>
    </cpt>
    <cpt id="PRESS">
      <state id="HIGH"/>
      <state id="LOW"/>
      <state id="NORMAL"/>
      <state id="ZERO"/>
      <parents>KINKEDTUBEMINVOLVENTLUNGVENTTUBE</parents>
      <probabilities>0.9186093004658601 0.029160428851715124 0.028328203602280014 0.02390206708014468 0.3000399840063975 0.2507796881247501 0.24362255097960817 0.20555777688924431 0.11539999384861441 0.7118383415864423 0.09370098114600314 0.07906068341894011 0.3000399840063975 0.2507796881247501 0.24362255097960817 0.20555777688924431 0.3000399840063975 0.2507796881247501 0.24362255097960817 0.20555777688924431 0.3000399840063975 0.2507796881247501 0.24362255097960817 0.20555777688924431 0.3000399840063975 0.2507796881247501 0.24362255097960817 0.20555777688924431 0.3000399840063975 0.2507796881247501 0.24362255097960817 0.20555777688924431 0.008591294295569287 0.9132347061175531 0.072414791242724 0.005759208344153748 0.3000399840063975 0.2507796881247501 0.24362255097960817 0.20555777688924431 0.08824705411952867 0.6619940259190441 0.18930075028812005 0.060458169673307145 0.3000399840063975 0.2507796881247501 0.24362255097960817 0.20555777688924431 0.11539999384861441 0.7118383415864423 0.09370098114600314 0.07906068341894011 0.3000399840063975 0.2507796881247501 0.24362255097960817 0.20555777688924431 0.11539999384861441 0.7118383415864423 0.09370098114600314 0.07906068341894011 0.3000399840063975 0.2507796881247501 0.24362255097960817 0.20555777688924431 0.3000399840063975 0.2507796881247501 0.24362255097960817 0.20555777688924431 0.3000399840063975 0.2507796881247501 0.24362255097960817 0.20555777688924431 0.3857199977151996 0.32153995544639286 0.26337465013994404 0.029365396698463473 0.3000399840063975 0.2507796881247501 0.24362255097960817 0.20555777688924431 0.3000399840063975 0.2507796881247501 0.24362255097960817 0.20555777688924431 0.3000399840063975 0.2507796881247501 0.24362255097960817 0.20555777688924431 0.5400079968012794 0.29015593762495 0.12872451019592163 0.04111155537784886 0.3000399840063975 0.2507796881247501 0.24362255097960817 0.20555777688924431 0.3000399840063975 0.2507796881247501 0.24362255097960817 0.20555777688924431 0.3000399840063975 0.2507796881247501 0.24362255097960817 0.20555777688924431 0.3000399840063975 0.2507796881247501 0.24362255097960817 0.20555777688924431 0.3000399840063975 0.2507796881247501 0.24362255097960817 0.20555777688924431 0.5000285600045696 0.17912834866053579 0.17401610784257726 0.14682698349231735 0.3000399840063975 0.2507796881247501 0.24362255097960817 0.20555777688924431 0.11539999384861441 0.7118383415864423 0.09370098114600314 0.07906068341894011 0.09016721180380306 0.6435065318135041 0.01996906155570559 0.24635719482698723 0.5769384553870759 0.09645372620182696 0.09370098114600314 0.23290683726509395 0.3000399840063975 0.2507796881247501 0.24362255097960817 0.20555777688924431 0.2964619461949733 0.31198140212941367 0.38246117482210656 0.009095476853506384 0.5000133280021325 0.21692656270825003 0.08120751699320272 0.20185259229641475 0.5000285600045696 0.17912834866053579 0.17401610784257726 0.14682698349231735 0.3000399840063975 0.2507796881247501 0.24362255097960817 0.20555777688924431 0.5000285600045696 0.17912834866053579 0.17401610784257726 0.14682698349231735 0.3000399840063975 0.2507796881247501 0.24362255097960817 0.20555777688924431 0.4023865508026724 0.27170043045688447 0.31934514697374844 0.006567871766694622 0.5000181745483624 0.11399076732943186 0.11073752317254916 0.2752535349496565 0.90444533297792 0.06779510418055 0.005413834466213515 0.02234572837531654 0.3000399840063975 0.2507796881247501 0.24362255097960817 0.20555777688924431 0.38891110222577635 0.1393220489581945 0.35756808387756006 0.11419876493846906 0.3000399840063975 0.2507796881247501 0.24362255097960817 0.20555777688924431 0.9476390142095112 0.014895068666578545 0.027141915307798855 0.01032400181611134 0.3000399840063975 0.2507796881247501 0.24362255097960817 0.20555777688924431 0.21431427429028393 0.46484263437482154 0.1740161078425773 0.14682698349231738 0.3000399840063975 0.2507796881247501 0.24362255097960817 0.20555777688924431 0.6269873003179681 0.17863330858132936 0.17806528182377843 0.01631410927692415 0.4230923015409221 0.2502998800479808 0.24754713499215697 0.07906068341894011 0.3000399840063975 0.2507796881247501 0.24362255097960817 0.20555777688924431 0.3000399840063975 0.2507796881247501 0.24362255097960817 0.20555777688924431 0.39011208703331857 0.29949338945740384 0.2991001401637147 0.011294383345562873 0.5000181745483624 0.2958089491476137 0.11073752317254916 0.09343535313147468 0.33688085049668076 0.30676523716754434 0.33488023230424147 0.021473680031533486 0.5769384553870759 0.09645372620182696 0.24754713499215697 0.07906068341894011 0.733645482616922 0.09113364000194313 0.1595579836601185 0.01566289372101626 0.46552413517351676 0.11220339450426725 0.17993492258269106 0.24233754773952487 0.6959659940058558 0.13617838167326726 0.13607525289595976 0.031780371424917055 0.16667110933404417 0.16119774312497223 0.07151361677551202 0.6006175307654716 0.3878975795059919 0.2908925153606463 0.3105508560722758 0.010659049061086017 0.46598684789122896 0.24774126630526921 0.21591408787958738 0.07035779792391433 0.5000285600045696 0.17912834866053579 0.17401610784257726 0.14682698349231735 0.3000399840063975 0.2507796881247501 0.24362255097960817 0.20555777688924431 0.941048907947738 0.0054755390420251114 0.022786518580340788 0.030689034429896164 0.3000399840063975 0.2507796881247501 0.24362255097960817 0.20555777688924431 0.6111333244479985 0.1393220489581945 0.13534586165533788 0.11419876493846906 0.3000399840063975 0.2507796881247501 0.24362255097960817 0.20555777688924431 0.6111333244479985 0.1393220489581945 0.13534586165533788 0.11419876493846906 0.3000399840063975 0.2507796881247501 0.24362255097960817 0.20555777688924431 0.7307846092332297 0.09645372620182696 0.09370098114600314 0.07906068341894011 0.3000399840063975 0.2507796881247501 0.24362255097960817 0.20555777688924431 0.3000399840063975 0.2507796881247501 0.24362255097960817 0.20555777688924431 0.3000399840063975 0.2507796881247501 0.24362255097960817 0.20555777688924431 0.3000399840063975 0.2507796881247501 0.24362255097960817 0.20555777688924431 0.3000399840063975 0.2507796881247501 0.24362255097960817 0.20555777688924431 0.3000399840063975 0.2507796881247501 0.24362255097960817 0.20555777688924431 0.3000399840063975 0.2507796881247501 0.24362255097960817 0.20555777688924431 0.3000399840063975 0.2507796881247501 0.24362255097960817 0.20555777688924431 0.3000399840063975 0.2507796881247501 0.24362255097960817 0.20555777688924431 0.3000399840063975 0.2507796881247501 0.24362255097960817 0.20555777688924431 0.3000399840063975 0.2507796881247501 0.24362255097960817 0.20555777688924431 0.3000399840063975 0.2507796881247501 0.24362255097960817 0.20555777688924431 0.3000399840063975 0.2507796881247501 0.24362255097960817 0.20555777688924431 0.5000285600045696 0.17912834866053579 0.17401610784257726 0.14682698349231735 0.3000399840063975 0.2507796881247501 0.24362255097960817 0.20555777688924431 0.3000399840063975 0.2507796881247501 0.24362255097960817 0.20555777688924431 0.3000399840063975 0.2507796881247501 0.24362255097960817 0.20555777688924431 0.16668888000355414 0.1393220489581945 0.13534586165533788 0.5586432093829135 0.3000399840063975 0.2507796881247501 0.24362255097960817 0.20555777688924431 0.13638181091199886 0.4776271309657955 0.11073752317254916 0.2752535349496565 0.3000399840063975 0.2507796881247501 0.24362255097960817 0.20555777688924431 0.5000285600045696 0.17912834866053579 0.17401610784257726 0.14682698349231735 0.11539999384861441 0.09645372620182696 0.09370098114600314 0.6944452988035554 0.16668888000355414 0.583766493402639 0.13534586165533788 0.11419876493846906 0.3000399840063975 0.2507796881247501 0.24362255097960817 0.20555777688924431 0.9000057120009137 0.03582566973210715 0.034803221568515445 0.029365396698463466 0.13638181091199886 0.11399076732943186 0.11073752317254916 0.6388898985860201 0.3000399840063975 0.2507796881247501 0.24362255097960817 0.20555777688924431 0.3000399840063975 0.2507796881247501 0.24362255097960817 0.20555777688924431 0.3000399840063975 0.2507796881247501 0.24362255097960817 0.20555777688924431 0.3000399840063975 0.2507796881247501 0.24362255097960817 0.20555777688924431 0.9700134162239148 0.01299595665953965 0.007649094959972475 0.009341532156573178 0.3000399840063975 0.2507796881247501 0.24362255097960817 0.20555777688924431 0.7381047580967612 0.15494754479160716 0.05800536928085909 0.04894232783077245 0.5000285600045696 0.17912834866053579 0.17401610784257726 0.14682698349231735 0.8225870941945803 0.04044833679431453 0.10381008886767873 0.0331544801434265 0.3000399840063975 0.2507796881247501 0.24362255097960817 0.20555777688924431 0.7432486464873509 0.1419972551519932 0.03292196634859569 0.08183213201206002 0.5000285600045696 0.17912834866053579 0.17401610784257726 0.14682698349231735 0.3000399840063975 0.2507796881247501 0.24362255097960817 0.20555777688924431 0.3000399840063975 0.2507796881247501 0.24362255097960817 0.20555777688924431 0.8157999957911573 0.06599465476967108 0.06411119762621267 0.054094151812959027 0.2143142742902839 0.17912834866053579 0.17401610784257726 0.432541269206603 0.3000399840063975 0.2507796881247501 0.24362255097960817 0.20555777688924431 0.3000399840063975 0.2507796881247501 0.24362255097960817 0.20555777688924431 0.5476285676205709 0.1549475447916072 0.15324346451895435 0.1441804230688677 0.3000399840063975 0.2507796881247501 0.24362255097960817 0.20555777688924431 0.7381047580967612 0.15494754479160716 0.05800536928085909 0.04894232783077245 0.3000399840063975 0.2507796881247501 0.24362255097960817 0.20555777688924431 0.1635532702806728 0.030410265800221967 0.011384231354187297 0.794652232564918 0.26924614769476823 0.09645372620182696 0.4013932888383108 0.23290683726509395 0.14248808248721237 0.7836989556509002 0.04776224225335772 0.026050719608529643 0.6818363563665443 0.11399076732943186 0.11073752317254916 0.09343535313147468 0.9482760709718203 0.01593928781674373 0.009632301729256052 0.026152339482179966 0.00967870916149669 0.008089667358862905 0.020762017773535743 0.9614696057061046 </probabilities>
    </cpt>
    <cpt id="VENTALV">
      <state id="HIGH"/>
      <state id="LOW"/>
      <state id="NORMAL"/>
      <state id="ZERO"/>
      <parents>MINVOLSHUNTVENTLUNG</parents>
      <probabilities>0.021519051953686613 0.8739206445081543 0.025887517333492135 0.07867278620466708 0.03262565941365389 0.8733635578026854 0.039248816602391295 0.05476196618126943 0.20227908836465414 0.21485405837664934 0.24334266293482604 0.3395241903238705 0.14448506311761009 0.43918147026903526 0.17381618781059002 0.2425172788027646 0.06742636278821805 0.7382846861255498 0.08111422097827535 0.11317473010795683 0.01372985052554321 0.9673267679229679 0.0033334611360935082 0.01560992041539549 0.09194504016575188 0.6431154810802951 0.11061030133401184 0.15432917741994112 0.11237727131369674 0.5638078102092496 0.13519036829712558 0.18862455017992805 0.013504015434185073 0.03172318516539573 0.9471601493931575 0.007612650007261671 0.014408590630733353 0.9238003363248002 0.044099106768775743 0.017691966275690682 0.11237727131369674 0.34158558798702743 0.3574125905193478 0.18862455017992805 0.016987781158722955 0.898556848447062 0.024463434964997057 0.05999193542921816 0.008012873165773739 0.017524256983649733 0.9591268802476043 0.01533598960297222 0.01983128317300531 0.374005299840848 0.5728767316602772 0.03328668532586966 0.02593321645700694 0.02754539209957043 0.8517105978121572 0.09481079363126545 0.020968181764950924 0.07980866230913491 0.13898206407813443 0.7602410918477797 0.20227908836465414 0.21485405837664934 0.24334266293482604 0.3395241903238705 0.09194504016575188 0.0976609356257497 0.6560648467885574 0.15432917741994112 0.20227908836465414 0.21485405837664934 0.24334266293482604 0.3395241903238705 0.05949384951901592 0.06319237011077922 0.3068654890984783 0.5704482912717266 0.14448506311761009 0.15346718455474953 0.45953047352487575 0.2425172788027646 0.20730986884525468 0.009678110737686907 0.7497001199520191 0.03331190046503921 0.20227908836465414 0.21485405837664934 0.24334266293482604 0.3395241903238705 0.138304027982303 0.008733904812058916 0.7903797830461311 0.06258228415950692 0.04816168770587003 0.05115572818491651 0.43889111022257765 0.46179147388663583 0.024668181507884652 0.4164456168752011 0.17601739791888124 0.382868803698033 0.002402364469889004 0.016803492379770184 0.9482582264006513 0.032535916749689676 0.015218006364705581 0.01295236291448333 0.024814869373887872 0.9470147613469232 0.006787888871297118 0.007209867730760045 0.021588679964255907 0.9644135634336869 0.007119138160338702 0.7306720337869581 0.012332655590246173 0.2498761724624571 0.028967603709961102 0.05245242943285114 0.16888273592297184 0.7496972309342158 0.010026532637120016 0.010808601095195713 0.010042489571358833 0.9691223766963255 </probabilities>
    </cpt>
    <cpt id="ARTCO2">
      <state id="HIGH"/>
      <state id="LOW"/>
      <state id="NORMAL"/>
      <parents>VENTALV</parents>
      <probabilities>0.02507204360431001 0.882720401270923 0.09220755512476692 0.976993662653892 0.01547425557279053 0.007532081773317468 0.04190100738335437 0.034814590201086286 0.9232844024155593 0.981358636821561 0.009958860479391998 0.00868250269904702 </probabilities>
    </cpt>
    <cpt id="CATECHOL">
      <state id="HIGH"/>
      <state id="NORMAL"/>
      <parents>ARTCO2TPR</parents>
      <probabilities>0.8925439169481271 0.10745608305187299 0.24771804259837688 0.7522819574016232 0.3188926901356913 0.6811073098643087 0.9910676168726446 0.008932383127355455 0.9931153896609213 0.00688461033907868 0.9849638425348816 0.015036157465118482 0.9925399828192562 0.007460017180743894 0.9128726766062313 0.08712732339376873 0.9573087784845433 0.04269122151545667 </probabilities>
    </cpt>
    <cpt id="HR">
      <state id="HIGH"/>
      <state id="LOW"/>
      <state id="NORMAL"/>
      <parents>CATECHOL</parents>
      <probabilities>0.9067781732045537 0.008756362649612773 0.08446546414583349 0.04557842523786073 0.04877283728461707 0.9056487374775222 </probabilities>
    </cpt>
    <cpt id="CO">
      <state id="HIGH"/>
      <state id="LOW"/>
      <state id="NORMAL"/>
      <parents>HRSTROKEVOLUME</parents>
      <probabilities>0.9706082394934699 0.016139522305158163 0.013252238201371959 0.13840847745676296 0.0973791195974541 0.764212402945783 0.6971741810790096 0.00973791195974541 0.2930879069612449 0.009880380322945088 0.7885304961476247 0.20158912352943015 0.029658959455020638 0.9494383827708831 0.02090265777409634 0.0031818040794658153 0.9715872594543475 0.02523093646618658 0.9506707167148585 0.011573154910057375 0.037756128375084165 0.009125833678467888 0.9514755463470849 0.03939861997444723 0.010745771243501323 0.04822803577687163 0.9410261929796271 </probabilities>
    </cpt>
    <cpt id="BP">
      <state id="HIGH"/>
      <state id="LOW"/>
      <state id="NORMAL"/>
      <parents>COTPR</parents>
      <probabilities>0.8968572683435413 0.011528169169471107 0.09161456248698756 0.09241459061332832 0.28975083566011794 0.6178345737265538 0.5484607831018303 0.04717055320421868 0.40436866369395097 0.007050960598663688 0.9136500630412583 0.07929897636007804 0.011806395969407937 0.9766018434635241 0.011591760567067975 0.006496368397173157 0.984852621136736 0.008651010466090943 0.7490793239079234 0.04904181076721437 0.20187886532486227 0.0069052705627371995 0.9819364029264054 0.011158326510857314 0.04778044342983372 0.09999746691079717 0.8522220896593692 </probabilities>
    </cpt>
    <cpt id="HRBP">
      <state id="HIGH"/>
      <state id="LOW"/>
      <state id="NORMAL"/>
      <parents>ERRLOWOUTPUTHR</parents>
      <probabilities>0.9812584630845035 0.009248061428730758 0.009493475486765737 0.00688650547692835 0.013279944588052156 0.9798335499350195 0.02493389914060265 0.3584273855774302 0.6166387152819672 0.1274760429014153 0.7967966752831294 0.07572728181545536 0.00901561699322371 0.9815227809279594 0.009461602078816914 0.32400400361819165 0.29611538225279405 0.3798806141290143 </probabilities>
    </cpt>
    <cpt id="HREKG">
      <state id="HIGH"/>
      <state id="LOW"/>
      <state id="NORMAL"/>
      <parents>ERRCAUTERHR</parents>
      <probabilities>0.9791693673125691 0.011212531772749761 0.009618100914681182 0.01185418684118654 0.007894510398381085 0.9802513027604324 0.338298510446866 0.3539094235032243 0.3077920660499098 0.5624669741934563 0.11258051156081747 0.3249525142457263 0.009438810585563335 0.9820939348693926 0.008467254545044111 0.2944599841524053 0.3662827326298755 0.33925728321771925 </probabilities>
    </cpt>
    <cpt id="HRSAT">
      <state id="HIGH"/>
      <state id="LOW"/>
      <state id="NORMAL"/>
      <parents>ERRCAUTERHR</parents>
      <probabilities>0.9789042274458057 0.00948898679196453 0.011606785762229703 0.011854246847194341 0.010294630698425528 0.9778511224543802 0.25573016168543933 0.37225162726411437 0.37201821105044636 0.49104197312234904 0.18395909798489027 0.3249989288927607 0.0138376742109332 0.9754951813576161 0.010667144431450625 0.3414401853940462 0.38641226424019104 0.27214755036576277 </probabilities>
    </cpt>
    <cpt id="EXPCO2">
      <state id="HIGH"/>
      <state id="LOW"/>
      <state id="NORMAL"/>
      <state id="ZERO"/>
      <parents>ARTCO2VENTLUNG</parents>
      <probabilities>0.9684699483637695 0.012908606309169334 0.006921836231647296 0.011699609095413755 0.6947836250115339 0.13219327653553964 0.08202872697075018 0.09099437148217637 0.5591319027944377 0.19094584388466831 0.11848593895775023 0.1314363143631436 0.00941833902518242 0.005962995406634011 0.9646156136085713 0.020003051959612404 0.01732678357228537 0.9583915005426401 0.006093562574970013 0.018188153310104527 0.009469693965562995 0.012120388341459265 0.004597611672450336 0.9738123060205274 0.03822915278333111 0.13772268870229687 0.03949531298591675 0.7845528455284553 0.06738193611444311 0.03818916877693368 0.8681416322359946 0.02628726287262873 0.005519717246791123 0.009189906924930562 0.9789645639070574 0.006325811921220816 0.011133370709166963 0.9681665000068195 0.010992199170601059 0.009707930113412444 0.016830057274748966 0.02581442339452179 0.010255429600734957 0.9471000897299943 0.004325516583666106 0.9639351106918147 0.018639619758373402 0.013099752966145926 </probabilities>
    </cpt>
    <cpt id="PVSAT">
      <state id="HIGH"/>
      <state id="LOW"/>
      <state id="NORMAL"/>
      <parents>VENTALV</parents>
      <probabilities>0.9348478065276069 0.008561344640086236 0.05659084883230684 0.019499324933702687 0.9448717132172176 0.03562896184907969 0.013143152489937667 0.9552718094207515 0.03158503808931088 7.270741413679047E-5 0.9915450651337551 0.008382227452108206 </probabilities>
    </cpt>
    <cpt id="SAO2">
      <state id="HIGH"/>
      <state id="LOW"/>
      <state id="NORMAL"/>
      <parents>PVSAT</parents>
      <probabilities>0.8510678584504119 0.11243315746997755 0.03649898407961055 0.009748452462713999 0.9811219604721988 0.009129587065087283 0.015695291412576227 0.1498587923622913 0.8344459162251324 </probabilities>
    </cpt>
    <cpt id="VENTLUNG">
      <state id="HIGH"/>
      <state id="LOW"/>
      <state id="NORMAL"/>
      <state id="ZERO"/>
      <parents>SHUNTVENTTUBELV_2</parents>
      <probabilities>0.2010921107403205 0.22952623568639516 0.2612289623015791 0.30815269127170525 0.255939839916317 0.39922460200174653 0.2688569733762204 0.07597858470571604 0.21260569175188265 0.4938836024685452 0.057327015247061165 0.23618369053251106 0.005747742317712717 0.8156395417148868 0.008719340681465319 0.16989337528593515 0.22661197346652612 0.22574849795553115 0.22574849795553115 0.32189103062241164 0.17486975100812543 0.1479067261007506 0.20501614873465088 0.4722073741564732 0.16829028051471154 0.5590462705617469 0.12404318087742101 0.1486202680461204 0.0235022213877008 0.898375435669937 0.02376410857120033 0.05435823437116165 0.40896337578871256 0.4857916214699008 0.050954659186550656 0.054290343554835876 0.027510608178699665 0.9364060145572138 0.01812685511789887 0.017956522146187603 0.007997304539549355 0.3907343348954981 0.005149032786500043 0.5961193277784524 0.04265932553225487 0.008437690191202109 0.05417685657653017 0.8947261277000128 0.5289026099729428 0.11922077263970696 0.11922077263970696 0.23265584474764317 0.7800725888466405 0.06122503438605778 0.06165608868744424 0.09704628807985746 0.015441631384781619 0.04315058316588813 0.022075075766860745 0.9193327096824696 0.004119595563064647 0.007366096727216137 0.009207172568146401 0.9793071351415727 0.20093451657499983 0.20382495186024013 0.22979974211041376 0.3654407894543462 0.03828101772608634 0.04385054235155592 0.35802376592303436 0.5598446739993233 0.13355869922360053 0.21193361984180517 0.20520297753855443 0.44930470339603984 0.003760641205198959 0.026434557750001732 0.005992688363319579 0.9638121126814797 0.2474591171324754 0.24694885243312828 0.24694885243312828 0.258643178001268 0.20126239933741646 0.4541801127762919 0.16305448154824007 0.18150300633805166 0.1497194020207806 0.3297324970032576 0.30323840092800386 0.21730970004795802 0.13250965181239818 0.02667948949570857 0.08270796955491082 0.7581028891369824 0.14451631111711924 0.6436993822095857 0.10491524899295004 0.10686905768034509 0.011075437575214847 0.9762358022825661 0.006354176864505589 0.006334583277713294 0.01197323954965333 0.02327729840539593 0.02504961410057554 0.9396998479443752 4.5483415746616043E-4 0.002375389791077429 7.011412002157421E-4 0.9964686348512407 0.4008866825975 0.19481518400039763 0.19481518400039763 0.2094829494017047 0.9246047673730163 0.02177194905604722 0.0218485980490141 0.03177468552192224 0.04341411648808267 0.8964694469086225 0.027407599493786468 0.0327088371095084 0.001970868651119351 0.990980968451016 0.001974410024579712 0.005073752873285014 </probabilities>
    </cpt>
    <cpt id="PAP">
      <state id="HIGH"/>
      <state id="LOW"/>
      <state id="NORMAL"/>
      <probabilities>0.0587411908800885 0.04754287071207172 0.8937159384078397 </probabilities>
    </cpt>
    <cpt id="PULMEMBOLUS">
      <state id="FALSE"/>
      <state id="TRUE"/>
      <parents>PAP</parents>
      <probabilities>0.8530070536444962 0.14699294635550375 0.9989394565997608 0.0010605434002391545 0.9977062085205869 0.0022937914794131614 </probabilities>
    </cpt>
    <cpt id="SHUNT">
      <state id="HIGH"/>
      <state id="NORMAL"/>
      <parents>PULMEMBOLUSLV_2</parents>
      <probabilities>0.06918457092826606 0.930815429071734 0.7301988821507519 0.26980111784924815 0.27344830915208784 0.7265516908479122 0.8588337793152157 0.14116622068478432 0.017005870048157106 0.9829941299518429 0.5561214887257797 0.4438785112742203 0.032400365176548526 0.9675996348234515 0.8716805762648447 0.1283194237351552 </probabilities>
    </cpt>
    <cpt id="VENTALV">
      <state id="HIGH"/>
      <state id="LOW"/>
      <state id="NORMAL"/>
      <state id="ZERO"/>
      <parents>MINVOLSHUNTVENTLUNG</parents>
      <probabilities>0.021519051953686613 0.8739206445081543 0.025887517333492135 0.07867278620466708 0.03262565941365389 0.8733635578026854 0.039248816602391295 0.05476196618126943 0.20227908836465414 0.21485405837664934 0.24334266293482604 0.3395241903238705 0.14448506311761009 0.43918147026903526 0.17381618781059002 0.2425172788027646 0.06742636278821805 0.7382846861255498 0.08111422097827535 0.11317473010795683 0.01372985052554321 0.9673267679229679 0.0033334611360935082 0.01560992041539549 0.09194504016575188 0.6431154810802951 0.11061030133401184 0.15432917741994112 0.11237727131369674 0.5638078102092496 0.13519036829712558 0.18862455017992805 0.013504015434185073 0.03172318516539573 0.9471601493931575 0.007612650007261671 0.014408590630733353 0.9238003363248002 0.044099106768775743 0.017691966275690682 0.11237727131369674 0.34158558798702743 0.3574125905193478 0.18862455017992805 0.016987781158722955 0.898556848447062 0.024463434964997057 0.05999193542921816 0.008012873165773739 0.017524256983649733 0.9591268802476043 0.01533598960297222 0.01983128317300531 0.374005299840848 0.5728767316602772 0.03328668532586966 0.02593321645700694 0.02754539209957043 0.8517105978121572 0.09481079363126545 0.020968181764950924 0.07980866230913491 0.13898206407813443 0.7602410918477797 0.20227908836465414 0.21485405837664934 0.24334266293482604 0.3395241903238705 0.09194504016575188 0.0976609356257497 0.6560648467885574 0.15432917741994112 0.20227908836465414 0.21485405837664934 0.24334266293482604 0.3395241903238705 0.05949384951901592 0.06319237011077922 0.3068654890984783 0.5704482912717266 0.14448506311761009 0.15346718455474953 0.45953047352487575 0.2425172788027646 0.20730986884525468 0.009678110737686907 0.7497001199520191 0.03331190046503921 0.20227908836465414 0.21485405837664934 0.24334266293482604 0.3395241903238705 0.138304027982303 0.008733904812058916 0.7903797830461311 0.06258228415950692 0.04816168770587003 0.05115572818491651 0.43889111022257765 0.46179147388663583 0.024668181507884652 0.4164456168752011 0.17601739791888124 0.382868803698033 0.002402364469889004 0.016803492379770184 0.9482582264006513 0.032535916749689676 0.015218006364705581 0.01295236291448333 0.024814869373887872 0.9470147613469232 0.006787888871297118 0.007209867730760045 0.021588679964255907 0.9644135634336869 0.007119138160338702 0.7306720337869581 0.012332655590246173 0.2498761724624571 0.028967603709961102 0.05245242943285114 0.16888273592297184 0.7496972309342158 0.010026532637120016 0.010808601095195713 0.010042489571358833 0.9691223766963255 </probabilities>
    </cpt>
    <cpt id="ARTCO2">
      <state id="HIGH"/>
      <state id="LOW"/>
      <state id="NORMAL"/>
      <parents>VENTALV</parents>
      <probabilities>0.02507204360431001 0.882720401270923 0.09220755512476692 0.976993662653892 0.01547425557279053 0.007532081773317468 0.04190100738335437 0.034814590201086286 0.9232844024155593 0.981358636821561 0.009958860479391998 0.00868250269904702 </probabilities>
    </cpt>
    <cpt id="CATECHOL">
      <state id="HIGH"/>
      <state id="NORMAL"/>
      <parents>ARTCO2TPR</parents>
      <probabilities>0.8925439169481271 0.10745608305187299 0.24771804259837688 0.7522819574016232 0.3188926901356913 0.6811073098643087 0.9910676168726446 0.008932383127355455 0.9931153896609213 0.00688461033907868 0.9849638425348816 0.015036157465118482 0.9925399828192562 0.007460017180743894 0.9128726766062313 0.08712732339376873 0.9573087784845433 0.04269122151545667 </probabilities>
    </cpt>
    <cpt id="HR">
      <state id="HIGH"/>
      <state id="LOW"/>
      <state id="NORMAL"/>
      <parents>CATECHOL</parents>
      <probabilities>0.9067781732045537 0.008756362649612773 0.08446546414583349 0.04557842523786073 0.04877283728461707 0.9056487374775222 </probabilities>
    </cpt>
    <cpt id="CO">
      <state id="HIGH"/>
      <state id="LOW"/>
      <state id="NORMAL"/>
      <parents>HRSTROKEVOLUME</parents>
      <probabilities>0.9706082394934699 0.016139522305158163 0.013252238201371959 0.13840847745676296 0.0973791195974541 0.764212402945783 0.6971741810790096 0.00973791195974541 0.2930879069612449 0.009880380322945088 0.7885304961476247 0.20158912352943015 0.029658959455020638 0.9494383827708831 0.02090265777409634 0.0031818040794658153 0.9715872594543475 0.02523093646618658 0.9506707167148585 0.011573154910057375 0.037756128375084165 0.009125833678467888 0.9514755463470849 0.03939861997444723 0.010745771243501323 0.04822803577687163 0.9410261929796271 </probabilities>
    </cpt>
    <cpt id="BP">
      <state id="HIGH"/>
      <state id="LOW"/>
      <state id="NORMAL"/>
      <parents>COTPR</parents>
      <probabilities>0.8968572683435413 0.011528169169471107 0.09161456248698756 0.09241459061332832 0.28975083566011794 0.6178345737265538 0.5484607831018303 0.04717055320421868 0.40436866369395097 0.007050960598663688 0.9136500630412583 0.07929897636007804 0.011806395969407937 0.9766018434635241 0.011591760567067975 0.006496368397173157 0.984852621136736 0.008651010466090943 0.7490793239079234 0.04904181076721437 0.20187886532486227 0.0069052705627371995 0.9819364029264054 0.011158326510857314 0.04778044342983372 0.09999746691079717 0.8522220896593692 </probabilities>
    </cpt>
    <cpt id="HRBP">
      <state id="HIGH"/>
      <state id="LOW"/>
      <state id="NORMAL"/>
      <parents>ERRLOWOUTPUTHR</parents>
      <probabilities>0.9812584630845035 0.009248061428730758 0.009493475486765737 0.00688650547692835 0.013279944588052156 0.9798335499350195 0.02493389914060265 0.3584273855774302 0.6166387152819672 0.1274760429014153 0.7967966752831294 0.07572728181545536 0.00901561699322371 0.9815227809279594 0.009461602078816914 0.32400400361819165 0.29611538225279405 0.3798806141290143 </probabilities>
    </cpt>
    <cpt id="HREKG">
      <state id="HIGH"/>
      <state id="LOW"/>
      <state id="NORMAL"/>
      <parents>ERRCAUTERHR</parents>
      <probabilities>0.9791693673125691 0.011212531772749761 0.009618100914681182 0.01185418684118654 0.007894510398381085 0.9802513027604324 0.338298510446866 0.3539094235032243 0.3077920660499098 0.5624669741934563 0.11258051156081747 0.3249525142457263 0.009438810585563335 0.9820939348693926 0.008467254545044111 0.2944599841524053 0.3662827326298755 0.33925728321771925 </probabilities>
    </cpt>
    <cpt id="HRSAT">
      <state id="HIGH"/>
      <state id="LOW"/>
      <state id="NORMAL"/>
      <parents>ERRCAUTERHR</parents>
      <probabilities>0.9789042274458057 0.00948898679196453 0.011606785762229703 0.011854246847194341 0.010294630698425528 0.9778511224543802 0.25573016168543933 0.37225162726411437 0.37201821105044636 0.49104197312234904 0.18395909798489027 0.3249989288927607 0.0138376742109332 0.9754951813576161 0.010667144431450625 0.3414401853940462 0.38641226424019104 0.27214755036576277 </probabilities>
    </cpt>
    <cpt id="EXPCO2">
      <state id="HIGH"/>
      <state id="LOW"/>
      <state id="NORMAL"/>
      <state id="ZERO"/>
      <parents>ARTCO2VENTLUNG</parents>
      <probabilities>0.9684699483637695 0.012908606309169334 0.006921836231647296 0.011699609095413755 0.6947836250115339 0.13219327653553964 0.08202872697075018 0.09099437148217637 0.5591319027944377 0.19094584388466831 0.11848593895775023 0.1314363143631436 0.00941833902518242 0.005962995406634011 0.9646156136085713 0.020003051959612404 0.01732678357228537 0.9583915005426401 0.006093562574970013 0.018188153310104527 0.009469693965562995 0.012120388341459265 0.004597611672450336 0.9738123060205274 0.03822915278333111 0.13772268870229687 0.03949531298591675 0.7845528455284553 0.06738193611444311 0.03818916877693368 0.8681416322359946 0.02628726287262873 0.005519717246791123 0.009189906924930562 0.9789645639070574 0.006325811921220816 0.011133370709166963 0.9681665000068195 0.010992199170601059 0.009707930113412444 0.016830057274748966 0.02581442339452179 0.010255429600734957 0.9471000897299943 0.004325516583666106 0.9639351106918147 0.018639619758373402 0.013099752966145926 </probabilities>
    </cpt>
    <cpt id="PVSAT">
      <state id="HIGH"/>
      <state id="LOW"/>
      <state id="NORMAL"/>
      <parents>VENTALV</parents>
      <probabilities>0.9348478065276069 0.008561344640086236 0.05659084883230684 0.019499324933702687 0.9448717132172176 0.03562896184907969 0.013143152489937667 0.9552718094207515 0.03158503808931088 7.270741413679047E-5 0.9915450651337551 0.008382227452108206 </probabilities>
    </cpt>
    <cpt id="SAO2">
      <state id="HIGH"/>
      <state id="LOW"/>
      <state id="NORMAL"/>
      <parents>PVSAT</parents>
      <probabilities>0.8510678584504119 0.11243315746997755 0.03649898407961055 0.009748452462713999 0.9811219604721988 0.009129587065087283 0.015695291412576227 0.1498587923622913 0.8344459162251324 </probabilities>
    </cpt>
    <cpt id="VENTLUNG">
      <state id="HIGH"/>
      <state id="LOW"/>
      <state id="NORMAL"/>
      <state id="ZERO"/>
      <parents>SHUNTVENTTUBELV_2</parents>
      <probabilities>0.2010921107403205 0.22952623568639516 0.2612289623015791 0.30815269127170525 0.255939839916317 0.39922460200174653 0.2688569733762204 0.07597858470571604 0.21260569175188265 0.4938836024685452 0.057327015247061165 0.23618369053251106 0.005747742317712717 0.8156395417148868 0.008719340681465319 0.16989337528593515 0.22661197346652612 0.22574849795553115 0.22574849795553115 0.32189103062241164 0.17486975100812543 0.1479067261007506 0.20501614873465088 0.4722073741564732 0.16829028051471154 0.5590462705617469 0.12404318087742101 0.1486202680461204 0.0235022213877008 0.898375435669937 0.02376410857120033 0.05435823437116165 0.40896337578871256 0.4857916214699008 0.050954659186550656 0.054290343554835876 0.027510608178699665 0.9364060145572138 0.01812685511789887 0.017956522146187603 0.007997304539549355 0.3907343348954981 0.005149032786500043 0.5961193277784524 0.04265932553225487 0.008437690191202109 0.05417685657653017 0.8947261277000128 0.5289026099729428 0.11922077263970696 0.11922077263970696 0.23265584474764317 0.7800725888466405 0.06122503438605778 0.06165608868744424 0.09704628807985746 0.015441631384781619 0.04315058316588813 0.022075075766860745 0.9193327096824696 0.004119595563064647 0.007366096727216137 0.009207172568146401 0.9793071351415727 0.20093451657499983 0.20382495186024013 0.22979974211041376 0.3654407894543462 0.03828101772608634 0.04385054235155592 0.35802376592303436 0.5598446739993233 0.13355869922360053 0.21193361984180517 0.20520297753855443 0.44930470339603984 0.003760641205198959 0.026434557750001732 0.005992688363319579 0.9638121126814797 0.2474591171324754 0.24694885243312828 0.24694885243312828 0.258643178001268 0.20126239933741646 0.4541801127762919 0.16305448154824007 0.18150300633805166 0.1497194020207806 0.3297324970032576 0.30323840092800386 0.21730970004795802 0.13250965181239818 0.02667948949570857 0.08270796955491082 0.7581028891369824 0.14451631111711924 0.6436993822095857 0.10491524899295004 0.10686905768034509 0.011075437575214847 0.9762358022825661 0.006354176864505589 0.006334583277713294 0.01197323954965333 0.02327729840539593 0.02504961410057554 0.9396998479443752 4.5483415746616043E-4 0.002375389791077429 7.011412002157421E-4 0.9964686348512407 0.4008866825975 0.19481518400039763 0.19481518400039763 0.2094829494017047 0.9246047673730163 0.02177194905604722 0.0218485980490141 0.03177468552192224 0.04341411648808267 0.8964694469086225 0.027407599493786468 0.0327088371095084 0.001970868651119351 0.990980968451016 0.001974410024579712 0.005073752873285014 </probabilities>
    </cpt>
    <cpt id="PRESS">
      <state id="HIGH"/>
      <state id="LOW"/>
      <state id="NORMAL"/>
      <state id="ZERO"/>
      <parents>KINKEDTUBEMINVOLVENTLUNGVENTTUBE</parents>
      <probabilities>0.9186093004658601 0.029160428851715124 0.028328203602280014 0.02390206708014468 0.3000399840063975 0.2507796881247501 0.24362255097960817 0.20555777688924431 0.11539999384861441 0.7118383415864423 0.09370098114600314 0.07906068341894011 0.3000399840063975 0.2507796881247501 0.24362255097960817 0.20555777688924431 0.3000399840063975 0.2507796881247501 0.24362255097960817 0.20555777688924431 0.3000399840063975 0.2507796881247501 0.24362255097960817 0.20555777688924431 0.3000399840063975 0.2507796881247501 0.24362255097960817 0.20555777688924431 0.3000399840063975 0.2507796881247501 0.24362255097960817 0.20555777688924431 0.008591294295569287 0.9132347061175531 0.072414791242724 0.005759208344153748 0.3000399840063975 0.2507796881247501 0.24362255097960817 0.20555777688924431 0.08824705411952867 0.6619940259190441 0.18930075028812005 0.060458169673307145 0.3000399840063975 0.2507796881247501 0.24362255097960817 0.20555777688924431 0.11539999384861441 0.7118383415864423 0.09370098114600314 0.07906068341894011 0.3000399840063975 0.2507796881247501 0.24362255097960817 0.20555777688924431 0.11539999384861441 0.7118383415864423 0.09370098114600314 0.07906068341894011 0.3000399840063975 0.2507796881247501 0.24362255097960817 0.20555777688924431 0.3000399840063975 0.2507796881247501 0.24362255097960817 0.20555777688924431 0.3000399840063975 0.2507796881247501 0.24362255097960817 0.20555777688924431 0.3857199977151996 0.32153995544639286 0.26337465013994404 0.029365396698463473 0.3000399840063975 0.2507796881247501 0.24362255097960817 0.20555777688924431 0.3000399840063975 0.2507796881247501 0.24362255097960817 0.20555777688924431 0.3000399840063975 0.2507796881247501 0.24362255097960817 0.20555777688924431 0.5400079968012794 0.29015593762495 0.12872451019592163 0.04111155537784886 0.3000399840063975 0.2507796881247501 0.24362255097960817 0.20555777688924431 0.3000399840063975 0.2507796881247501 0.24362255097960817 0.20555777688924431 0.3000399840063975 0.2507796881247501 0.24362255097960817 0.20555777688924431 0.3000399840063975 0.2507796881247501 0.24362255097960817 0.20555777688924431 0.3000399840063975 0.2507796881247501 0.24362255097960817 0.20555777688924431 0.5000285600045696 0.17912834866053579 0.17401610784257726 0.14682698349231735 0.3000399840063975 0.2507796881247501 0.24362255097960817 0.20555777688924431 0.11539999384861441 0.7118383415864423 0.09370098114600314 0.07906068341894011 0.09016721180380306 0.6435065318135041 0.01996906155570559 0.24635719482698723 0.5769384553870759 0.09645372620182696 0.09370098114600314 0.23290683726509395 0.3000399840063975 0.2507796881247501 0.24362255097960817 0.20555777688924431 0.2964619461949733 0.31198140212941367 0.38246117482210656 0.009095476853506384 0.5000133280021325 0.21692656270825003 0.08120751699320272 0.20185259229641475 0.5000285600045696 0.17912834866053579 0.17401610784257726 0.14682698349231735 0.3000399840063975 0.2507796881247501 0.24362255097960817 0.20555777688924431 0.5000285600045696 0.17912834866053579 0.17401610784257726 0.14682698349231735 0.3000399840063975 0.2507796881247501 0.24362255097960817 0.20555777688924431 0.4023865508026724 0.27170043045688447 0.31934514697374844 0.006567871766694622 0.5000181745483624 0.11399076732943186 0.11073752317254916 0.2752535349496565 0.90444533297792 0.06779510418055 0.005413834466213515 0.02234572837531654 0.3000399840063975 0.2507796881247501 0.24362255097960817 0.20555777688924431 0.38891110222577635 0.1393220489581945 0.35756808387756006 0.11419876493846906 0.3000399840063975 0.2507796881247501 0.24362255097960817 0.20555777688924431 0.9476390142095112 0.014895068666578545 0.027141915307798855 0.01032400181611134 0.3000399840063975 0.2507796881247501 0.24362255097960817 0.20555777688924431 0.21431427429028393 0.46484263437482154 0.1740161078425773 0.14682698349231738 0.3000399840063975 0.2507796881247501 0.24362255097960817 0.20555777688924431 0.6269873003179681 0.17863330858132936 0.17806528182377843 0.01631410927692415 0.4230923015409221 0.2502998800479808 0.24754713499215697 0.07906068341894011 0.3000399840063975 0.2507796881247501 0.24362255097960817 0.20555777688924431 0.3000399840063975 0.2507796881247501 0.24362255097960817 0.20555777688924431 0.39011208703331857 0.29949338945740384 0.2991001401637147 0.011294383345562873 0.5000181745483624 0.2958089491476137 0.11073752317254916 0.09343535313147468 0.33688085049668076 0.30676523716754434 0.33488023230424147 0.021473680031533486 0.5769384553870759 0.09645372620182696 0.24754713499215697 0.07906068341894011 0.733645482616922 0.09113364000194313 0.1595579836601185 0.01566289372101626 0.46552413517351676 0.11220339450426725 0.17993492258269106 0.24233754773952487 0.6959659940058558 0.13617838167326726 0.13607525289595976 0.031780371424917055 0.16667110933404417 0.16119774312497223 0.07151361677551202 0.6006175307654716 0.3878975795059919 0.2908925153606463 0.3105508560722758 0.010659049061086017 0.46598684789122896 0.24774126630526921 0.21591408787958738 0.07035779792391433 0.5000285600045696 0.17912834866053579 0.17401610784257726 0.14682698349231735 0.3000399840063975 0.2507796881247501 0.24362255097960817 0.20555777688924431 0.941048907947738 0.0054755390420251114 0.022786518580340788 0.030689034429896164 0.3000399840063975 0.2507796881247501 0.24362255097960817 0.20555777688924431 0.6111333244479985 0.1393220489581945 0.13534586165533788 0.11419876493846906 0.3000399840063975 0.2507796881247501 0.24362255097960817 0.20555777688924431 0.6111333244479985 0.1393220489581945 0.13534586165533788 0.11419876493846906 0.3000399840063975 0.2507796881247501 0.24362255097960817 0.20555777688924431 0.7307846092332297 0.09645372620182696 0.09370098114600314 0.07906068341894011 0.3000399840063975 0.2507796881247501 0.24362255097960817 0.20555777688924431 0.3000399840063975 0.2507796881247501 0.24362255097960817 0.20555777688924431 0.3000399840063975 0.2507796881247501 0.24362255097960817 0.20555777688924431 0.3000399840063975 0.2507796881247501 0.24362255097960817 0.20555777688924431 0.3000399840063975 0.2507796881247501 0.24362255097960817 0.20555777688924431 0.3000399840063975 0.2507796881247501 0.24362255097960817 0.20555777688924431 0.3000399840063975 0.2507796881247501 0.24362255097960817 0.20555777688924431 0.3000399840063975 0.2507796881247501 0.24362255097960817 0.20555777688924431 0.3000399840063975 0.2507796881247501 0.24362255097960817 0.20555777688924431 0.3000399840063975 0.2507796881247501 0.24362255097960817 0.20555777688924431 0.3000399840063975 0.2507796881247501 0.24362255097960817 0.20555777688924431 0.3000399840063975 0.2507796881247501 0.24362255097960817 0.20555777688924431 0.3000399840063975 0.2507796881247501 0.24362255097960817 0.20555777688924431 0.5000285600045696 0.17912834866053579 0.17401610784257726 0.14682698349231735 0.3000399840063975 0.2507796881247501 0.24362255097960817 0.20555777688924431 0.3000399840063975 0.2507796881247501 0.24362255097960817 0.20555777688924431 0.3000399840063975 0.2507796881247501 0.24362255097960817 0.20555777688924431 0.16668888000355414 0.1393220489581945 0.13534586165533788 0.5586432093829135 0.3000399840063975 0.2507796881247501 0.24362255097960817 0.20555777688924431 0.13638181091199886 0.4776271309657955 0.11073752317254916 0.2752535349496565 0.3000399840063975 0.2507796881247501 0.24362255097960817 0.20555777688924431 0.5000285600045696 0.17912834866053579 0.17401610784257726 0.14682698349231735 0.11539999384861441 0.09645372620182696 0.09370098114600314 0.6944452988035554 0.16668888000355414 0.583766493402639 0.13534586165533788 0.11419876493846906 0.3000399840063975 0.2507796881247501 0.24362255097960817 0.20555777688924431 0.9000057120009137 0.03582566973210715 0.034803221568515445 0.029365396698463466 0.13638181091199886 0.11399076732943186 0.11073752317254916 0.6388898985860201 0.3000399840063975 0.2507796881247501 0.24362255097960817 0.20555777688924431 0.3000399840063975 0.2507796881247501 0.24362255097960817 0.20555777688924431 0.3000399840063975 0.2507796881247501 0.24362255097960817 0.20555777688924431 0.3000399840063975 0.2507796881247501 0.24362255097960817 0.20555777688924431 0.9700134162239148 0.01299595665953965 0.007649094959972475 0.009341532156573178 0.3000399840063975 0.2507796881247501 0.24362255097960817 0.20555777688924431 0.7381047580967612 0.15494754479160716 0.05800536928085909 0.04894232783077245 0.5000285600045696 0.17912834866053579 0.17401610784257726 0.14682698349231735 0.8225870941945803 0.04044833679431453 0.10381008886767873 0.0331544801434265 0.3000399840063975 0.2507796881247501 0.24362255097960817 0.20555777688924431 0.7432486464873509 0.1419972551519932 0.03292196634859569 0.08183213201206002 0.5000285600045696 0.17912834866053579 0.17401610784257726 0.14682698349231735 0.3000399840063975 0.2507796881247501 0.24362255097960817 0.20555777688924431 0.3000399840063975 0.2507796881247501 0.24362255097960817 0.20555777688924431 0.8157999957911573 0.06599465476967108 0.06411119762621267 0.054094151812959027 0.2143142742902839 0.17912834866053579 0.17401610784257726 0.432541269206603 0.3000399840063975 0.2507796881247501 0.24362255097960817 0.20555777688924431 0.3000399840063975 0.2507796881247501 0.24362255097960817 0.20555777688924431 0.5476285676205709 0.1549475447916072 0.15324346451895435 0.1441804230688677 0.3000399840063975 0.2507796881247501 0.24362255097960817 0.20555777688924431 0.7381047580967612 0.15494754479160716 0.05800536928085909 0.04894232783077245 0.3000399840063975 0.2507796881247501 0.24362255097960817 0.20555777688924431 0.1635532702806728 0.030410265800221967 0.011384231354187297 0.794652232564918 0.26924614769476823 0.09645372620182696 0.4013932888383108 0.23290683726509395 0.14248808248721237 0.7836989556509002 0.04776224225335772 0.026050719608529643 0.6818363563665443 0.11399076732943186 0.11073752317254916 0.09343535313147468 0.9482760709718203 0.01593928781674373 0.009632301729256052 0.026152339482179966 0.00967870916149669 0.008089667358862905 0.020762017773535743 0.9614696057061046 </probabilities>
    </cpt>
    <cpt id="LV_1">
      <state id="0"/>
      <state id="1"/>
      <probabilities>0.05933895098896822 0.9406610490110319 </probabilities>
    </cpt>
    <cpt id="HISTORY">
      <state id="FALSE"/>
      <state id="TRUE"/>
      <parents>LV_1</parents>
      <probabilities>0.11468839809187419 0.8853116019081259 0.9991835613310671 8.164386689328745E-4 </probabilities>
    </cpt>
    <cpt id="LVFAILURE">
      <state id="FALSE"/>
      <state id="TRUE"/>
      <parents>LV_1</parents>
      <probabilities>0.1727001917586235 0.8272998082413765 0.9992310113374191 7.689886625809677E-4 </probabilities>
    </cpt>
    <cpt id="LVEDVOLUME">
      <state id="HIGH"/>
      <state id="LOW"/>
      <state id="NORMAL"/>
      <parents>HYPOVOLEMIALVFAILURE</parents>
      <probabilities>0.05123697523921938 0.047923844921870434 0.9008391798389102 0.9081871938675732 0.01417595822642811 0.07763684790599877 0.006635413955965883 0.9912058189159029 0.002158767128131281 0.015025398922379363 0.9303166993827086 0.05465790169491209 </probabilities>
    </cpt>
    <cpt id="CVP">
      <state id="HIGH"/>
      <state id="LOW"/>
      <state id="NORMAL"/>
      <parents>LVEDVOLUME</parents>
      <probabilities>0.7103803691916544 0.007215599698569094 0.28240403110977647 0.00976117858612837 0.9448883196247041 0.04535050178916745 0.008977202119811624 0.0418242480203866 0.9491985498598018 </probabilities>
    </cpt>
    <cpt id="PCWP">
      <state id="HIGH"/>
      <state id="LOW"/>
      <state id="NORMAL"/>
      <parents>LVEDVOLUME</parents>
      <probabilities>0.9474054119571179 0.010926638520503218 0.04166794952237891 0.012066061637708913 0.9562660212175256 0.03166791714476556 0.009985090830518741 0.04211129431217974 0.9479036148573016 </probabilities>
    </cpt>
    <cpt id="STROKEVOLUME">
      <state id="HIGH"/>
      <state id="LOW"/>
      <state id="NORMAL"/>
      <parents>HYPOVOLEMIALVFAILURE</parents>
      <probabilities>0.04963917302007018 0.049383902608463995 0.9009769243714658 0.013134505350916599 0.4820325389773701 0.5048329556717133 0.014046676582267052 0.9506087105166161 0.03534461290111694 0.014208821465709823 0.9587777872245803 0.027013391309709894 </probabilities>
    </cpt>
    <cpt id="CO">
      <state id="HIGH"/>
      <state id="LOW"/>
      <state id="NORMAL"/>
      <parents>HRSTROKEVOLUME</parents>
      <probabilities>0.9706082394934699 0.016139522305158163 0.013252238201371959 0.13840847745676296 0.0973791195974541 0.764212402945783 0.6971741810790096 0.00973791195974541 0.2930879069612449 0.009880380322945088 0.7885304961476247 0.20158912352943015 0.029658959455020638 0.9494383827708831 0.02090265777409634 0.0031818040794658153 0.9715872594543475 0.02523093646618658 0.9506707167148585 0.011573154910057375 0.037756128375084165 0.009125833678467888 0.9514755463470849 0.03939861997444723 0.010745771243501323 0.04822803577687163 0.9410261929796271 </probabilities>
    </cpt>
    <cpt id="BP">
      <state id="HIGH"/>
      <state id="LOW"/>
      <state id="NORMAL"/>
      <parents>COTPR</parents>
      <probabilities>0.8968572683435413 0.011528169169471107 0.09161456248698756 0.09241459061332832 0.28975083566011794 0.6178345737265538 0.5484607831018303 0.04717055320421868 0.40436866369395097 0.007050960598663688 0.9136500630412583 0.07929897636007804 0.011806395969407937 0.9766018434635241 0.011591760567067975 0.006496368397173157 0.984852621136736 0.008651010466090943 0.7490793239079234 0.04904181076721437 0.20187886532486227 0.0069052705627371995 0.9819364029264054 0.011158326510857314 0.04778044342983372 0.09999746691079717 0.8522220896593692 </probabilities>
    </cpt>
    <cpt id="LV_2">
      <state id="0"/>
      <state id="1"/>
      <probabilities>0.051093536251105916 0.2710533051664211 0.07397217340895175 0.6038809851735212 </probabilities>
    </cpt>
    <cpt id="MINVOL">
      <state id="HIGH"/>
      <state id="LOW"/>
      <state id="NORMAL"/>
      <state id="ZERO"/>
      <parents>VENTTUBELV_2</parents>
      <probabilities>0.25034636274101446 0.49050697206324784 0.13172117087650126 0.12742549431923636 0.7141815152869707 0.043295402223554255 0.00660116756502992 0.2359219149244452 0.14055728411730714 0.15468807369833038 0.19955304411011082 0.5052015980742517 0.8182393114570446 0.053617057274985336 0.06116888835612943 0.06697474291184059 0.9340064249654125 0.02463597151574001 0.02133104546584653 0.02002655805300093 0.004965540476032877 0.18297639698287277 0.09933107105183663 0.7127269914892578 0.054224748190151 0.749735174023328 0.12631792072710163 0.06972215705941949 0.005148243865238425 0.005323635151720954 0.16398589842489042 0.8255422225581501 0.034218462860781965 0.19236289195662842 0.03463733175493913 0.7387813134276504 0.019696293482525818 0.005625188424184769 0.005059740217567391 0.9696187778757219 0.47688670815264506 0.16571945971064456 0.16627781900937513 0.1911160131273351 0.01796392481970795 0.5419856848109723 0.013329169845444234 0.4267212205238755 0.9668902568497664 0.009733246267026565 0.011839966875366792 0.01153653000784022 0.0020813720164689067 6.188294401438857E-4 6.41416445370182E-4 0.996658382098017 0.02538783428238917 0.9131521103524548 0.02774630345376557 0.03371375191139042 0.9769726077074095 0.004731109412830197 0.009632631361760353 0.008663651517999957 </probabilities>
    </cpt>
    <cpt id="PRESS">
      <state id="HIGH"/>
      <state id="LOW"/>
      <state id="NORMAL"/>
      <state id="ZERO"/>
      <parents>KINKEDTUBEMINVOLVENTLUNGVENTTUBE</parents>
