<?xml version="1.0" encoding="ISO-8859-1"?>
<smile discsamples="10000" id="DAG" numsamples="10000" version="1.0">
  <nodes>
    <cpt id="ANAPHYLAXIS">
      <state id="FALSE"/>
      <state id="TRUE"/>
      <probabilities>0.9905509424536131 0.009449057546387038 </probabilities>
    </cpt>
    <cpt id="TPR">
      <state id="HIGH"/>
      <state id="LOW"/>
      <state id="NORMAL"/>
      <parents>ANAPHYLAXIS</parents>
      <probabilities>0.29487747841977646 0.3056778364149213 0.39944468516530224 0.006729751907761004 0.9651666999900029 0.028103548102235993 </probabilities>
    </cpt>
    <cpt id="BP">
      <state id="HIGH"/>
      <state id="LOW"/>
      <state id="NORMAL"/>
      <parents>COTPR</parents>
      <probabilities>0.8968572683435413 0.011528169169471107 0.09161456248698756 0.09241459061332832 0.28975083566011794 0.6178345737265538 0.5484607831018303 0.04717055320421868 0.40436866369395097 0.007050960598663688 0.9136500630412583 0.07929897636007804 0.011806395969407937 0.9766018434635241 0.011591760567067975 0.006496368397173157 0.984852621136736 0.008651010466090943 0.7490793239079234 0.04904181076721437 0.20187886532486227 0.0069052705627371995 0.9819364029264054 0.011158326510857314 0.04778044342983372 0.09999746691079717 0.8522220896593692 </probabilities>
    </cpt>
    <cpt id="CATECHOL">
      <state id="HIGH"/>
      <state id="NORMAL"/>
      <parents>ARTCO2TPR</parents>
      <probabilities>0.8925439169481271 0.10745608305187299 0.24771804259837688 0.7522819574016232 0.3188926901356913 0.6811073098643087 0.9910676168726446 0.008932383127355455 0.9931153896609213 0.00688461033907868 0.9849638425348816 0.015036157465118482 0.9925399828192562 0.007460017180743894 0.9128726766062313 0.08712732339376873 0.9573087784845433 0.04269122151545667 </probabilities>
    </cpt>
    <cpt id="ARTCO2">
      <state id="HIGH"/>
      <state id="LOW"/>
      <state id="NORMAL"/>
      <probabilities>0.7666350015011493 0.02564615538353891 0.20771884311531177 </probabilities>
    </cpt>
    <cpt id="CATECHOL">
      <state id="HIGH"/>
      <state id="NORMAL"/>
      <parents>ARTCO2TPR</parents>
      <probabilities>0.8925439169481271 0.10745608305187299 0.24771804259837688 0.7522819574016232 0.3188926901356913 0.6811073098643087 0.9910676168726446 0.008932383127355455 0.9931153896609213 0.00688461033907868 0.9849638425348816 0.015036157465118482 0.9925399828192562 0.007460017180743894 0.9128726766062313 0.08712732339376873 0.9573087784845433 0.04269122151545667 </probabilities>
    </cpt>
    <cpt id="EXPCO2">
      <state id="HIGH"/>
      <state id="LOW"/>
      <state id="NORMAL"/>
      <state id="ZERO"/>
      <parents>ARTCO2VENTLUNG</parents>
      <probabilities>0.9684699483637695 0.012908606309169334 0.006921836231647296 0.011699609095413755 0.6947836250115339 0.13219327653553964 0.08202872697075018 0.09099437148217637 0.5591319027944377 0.19094584388466831 0.11848593895775023 0.1314363143631436 0.00941833902518242 0.005962995406634011 0.9646156136085713 0.020003051959612404 0.01732678357228537 0.9583915005426401 0.006093562574970013 0.018188153310104527 0.009469693965562995 0.012120388341459265 0.004597611672450336 0.9738123060205274 0.03822915278333111 0.13772268870229687 0.03949531298591675 0.7845528455284553 0.06738193611444311 0.03818916877693368 0.8681416322359946 0.02628726287262873 0.005519717246791123 0.009189906924930562 0.9789645639070574 0.006325811921220816 0.011133370709166963 0.9681665000068195 0.010992199170601059 0.009707930113412444 0.016830057274748966 0.02581442339452179 0.010255429600734957 0.9471000897299943 0.004325516583666106 0.9639351106918147 0.018639619758373402 0.013099752966145926 </probabilities>
    </cpt>
    <cpt id="VENTALV">
      <state id="HIGH"/>
      <state id="LOW"/>
      <state id="NORMAL"/>
      <state id="ZERO"/>
      <parents>ARTCO2</parents>
      <probabilities>3.2670939708085735E-4 0.09473070410664863 0.011814115217072436 0.8931284712791981 0.3926719447617471 0.04463108373671808 0.2924888071850563 0.2702081643164784 0.005052030642419637 0.0026627242827322066 0.9630239753100923 0.029261269764755793 </probabilities>
    </cpt>
    <cpt id="DISCONNECT">
      <state id="FALSE"/>
      <state id="TRUE"/>
      <probabilities>0.8987601219944982 0.10123987800550172 </probabilities>
    </cpt>
    <cpt id="VENTTUBE">
      <state id="HIGH"/>
      <state id="LOW"/>
      <state id="NORMAL"/>
      <state id="ZERO"/>
      <parents>DISCONNECTVENTMACH</parents>
      <probabilities>0.9585278456923242 0.01501945669819504 0.012036387630740055 0.014416309978740743 0.010636149580571812 0.03780608968533799 0.9395282291123953 0.012029531621694756 0.003007860895050847 0.00959882057029405 0.008880093282883892 0.9785132252517712 0.009318396535191233 0.03312214937034036 0.008967209576346452 0.948592244518122 0.010444085547867661 0.972601142746001 0.009259524242046565 0.007695247464084824 0.008797766691102635 0.01153875095198624 0.005267851947473495 0.9743956304094377 0.010815984239518052 0.01164014680866005 0.008379085641728972 0.9691647833100929 0.008702304202286027 0.014403329577260005 0.008374336215926852 0.9685200300045271 </probabilities>
    </cpt>
    <cpt id="PRESS">
      <state id="HIGH"/>
      <state id="LOW"/>
      <state id="NORMAL"/>
      <state id="ZERO"/>
      <parents>KINKEDTUBEVENTTUBE</parents>
      <probabilities>0.07100317767629791 0.8493087372796662 0.07469524603266937 0.004992839011366656 0.09016721180380306 0.6435065318135041 0.01996906155570559 0.24635719482698723 0.4311789069533072 0.26895050592870967 0.2889103170764918 0.010960270041491327 0.4558014731492302 0.22698692162177486 0.19377184669410322 0.12343975853489175 0.9099624518008889 0.02012987908284962 0.01999276917585456 0.04991489994040697 0.11539999384861441 0.09645372620182696 0.09370098114600314 0.6944452988035554 0.8948451329640889 0.05737699436266075 0.010205130999423648 0.03757274167382677 0.07458673988967948 0.006927615694053871 0.03987907599391183 0.878606568422355 </probabilities>
    </cpt>
    <cpt id="ERRLOWOUTPUT">
      <state id="FALSE"/>
      <state id="TRUE"/>
      <probabilities>0.9495550422485617 0.050444957751438264 </probabilities>
    </cpt>
    <cpt id="HRBP">
      <state id="HIGH"/>
      <state id="LOW"/>
      <state id="NORMAL"/>
      <parents>ERRLOWOUTPUTHR</parents>
      <probabilities>0.9812584630845035 0.009248061428730758 0.009493475486765737 0.00688650547692835 0.013279944588052156 0.9798335499350195 0.02493389914060265 0.3584273855774302 0.6166387152819672 0.1274760429014153 0.7967966752831294 0.07572728181545536 0.00901561699322371 0.9815227809279594 0.009461602078816914 0.32400400361819165 0.29611538225279405 0.3798806141290143 </probabilities>
    </cpt>
    <cpt id="FIO2">
      <state id="LOW"/>
      <state id="NORMAL"/>
      <probabilities>0.04614538772993289 0.9538546122700671 </probabilities>
    </cpt>
    <cpt id="HISTORY">
      <state id="FALSE"/>
      <state id="TRUE"/>
      <probabilities>0.9468553122350584 0.05314468776494165 </probabilities>
    </cpt>
    <cpt id="LVFAILURE">
      <state id="FALSE"/>
      <state id="TRUE"/>
      <parents>HISTORYLVEDVOLUME</parents>
      <probabilities>0.9992849495751495 7.150504248505516E-4 0.8969451007757632 0.10305489922423679 0.8654805762011439 0.13451942379885606 0.01822892564344274 0.9817710743565572 0.9999239189633987 7.608103660126132E-5 0.9248320403946422 0.07516795960535784 </probabilities>
    </cpt>
    <cpt id="STROKEVOLUME">
      <state id="HIGH"/>
      <state id="LOW"/>
      <state id="NORMAL"/>
      <parents>LVEDVOLUMELVFAILURE</parents>
      <probabilities>0.019284878725885253 0.4048254636474826 0.5758896576266321 0.02690625037552673 0.08334839701542222 0.8897453526090511 0.05017518574459244 0.05836767488272037 0.8914571393726872 0.10406877936619015 0.7178446466060182 0.17808657402779166 0.01330682427924684 0.9542637208837349 0.032429454837018284 0.07433484240442154 0.7984604618614416 0.1272046957341369 </probabilities>
    </cpt>
    <cpt id="CO">
      <state id="HIGH"/>
      <state id="LOW"/>
      <state id="NORMAL"/>
      <parents>HRSTROKEVOLUME</parents>
      <probabilities>0.9706082394934699 0.016139522305158163 0.013252238201371959 0.13840847745676296 0.0973791195974541 0.764212402945783 0.6971741810790096 0.00973791195974541 0.2930879069612449 0.009880380322945088 0.7885304961476247 0.20158912352943015 0.029658959455020638 0.9494383827708831 0.02090265777409634 0.0031818040794658153 0.9715872594543475 0.02523093646618658 0.9506707167148585 0.011573154910057375 0.037756128375084165 0.009125833678467888 0.9514755463470849 0.03939861997444723 0.010745771243501323 0.04822803577687163 0.9410261929796271 </probabilities>
    </cpt>
    <cpt id="BP">
      <state id="HIGH"/>
      <state id="LOW"/>
      <state id="NORMAL"/>
      <parents>COTPR</parents>
      <probabilities>0.8968572683435413 0.011528169169471107 0.09161456248698756 0.09241459061332832 0.28975083566011794 0.6178345737265538 0.5484607831018303 0.04717055320421868 0.40436866369395097 0.007050960598663688 0.9136500630412583 0.07929897636007804 0.011806395969407937 0.9766018434635241 0.011591760567067975 0.006496368397173157 0.984852621136736 0.008651010466090943 0.7490793239079234 0.04904181076721437 0.20187886532486227 0.0069052705627371995 0.9819364029264054 0.011158326510857314 0.04778044342983372 0.09999746691079717 0.8522220896593692 </probabilities>
    </cpt>
    <cpt id="HR">
      <state id="HIGH"/>
      <state id="LOW"/>
      <state id="NORMAL"/>
      <probabilities>0.8371244275587548 0.01194821017801838 0.15092736226322664 </probabilities>
    </cpt>
    <cpt id="CO">
      <state id="HIGH"/>
      <state id="LOW"/>
      <state id="NORMAL"/>
      <parents>HRSTROKEVOLUME</parents>
      <probabilities>0.9706082394934699 0.016139522305158163 0.013252238201371959 0.13840847745676296 0.0973791195974541 0.764212402945783 0.6971741810790096 0.00973791195974541 0.2930879069612449 0.009880380322945088 0.7885304961476247 0.20158912352943015 0.029658959455020638 0.9494383827708831 0.02090265777409634 0.0031818040794658153 0.9715872594543475 0.02523093646618658 0.9506707167148585 0.011573154910057375 0.037756128375084165 0.009125833678467888 0.9514755463470849 0.03939861997444723 0.010745771243501323 0.04822803577687163 0.9410261929796271 </probabilities>
    </cpt>
    <cpt id="BP">
      <state id="HIGH"/>
      <state id="LOW"/>
      <state id="NORMAL"/>
      <parents>COTPR</parents>
      <probabilities>0.8968572683435413 0.011528169169471107 0.09161456248698756 0.09241459061332832 0.28975083566011794 0.6178345737265538 0.5484607831018303 0.04717055320421868 0.40436866369395097 0.007050960598663688 0.9136500630412583 0.07929897636007804 0.011806395969407937 0.9766018434635241 0.011591760567067975 0.006496368397173157 0.984852621136736 0.008651010466090943 0.7490793239079234 0.04904181076721437 0.20187886532486227 0.0069052705627371995 0.9819364029264054 0.011158326510857314 0.04778044342983372 0.09999746691079717 0.8522220896593692 </probabilities>
    </cpt>
    <cpt id="HRBP">
      <state id="HIGH"/>
      <state id="LOW"/>
      <state id="NORMAL"/>
      <parents>ERRLOWOUTPUTHR</parents>
      <probabilities>0.9812584630845035 0.009248061428730758 0.009493475486765737 0.00688650547692835 0.013279944588052156 0.9798335499350195 0.02493389914060265 0.3584273855774302 0.6166387152819672 0.1274760429014153 0.7967966752831294 0.07572728181545536 0.00901561699322371 0.9815227809279594 0.009461602078816914 0.32400400361819165 0.29611538225279405 0.3798806141290143 </probabilities>
    </cpt>
    <cpt id="HREKG">
      <state id="HIGH"/>
      <state id="LOW"/>
      <state id="NORMAL"/>
      <probabilities>0.749137626238623 0.15222716728272856 0.09863520647864828 </probabilities>
    </cpt>
    <cpt id="ERRCAUTER">
      <state id="FALSE"/>
      <state id="TRUE"/>
      <parents>HREKGHRSAT</parents>
      <probabilities>0.9974447909508944 0.0025552090491055314 0.8348694245825163 0.16513057541748355 0.753027534028078 0.2469724659719219 0.8379952830394619 0.16200471696053803 0.98398399101302 0.016016008986980013 0.4561992363432075 0.5438007636567925 0.8077588563919869 0.1922411436080131 0.6128803942181861 0.387119605781814 0.01679766394704202 0.983202336052958 </probabilities>
    </cpt>
    <cpt id="HRSAT">
      <state id="HIGH"/>
      <state id="LOW"/>
      <state id="NORMAL"/>
      <probabilities>0.7492376112401233 0.15082737726172651 0.09993501149815023 </probabilities>
    </cpt>
    <cpt id="ERRCAUTER">
      <state id="FALSE"/>
      <state id="TRUE"/>
      <parents>HREKGHRSAT</parents>
      <probabilities>0.9974447909508944 0.0025552090491055314 0.8348694245825163 0.16513057541748355 0.753027534028078 0.2469724659719219 0.8379952830394619 0.16200471696053803 0.98398399101302 0.016016008986980013 0.4561992363432075 0.5438007636567925 0.8077588563919869 0.1922411436080131 0.6128803942181861 0.387119605781814 0.01679766394704202 0.983202336052958 </probabilities>
    </cpt>
    <cpt id="INSUFFANESTH">
      <state id="FALSE"/>
      <state id="TRUE"/>
      <probabilities>0.9039596020205048 0.09604039797949523 </probabilities>
    </cpt>
    <cpt id="KINKEDTUBE">
      <state id="FALSE"/>
      <state id="TRUE"/>
      <probabilities>0.9610538923060761 0.0389461076939239 </probabilities>
    </cpt>
    <cpt id="PRESS">
      <state id="HIGH"/>
      <state id="LOW"/>
      <state id="NORMAL"/>
      <state id="ZERO"/>
      <parents>KINKEDTUBEVENTTUBE</parents>
      <probabilities>0.07100317767629791 0.8493087372796662 0.07469524603266937 0.004992839011366656 0.09016721180380306 0.6435065318135041 0.01996906155570559 0.24635719482698723 0.4311789069533072 0.26895050592870967 0.2889103170764918 0.010960270041491327 0.4558014731492302 0.22698692162177486 0.19377184669410322 0.12343975853489175 0.9099624518008889 0.02012987908284962 0.01999276917585456 0.04991489994040697 0.11539999384861441 0.09645372620182696 0.09370098114600314 0.6944452988035554 0.8948451329640889 0.05737699436266075 0.010205130999423648 0.03757274167382677 0.07458673988967948 0.006927615694053871 0.03987907599391183 0.878606568422355 </probabilities>
    </cpt>
    <cpt id="PCWP">
      <state id="HIGH"/>
      <state id="LOW"/>
      <state id="NORMAL"/>
      <probabilities>0.21211818318131834 0.11563265673367376 0.6722491600850078 </probabilities>
    </cpt>
    <cpt id="LVEDVOLUME">
      <state id="HIGH"/>
      <state id="LOW"/>
      <state id="NORMAL"/>
      <parents>PCWP</parents>
      <probabilities>0.9621326979202518 0.004966503454521816 0.03290079862522637 0.020386630124952152 0.7258582787857943 0.25375509108925354 0.013324567685456444 0.004095745254118931 0.9825796870604246 </probabilities>
    </cpt>
    <cpt id="CVP">
      <state id="HIGH"/>
      <state id="LOW"/>
      <state id="NORMAL"/>
      <parents>LVEDVOLUME</parents>
      <probabilities>0.7103803691916544 0.007215599698569094 0.28240403110977647 0.00976117858612837 0.9448883196247041 0.04535050178916745 0.008977202119811624 0.0418242480203866 0.9491985498598018 </probabilities>
    </cpt>
    <cpt id="LVFAILURE">
      <state id="FALSE"/>
      <state id="TRUE"/>
      <parents>HISTORYLVEDVOLUME</parents>
      <probabilities>0.9992849495751495 7.150504248505516E-4 0.8969451007757632 0.10305489922423679 0.8654805762011439 0.13451942379885606 0.01822892564344274 0.9817710743565572 0.9999239189633987 7.608103660126132E-5 0.9248320403946422 0.07516795960535784 </probabilities>
    </cpt>
    <cpt id="STROKEVOLUME">
      <state id="HIGH"/>
      <state id="LOW"/>
      <state id="NORMAL"/>
      <parents>LVEDVOLUMELVFAILURE</parents>
      <probabilities>0.019284878725885253 0.4048254636474826 0.5758896576266321 0.02690625037552673 0.08334839701542222 0.8897453526090511 0.05017518574459244 0.05836767488272037 0.8914571393726872 0.10406877936619015 0.7178446466060182 0.17808657402779166 0.01330682427924684 0.9542637208837349 0.032429454837018284 0.07433484240442154 0.7984604618614416 0.1272046957341369 </probabilities>
    </cpt>
    <cpt id="CO">
      <state id="HIGH"/>
      <state id="LOW"/>
      <state id="NORMAL"/>
      <parents>HRSTROKEVOLUME</parents>
      <probabilities>0.9706082394934699 0.016139522305158163 0.013252238201371959 0.13840847745676296 0.0973791195974541 0.764212402945783 0.6971741810790096 0.00973791195974541 0.2930879069612449 0.009880380322945088 0.7885304961476247 0.20158912352943015 0.029658959455020638 0.9494383827708831 0.02090265777409634 0.0031818040794658153 0.9715872594543475 0.02523093646618658 0.9506707167148585 0.011573154910057375 0.037756128375084165 0.009125833678467888 0.9514755463470849 0.03939861997444723 0.010745771243501323 0.04822803577687163 0.9410261929796271 </probabilities>
    </cpt>
    <cpt id="BP">
      <state id="HIGH"/>
      <state id="LOW"/>
      <state id="NORMAL"/>
      <parents>COTPR</parents>
      <probabilities>0.8968572683435413 0.011528169169471107 0.09161456248698756 0.09241459061332832 0.28975083566011794 0.6178345737265538 0.5484607831018303 0.04717055320421868 0.40436866369395097 0.007050960598663688 0.9136500630412583 0.07929897636007804 0.011806395969407937 0.9766018434635241 0.011591760567067975 0.006496368397173157 0.984852621136736 0.008651010466090943 0.7490793239079234 0.04904181076721437 0.20187886532486227 0.0069052705627371995 0.9819364029264054 0.011158326510857314 0.04778044342983372 0.09999746691079717 0.8522220896593692 </probabilities>
    </cpt>
    <cpt id="PULMEMBOLUS">
      <state id="FALSE"/>
      <state id="TRUE"/>
      <probabilities>0.9893510624476115 0.010648937552388537 </probabilities>
    </cpt>
    <cpt id="PAP">
      <state id="HIGH"/>
      <state id="LOW"/>
      <state id="NORMAL"/>
      <parents>PULMEMBOLUS</parents>
      <probabilities>0.050680011235109665 0.04805212134823579 0.9012678674166544 0.8011980665059741 0.004849933908716273 0.1939519995853096 </probabilities>
    </cpt>
    <cpt id="SHUNT">
      <state id="HIGH"/>
      <state id="NORMAL"/>
      <parents>PULMEMBOLUS</parents>
      <probabilities>0.09797919148927528 0.9020208085107247 0.8609589709964983 0.13904102900350163 </probabilities>
    </cpt>
    <cpt id="VENTLUNG">
      <state id="HIGH"/>
      <state id="LOW"/>
      <state id="NORMAL"/>
      <state id="ZERO"/>
      <probabilities>0.022545493174887007 0.219806039093985 0.01224755286588189 0.7454009148652461 </probabilities>
    </cpt>
    <cpt id="EXPCO2">
      <state id="HIGH"/>
      <state id="LOW"/>
      <state id="NORMAL"/>
      <state id="ZERO"/>
      <parents>ARTCO2VENTLUNG</parents>
      <probabilities>0.9684699483637695 0.012908606309169334 0.006921836231647296 0.011699609095413755 0.6947836250115339 0.13219327653553964 0.08202872697075018 0.09099437148217637 0.5591319027944377 0.19094584388466831 0.11848593895775023 0.1314363143631436 0.00941833902518242 0.005962995406634011 0.9646156136085713 0.020003051959612404 0.01732678357228537 0.9583915005426401 0.006093562574970013 0.018188153310104527 0.009469693965562995 0.012120388341459265 0.004597611672450336 0.9738123060205274 0.03822915278333111 0.13772268870229687 0.03949531298591675 0.7845528455284553 0.06738193611444311 0.03818916877693368 0.8681416322359946 0.02628726287262873 0.005519717246791123 0.009189906924930562 0.9789645639070574 0.006325811921220816 0.011133370709166963 0.9681665000068195 0.010992199170601059 0.009707930113412444 0.016830057274748966 0.02581442339452179 0.010255429600734957 0.9471000897299943 0.004325516583666106 0.9639351106918147 0.018639619758373402 0.013099752966145926 </probabilities>
    </cpt>
    <cpt id="INTUBATION">
      <state id="ESOPHAGEAL"/>
      <state id="NORMAL"/>
      <state id="ONESIDED"/>
      <parents>VENTLUNG</parents>
      <probabilities>0.006671787010152461 0.8764738419883726 0.1168543710014749 0.044779316205138454 0.8377088918778912 0.11751179191697035 0.14124593267181135 0.8061255010593597 0.05262856626882903 0.023268673146212233 0.9460854984754405 0.030645828378347163 </probabilities>
    </cpt>
    <cpt id="MINVOL">
      <state id="HIGH"/>
      <state id="LOW"/>
      <state id="NORMAL"/>
      <state id="ZERO"/>
      <parents>INTUBATIONVENTLUNG</parents>
      <probabilities>0.16998914719826355 0.1514537042325927 0.4330696292911407 0.24548751927800308 0.007954922769046994 0.9652373464579256 0.012547350137251832 0.014260380635775616 0.8980688426383832 0.01859957771277454 0.018096270263824293 0.06523530938501793 0.00592002005168082 0.0052745071125778545 0.005131778134517337 0.983673694701224 0.970775257259525 0.008961825950021181 0.010038353864201134 0.010224562926252647 0.009961466469074557 0.42046099026800027 0.005818593867635288 0.5637589493952899 0.030510872574047304 0.5400045110161064 0.026448395000973967 0.40303622140887235 0.015713911479743076 0.45842451196861156 0.0050812187440294814 0.5207803578076159 0.06999553119928499 0.0623632899781264 0.06067572970811675 0.8069654491144719 0.0033900969526719227 0.9488893901129007 0.02003272764968087 0.0276877852847465 0.010854525900261307 0.008294492732206345 0.010559872982713667 0.9702911083848187 0.01993475928500617 0.015314915248651082 0.9349923804881518 0.029757944978190936 </probabilities>
    </cpt>
    <cpt id="VENTMACH">
      <state id="HIGH"/>
      <state id="LOW"/>
      <state id="NORMAL"/>
      <state id="ZERO"/>
      <probabilities>0.050239954005900755 0.05593881417690358 0.8463807178952962 0.047440513921899366 </probabilities>
    </cpt>
    <cpt id="MINVOLSET">
      <state id="HIGH"/>
      <state id="LOW"/>
      <state id="NORMAL"/>
      <parents>VENTMACH</parents>
      <probabilities>0.8343713155894501 0.012947306284305184 0.15268137812624466 0.006280112401217247 0.8298136227580923 0.1639062648406904 8.885252222845015E-4 6.525856108763213E-4 0.9984588891668392 0.06832593079219092 0.06833076127581894 0.8633433079319902 </probabilities>
    </cpt>
    <cpt id="VENTTUBE">
      <state id="HIGH"/>
      <state id="LOW"/>
      <state id="NORMAL"/>
      <state id="ZERO"/>
      <parents>DISCONNECTVENTMACH</parents>
      <probabilities>0.9585278456923242 0.01501945669819504 0.012036387630740055 0.014416309978740743 0.010636149580571812 0.03780608968533799 0.9395282291123953 0.012029531621694756 0.003007860895050847 0.00959882057029405 0.008880093282883892 0.9785132252517712 0.009318396535191233 0.03312214937034036 0.008967209576346452 0.948592244518122 0.010444085547867661 0.972601142746001 0.009259524242046565 0.007695247464084824 0.008797766691102635 0.01153875095198624 0.005267851947473495 0.9743956304094377 0.010815984239518052 0.01164014680866005 0.008379085641728972 0.9691647833100929 0.008702304202286027 0.014403329577260005 0.008374336215926852 0.9685200300045271 </probabilities>
    </cpt>
    <cpt id="PRESS">
      <state id="HIGH"/>
      <state id="LOW"/>
      <state id="NORMAL"/>
      <state id="ZERO"/>
      <parents>KINKEDTUBEVENTTUBE</parents>
      <probabilities>0.07100317767629791 0.8493087372796662 0.07469524603266937 0.004992839011366656 0.09016721180380306 0.6435065318135041 0.01996906155570559 0.24635719482698723 0.4311789069533072 0.26895050592870967 0.2889103170764918 0.010960270041491327 0.4558014731492302 0.22698692162177486 0.19377184669410322 0.12343975853489175 0.9099624518008889 0.02012987908284962 0.01999276917585456 0.04991489994040697 0.11539999384861441 0.09645372620182696 0.09370098114600314 0.6944452988035554 0.8948451329640889 0.05737699436266075 0.010205130999423648 0.03757274167382677 0.07458673988967948 0.006927615694053871 0.03987907599391183 0.878606568422355 </probabilities>
    </cpt>
    <cpt id="LV_1">
      <state id="0"/>
      <state id="1"/>
      <probabilities>0.048936121676310236 0.9510638783236897 </probabilities>
    </cpt>
    <cpt id="PVSAT">
      <state id="HIGH"/>
      <state id="LOW"/>
      <state id="NORMAL"/>
      <parents>LV_1</parents>
      <probabilities>0.3012626130477584 0.3877027196663569 0.3110346672858847 4.52777849112229E-4 0.9986556188984972 8.916032523907154E-4 </probabilities>
    </cpt>
    <cpt id="SAO2">
      <state id="HIGH"/>
      <state id="LOW"/>
      <state id="NORMAL"/>
      <parents>LV_1</parents>
      <probabilities>0.44147849463986155 0.10654258884458312 0.45197891651555533 0.0010616458686875455 0.99821106507916 7.272890521523329E-4 </probabilities>
    </cpt>
  </nodes>
  <extensions>
    <genie app="GeNIe 2.3.3705.0 ACADEMIC" faultnameformat="nodestate" name="DAG" version="1.0">
      <node id="ANAPHYLAXIS">
        <name>ANAPHYLAXIS</name>
        <interior color="e5f6f7"/>
        <outline color="000080"/>
        <font bold="true" color="000080" name="Arial" size="10"/>
        <position>100 100 100 100</position>
        <barchart active="true" height="110" width="160"/>
      </node>
      <node id="ARTCO2">
        <name>ARTCO2</name>
        <interior color="e5f6f7"/>
        <outline color="000080"/>
        <font bold="true" color="000080" name="Arial" size="10"/>
        <position>100 100 100 100</position>
        <barchart active="true" height="110" width="160"/>
      </node>
      <node id="BP">
        <name>BP</name>
        <interior color="e5f6f7"/>
        <outline color="000080"/>
        <font bold="true" color="000080" name="Arial" size="10"/>
        <position>100 100 100 100</position>
        <barchart active="true" height="110" width="160"/>
      </node>
      <node id="CATECHOL">
        <name>CATECHOL</name>
        <interior color="e5f6f7"/>
        <outline color="000080"/>
        <font bold="true" color="000080" name="Arial" size="10"/>
        <position>100 100 100 100</position>
        <barchart active="true" height="110" width="160"/>
      </node>
      <node id="CO">
        <name>CO</name>
        <interior color="e5f6f7"/>
        <outline color="000080"/>
        <font bold="true" color="000080" name="Arial" size="10"/>
        <position>100 100 100 100</position>
        <barchart active="true" height="110" width="160"/>
      </node>
      <node id="CVP">
        <name>CVP</name>
        <interior color="e5f6f7"/>
        <outline color="000080"/>
        <font bold="true" color="000080" name="Arial" size="10"/>
        <position>100 100 100 100</position>
        <barchart active="true" height="110" width="160"/>
      </node>
      <node id="DISCONNECT">
        <name>DISCONNECT</name>
        <interior color="e5f6f7"/>
        <outline color="000080"/>
        <font bold="true" color="000080" name="Arial" size="10"/>
        <position>100 100 100 100</position>
        <barchart active="true" height="110" width="160"/>
      </node>
      <node id="ERRCAUTER">
        <name>ERRCAUTER</name>
        <interior color="e5f6f7"/>
        <outline color="000080"/>
        <font bold="true" color="000080" name="Arial" size="10"/>
        <position>100 100 100 100</position>
        <barchart active="true" height="110" width="160"/>
      </node>
      <node id="ERRLOWOUTPUT">
        <name>ERRLOWOUTPUT</name>
        <interior color="e5f6f7"/>
        <outline color="000080"/>
        <font bold="true" color="000080" name="Arial" size="10"/>
        <position>100 100 100 100</position>
        <barchart active="true" height="110" width="160"/>
      </node>
      <node id="EXPCO2">
        <name>EXPCO2</name>
        <interior color="e5f6f7"/>
        <outline color="000080"/>
        <font bold="true" color="000080" name="Arial" size="10"/>
        <position>100 100 100 100</position>
        <barchart active="true" height="110" width="160"/>
      </node>
      <node id="FIO2">
        <name>FIO2</name>
        <interior color="e5f6f7"/>
        <outline color="000080"/>
        <font bold="true" color="000080" name="Arial" size="10"/>
        <position>100 100 100 100</position>
        <barchart active="true" height="110" width="160"/>
      </node>
      <node id="HISTORY">
        <name>HISTORY</name>
        <interior color="e5f6f7"/>
        <outline color="000080"/>
        <font bold="true" color="000080" name="Arial" size="10"/>
        <position>100 100 100 100</position>
        <barchart active="true" height="110" width="160"/>
      </node>
      <node id="HR">
        <name>HR</name>
        <interior color="e5f6f7"/>
        <outline color="000080"/>
        <font bold="true" color="000080" name="Arial" size="10"/>
        <position>100 100 100 100</position>
        <barchart active="true" height="110" width="160"/>
      </node>
      <node id="HRBP">
        <name>HRBP</name>
        <interior color="e5f6f7"/>
        <outline color="000080"/>
        <font bold="true" color="000080" name="Arial" size="10"/>
        <position>100 100 100 100</position>
        <barchart active="true" height="110" width="160"/>
      </node>
      <node id="HREKG">
        <name>HREKG</name>
        <interior color="e5f6f7"/>
        <outline color="000080"/>
        <font bold="true" color="000080" name="Arial" size="10"/>
        <position>100 100 100 100</position>
        <barchart active="true" height="110" width="160"/>
      </node>
      <node id="HRSAT">
        <name>HRSAT</name>
        <interior color="e5f6f7"/>
        <outline color="000080"/>
        <font bold="true" color="000080" name="Arial" size="10"/>
        <position>100 100 100 100</position>
        <barchart active="true" height="110" width="160"/>
      </node>
      <node id="INSUFFANESTH">
        <name>INSUFFANESTH</name>
        <interior color="e5f6f7"/>
        <outline color="000080"/>
        <font bold="true" color="000080" name="Arial" size="10"/>
        <position>100 100 100 100</position>
        <barchart active="true" height="110" width="160"/>
      </node>
      <node id="INTUBATION">
        <name>INTUBATION</name>
        <interior color="e5f6f7"/>
        <outline color="000080"/>
        <font bold="true" color="000080" name="Arial" size="10"/>
        <position>100 100 100 100</position>
        <barchart active="true" height="110" width="160"/>
      </node>
      <node id="KINKEDTUBE">
        <name>KINKEDTUBE</name>
        <interior color="e5f6f7"/>
        <outline color="000080"/>
        <font bold="true" color="000080" name="Arial" size="10"/>
        <position>100 100 100 100</position>
        <barchart active="true" height="110" width="160"/>
      </node>
      <node id="LVEDVOLUME">
        <name>LVEDVOLUME</name>
        <interior color="e5f6f7"/>
        <outline color="000080"/>
        <font bold="true" color="000080" name="Arial" size="10"/>
        <position>100 100 100 100</position>
        <barchart active="true" height="110" width="160"/>
      </node>
      <node id="LVFAILURE">
        <name>LVFAILURE</name>
        <interior color="e5f6f7"/>
        <outline color="000080"/>
        <font bold="true" color="000080" name="Arial" size="10"/>
        <position>100 100 100 100</position>
        <barchart active="true" height="110" width="160"/>
      </node>
      <node id="MINVOL">
        <name>MINVOL</name>
        <interior color="e5f6f7"/>
        <outline color="000080"/>
        <font bold="true" color="000080" name="Arial" size="10"/>
        <position>100 100 100 100</position>
        <barchart active="true" height="110" width="160"/>
      </node>
      <node id="MINVOLSET">
        <name>MINVOLSET</name>
        <interior color="e5f6f7"/>
        <outline color="000080"/>
        <font bold="true" color="000080" name="Arial" size="10"/>
        <position>100 100 100 100</position>
        <barchart active="true" height="110" width="160"/>
      </node>
      <node id="PAP">
        <name>PAP</name>
        <interior color="e5f6f7"/>
        <outline color="000080"/>
        <font bold="true" color="000080" name="Arial" size="10"/>
        <position>100 100 100 100</position>
        <barchart active="true" height="110" width="160"/>
      </node>
      <node id="PCWP">
        <name>PCWP</name>
        <interior color="e5f6f7"/>
        <outline color="000080"/>
        <font bold="true" color="000080" name="Arial" size="10"/>
        <position>100 100 100 100</position>
        <barchart active="true" height="110" width="160"/>
      </node>
      <node id="PRESS">
        <name>PRESS</name>
        <interior color="e5f6f7"/>
        <outline color="000080"/>
        <font bold="true" color="000080" name="Arial" size="10"/>
        <position>100 100 100 100</position>
        <barchart active="true" height="110" width="160"/>
      </node>
      <node id="PULMEMBOLUS">
        <name>PULMEMBOLUS</name>
        <interior color="e5f6f7"/>
        <outline color="000080"/>
        <font bold="true" color="000080" name="Arial" size="10"/>
        <position>100 100 100 100</position>
        <barchart active="true" height="110" width="160"/>
      </node>
      <node id="PVSAT">
        <name>PVSAT</name>
        <interior color="e5f6f7"/>
        <outline color="000080"/>
        <font bold="true" color="000080" name="Arial" size="10"/>
        <position>100 100 100 100</position>
        <barchart active="true" height="110" width="160"/>
      </node>
      <node id="SAO2">
        <name>SAO2</name>
        <interior color="e5f6f7"/>
        <outline color="000080"/>
        <font bold="true" color="000080" name="Arial" size="10"/>
        <position>100 100 100 100</position>
        <barchart active="true" height="110" width="160"/>
      </node>
      <node id="SHUNT">
        <name>SHUNT</name>
        <interior color="e5f6f7"/>
        <outline color="000080"/>
        <font bold="true" color="000080" name="Arial" size="10"/>
        <position>100 100 100 100</position>
        <barchart active="true" height="110" width="160"/>
      </node>
      <node id="STROKEVOLUME">
        <name>STROKEVOLUME</name>
        <interior color="e5f6f7"/>
        <outline color="000080"/>
        <font bold="true" color="000080" name="Arial" size="10"/>
        <position>100 100 100 100</position>
        <barchart active="true" height="110" width="160"/>
      </node>
      <node id="TPR">
        <name>TPR</name>
        <interior color="e5f6f7"/>
        <outline color="000080"/>
        <font bold="true" color="000080" name="Arial" size="10"/>
        <position>100 100 100 100</position>
        <barchart active="true" height="110" width="160"/>
      </node>
      <node id="VENTALV">
        <name>VENTALV</name>
        <interior color="e5f6f7"/>
        <outline color="000080"/>
        <font bold="true" color="000080" name="Arial" size="10"/>
        <position>100 100 100 100</position>
        <barchart active="true" height="110" width="160"/>
      </node>
      <node id="VENTLUNG">
        <name>VENTLUNG</name>
        <interior color="e5f6f7"/>
        <outline color="000080"/>
        <font bold="true" color="000080" name="Arial" size="10"/>
        <position>100 100 100 100</position>
        <barchart active="true" height="110" width="160"/>
      </node>
      <node id="VENTMACH">
        <name>VENTMACH</name>
        <interior color="e5f6f7"/>
        <outline color="000080"/>
        <font bold="true" color="000080" name="Arial" size="10"/>
        <position>100 100 100 100</position>
        <barchart active="true" height="110" width="160"/>
      </node>
      <node id="VENTTUBE">
        <name>VENTTUBE</name>
        <interior color="e5f6f7"/>
        <outline color="000080"/>
        <font bold="true" color="000080" name="Arial" size="10"/>
        <position>100 100 100 100</position>
        <barchart active="true" height="110" width="160"/>
      </node>
      <node id="LV_1">
        <name>LV_1</name>
        <interior color="e5f6f7"/>
        <outline color="000080"/>
        <font bold="true" color="000080" name="Arial" size="10"/>
        <position>100 100 100 100</position>
        <barchart active="true" height="110" width="160"/>
      </node>
    </genie>
  </extensions>
</smile>
