<?xml version="1.0" encoding="ISO-8859-1"?>
<smile discsamples="10000" id="DAG" numsamples="10000" version="1.0">
  <nodes>
    <cpt id="DISCONNECT">
      <state id="FALSE"/>
      <state id="TRUE"/>
      <probabilities>0.8987601219944982 0.10123987800550172 </probabilities>
    </cpt>
    <cpt id="VENTTUBE">
      <state id="HIGH"/>
      <state id="LOW"/>
      <state id="NORMAL"/>
      <state id="ZERO"/>
      <parents>DISCONNECTVENTMACH</parents>
      <probabilities>0.9585278456923242 0.01501945669819504 0.012036387630740055 0.014416309978740743 0.010636149580571812 0.03780608968533799 0.9395282291123953 0.012029531621694756 0.003007860895050847 0.00959882057029405 0.008880093282883892 0.9785132252517712 0.009318396535191233 0.03312214937034036 0.008967209576346452 0.948592244518122 0.010444085547867661 0.972601142746001 0.009259524242046565 0.007695247464084824 0.008797766691102635 0.01153875095198624 0.005267851947473495 0.9743956304094377 0.010815984239518052 0.01164014680866005 0.008379085641728972 0.9691647833100929 0.008702304202286027 0.014403329577260005 0.008374336215926852 0.9685200300045271 </probabilities>
    </cpt>
    <cpt id="PRESS">
      <state id="HIGH"/>
      <state id="LOW"/>
      <state id="NORMAL"/>
      <state id="ZERO"/>
      <parents>INTUBATIONKINKEDTUBEVENTTUBE</parents>
      <probabilities>0.7285771405723426 0.03582566973210716 0.20623179299708688 0.029365396698463473 0.008004482305263594 0.9127576290721706 0.0738720520329755 0.005365836589590418 0.9222266648895996 0.027864409791638897 0.027069172331067568 0.022839752987693807 0.3000399840063975 0.2507796881247501 0.24362255097960817 0.20555777688924431 0.09016721180380306 0.6435065318135041 0.01996906155570559 0.24635719482698723 0.3000399840063975 0.2507796881247501 0.24362255097960817 0.20555777688924431 0.8990723896056427 0.012190019583813808 0.06779144490695602 0.02094614590358752 0.3861856762654932 0.29173982349582783 0.3119606259222153 0.010113874316463638 0.9475434261886216 0.017601458752488384 0.01224184960809833 0.0226132654507918 0.5476285676205709 0.05970944955351194 0.2484815597570496 0.1441804230688677 0.47979838367683225 0.24899777462752268 0.20448103586848088 0.06672280582716408 0.040545943784648306 0.03388914704388515 0.0329219663485957 0.8926429428228709 0.16668888000355414 0.1393220489581945 0.13534586165533788 0.5586432093829135 0.9462159359363825 0.0049956113172260974 0.020789293844215302 0.02799915890217618 0.13638181091199886 0.4776271309657955 0.11073752317254916 0.2752535349496565 0.3000399840063975 0.2507796881247501 0.24362255097960817 0.20555777688924431 0.11539999384861441 0.09645372620182696 0.09370098114600314 0.6944452988035554 0.3000399840063975 0.2507796881247501 0.24362255097960817 0.20555777688924431 0.034655444752791954 0.03221681624379951 0.012060522325723176 0.9210672166776854 0.9673232467681385 0.011714084882310877 0.008719221950133704 0.012243446399416958 0.10487902400015604 0.8256287728810914 0.04496640368242947 0.02452579943632303 0.3181999927301806 0.11399076732943185 0.4743738868089127 0.09343535313147466 0.009092120727466589 0.00759938448862879 0.01950371366604873 0.9638047811178558 0.7666799946687991 0.0835932293749167 0.08120751699320272 0.06851925896308143 </probabilities>
    </cpt>
    <cpt id="VENTLUNG">
      <state id="HIGH"/>
      <state id="LOW"/>
      <state id="NORMAL"/>
      <state id="ZERO"/>
      <parents>INTUBATIONKINKEDTUBEVENTTUBE</parents>
      <probabilities>0.02921688467470155 0.03485177357628377 0.8860655737704918 0.04986576797852288 0.009629232618585438 0.9575451569638954 0.02242507479398849 0.010400535623530736 0.8671686880803234 0.027106935003776266 0.022495446265938072 0.08322893064996224 0.20451819272291086 0.24396241503398639 0.20245901639344263 0.34906037584966015 0.016763786288763186 0.01999691926508085 0.016595001343724807 0.9466442931024311 0.20451819272291086 0.24396241503398639 0.20245901639344263 0.34906037584966015 0.007012972073351635 0.45758657094006944 0.01162945494655966 0.5237710020400193 0.008288800346963778 0.035065750176778675 0.010112696349271437 0.946532753126986 0.014638235011440312 0.6735986880148339 0.014624561861842248 0.29713851511188355 0.04869480779116925 0.058086289293806284 0.04820452771272444 0.8450143752023 0.022267860532554657 0.014585478939737237 0.030327868852459017 0.9328187916752491 0.02763759361120417 0.032967893923511675 0.02735932653965441 0.9120351859256298 0.11362121817939491 0.13553467501888133 0.11247723132969036 0.6383668754720334 0.9363449839187831 0.0367323190245814 0.012001175625367384 0.01492152143126813 0.09296281487405039 0.11089200683363018 0.09202682563338302 0.7041183526589364 0.20451819272291086 0.24396241503398639 0.20245901639344263 0.34906037584966015 0.07866084335496572 0.09383169808999477 0.0778688524590164 0.7496386060960231 0.20451819272291086 0.24396241503398639 0.20245901639344263 0.34906037584966015 0.010124663006084696 0.012077347278910217 0.010022723583833795 0.9677752661311713 0.009257711418565967 0.6909041516189705 0.008657802173072878 0.2911803347893907 0.024500443724949045 0.03521859548863381 0.014694122351059578 0.9255868384353576 0.09296281487405039 0.11089200683363018 0.09202682563338302 0.7041183526589364 0.04256115735523972 0.007392800455575345 0.018256333830104325 0.9317897083590806 0.06817273090763695 0.34798747167799543 0.06748633879781421 0.5163534586165534 </probabilities>
    </cpt>
    <cpt id="EXPCO2">
      <state id="HIGH"/>
      <state id="LOW"/>
      <state id="NORMAL"/>
      <state id="ZERO"/>
      <parents>ARTCO2VENTLUNG</parents>
      <probabilities>0.9684699483637695 0.012908606309169334 0.006921836231647296 0.011699609095413755 0.6947836250115339 0.13219327653553964 0.08202872697075018 0.09099437148217637 0.5591319027944377 0.19094584388466831 0.11848593895775023 0.1314363143631436 0.00941833902518242 0.005962995406634011 0.9646156136085713 0.020003051959612404 0.01732678357228537 0.9583915005426401 0.006093562574970013 0.018188153310104527 0.009469693965562995 0.012120388341459265 0.004597611672450336 0.9738123060205274 0.03822915278333111 0.13772268870229687 0.03949531298591675 0.7845528455284553 0.06738193611444311 0.03818916877693368 0.8681416322359946 0.02628726287262873 0.005519717246791123 0.009189906924930562 0.9789645639070574 0.006325811921220816 0.011133370709166963 0.9681665000068195 0.010992199170601059 0.009707930113412444 0.016830057274748966 0.02581442339452179 0.010255429600734957 0.9471000897299943 0.004325516583666106 0.9639351106918147 0.018639619758373402 0.013099752966145926 </probabilities>
    </cpt>
    <cpt id="MINVOL">
      <state id="HIGH"/>
      <state id="LOW"/>
      <state id="NORMAL"/>
      <state id="ZERO"/>
      <parents>INTUBATIONVENTLUNG</parents>
      <probabilities>0.16998914719826355 0.1514537042325927 0.4330696292911407 0.24548751927800308 0.007954922769046994 0.9652373464579256 0.012547350137251832 0.014260380635775616 0.8980688426383832 0.01859957771277454 0.018096270263824293 0.06523530938501793 0.00592002005168082 0.0052745071125778545 0.005131778134517337 0.983673694701224 0.970775257259525 0.008961825950021181 0.010038353864201134 0.010224562926252647 0.009961466469074557 0.42046099026800027 0.005818593867635288 0.5637589493952899 0.030510872574047304 0.5400045110161064 0.026448395000973967 0.40303622140887235 0.015713911479743076 0.45842451196861156 0.0050812187440294814 0.5207803578076159 0.06999553119928499 0.0623632899781264 0.06067572970811675 0.8069654491144719 0.0033900969526719227 0.9488893901129007 0.02003272764968087 0.0276877852847465 0.010854525900261307 0.008294492732206345 0.010559872982713667 0.9702911083848187 0.01993475928500617 0.015314915248651082 0.9349923804881518 0.029757944978190936 </probabilities>
    </cpt>
    <cpt id="VENTALV">
      <state id="HIGH"/>
      <state id="LOW"/>
      <state id="NORMAL"/>
      <state id="ZERO"/>
      <parents>INTUBATIONVENTLUNG</parents>
      <probabilities>0.14448506311761009 0.43918147026903526 0.17381618781059002 0.2425172788027646 0.0124972454908311 0.9702600256655444 0.003034197792204814 0.014208531051419834 0.017743779681110013 0.8960398296821623 0.021345847625861936 0.06487054301086584 0.01498206687474264 0.015294877074046004 0.006053300073005623 0.9636697559782057 0.008406450377290126 0.016555779423118255 0.9604816246448019 0.014556145554789741 0.013457572824996681 0.9540772942262634 0.017690428627013685 0.014774704321726204 0.8977280882518788 0.027545392099570434 0.03119777729933668 0.043528742349214174 0.02468667705331661 0.0052919718811982605 0.941954252781646 0.02806709828383918 0.05949384951901592 0.06319237011077922 0.07157137145141942 0.8057424089187855 0.008579474193228694 0.9660235620851376 0.014862431095937696 0.010534532625696163 0.010275022705436353 0.01013776449315406 0.01028957084352541 0.9692976419578841 0.002193916359703407 0.015345488702566695 0.9701013304005948 0.012359264537135255 </probabilities>
    </cpt>
    <cpt id="ARTCO2">
      <state id="HIGH"/>
      <state id="LOW"/>
      <state id="NORMAL"/>
      <parents>VENTALV</parents>
      <probabilities>0.02507204360431001 0.882720401270923 0.09220755512476692 0.976993662653892 0.01547425557279053 0.007532081773317468 0.04190100738335437 0.034814590201086286 0.9232844024155593 0.981358636821561 0.009958860479391998 0.00868250269904702 </probabilities>
    </cpt>
    <cpt id="CATECHOL">
      <state id="HIGH"/>
      <state id="NORMAL"/>
      <parents>ARTCO2TPR</parents>
      <probabilities>0.8925439169481271 0.10745608305187299 0.24771804259837688 0.7522819574016232 0.3188926901356913 0.6811073098643087 0.9910676168726446 0.008932383127355455 0.9931153896609213 0.00688461033907868 0.9849638425348816 0.015036157465118482 0.9925399828192562 0.007460017180743894 0.9128726766062313 0.08712732339376873 0.9573087784845433 0.04269122151545667 </probabilities>
    </cpt>
    <cpt id="HR">
      <state id="HIGH"/>
      <state id="LOW"/>
      <state id="NORMAL"/>
      <parents>CATECHOL</parents>
      <probabilities>0.9067781732045537 0.008756362649612773 0.08446546414583349 0.04557842523786073 0.04877283728461707 0.9056487374775222 </probabilities>
    </cpt>
    <cpt id="CO">
      <state id="HIGH"/>
      <state id="LOW"/>
      <state id="NORMAL"/>
      <parents>HRSTROKEVOLUME</parents>
      <probabilities>0.9706082394934699 0.016139522305158163 0.013252238201371959 0.13840847745676296 0.0973791195974541 0.764212402945783 0.6971741810790096 0.00973791195974541 0.2930879069612449 0.009880380322945088 0.7885304961476247 0.20158912352943015 0.029658959455020638 0.9494383827708831 0.02090265777409634 0.0031818040794658153 0.9715872594543475 0.02523093646618658 0.9506707167148585 0.011573154910057375 0.037756128375084165 0.009125833678467888 0.9514755463470849 0.03939861997444723 0.010745771243501323 0.04822803577687163 0.9410261929796271 </probabilities>
    </cpt>
    <cpt id="BP">
      <state id="HIGH"/>
      <state id="LOW"/>
      <state id="NORMAL"/>
      <parents>COTPR</parents>
      <probabilities>0.8968572683435413 0.011528169169471107 0.09161456248698756 0.09241459061332832 0.28975083566011794 0.6178345737265538 0.5484607831018303 0.04717055320421868 0.40436866369395097 0.007050960598663688 0.9136500630412583 0.07929897636007804 0.011806395969407937 0.9766018434635241 0.011591760567067975 0.006496368397173157 0.984852621136736 0.008651010466090943 0.7490793239079234 0.04904181076721437 0.20187886532486227 0.0069052705627371995 0.9819364029264054 0.011158326510857314 0.04778044342983372 0.09999746691079717 0.8522220896593692 </probabilities>
    </cpt>
    <cpt id="HRBP">
      <state id="HIGH"/>
      <state id="LOW"/>
      <state id="NORMAL"/>
      <parents>ERRLOWOUTPUTHR</parents>
      <probabilities>0.9812584630845035 0.009248061428730758 0.009493475486765737 0.00688650547692835 0.013279944588052156 0.9798335499350195 0.02493389914060265 0.3584273855774302 0.6166387152819672 0.1274760429014153 0.7967966752831294 0.07572728181545536 0.00901561699322371 0.9815227809279594 0.009461602078816914 0.32400400361819165 0.29611538225279405 0.3798806141290143 </probabilities>
    </cpt>
    <cpt id="HREKG">
      <state id="HIGH"/>
      <state id="LOW"/>
      <state id="NORMAL"/>
      <parents>ERRCAUTERHR</parents>
      <probabilities>0.9791693673125691 0.011212531772749761 0.009618100914681182 0.01185418684118654 0.007894510398381085 0.9802513027604324 0.338298510446866 0.3539094235032243 0.3077920660499098 0.5624669741934563 0.11258051156081747 0.3249525142457263 0.009438810585563335 0.9820939348693926 0.008467254545044111 0.2944599841524053 0.3662827326298755 0.33925728321771925 </probabilities>
    </cpt>
    <cpt id="HRSAT">
      <state id="HIGH"/>
      <state id="LOW"/>
      <state id="NORMAL"/>
      <parents>ERRCAUTERHR</parents>
      <probabilities>0.9789042274458057 0.00948898679196453 0.011606785762229703 0.011854246847194341 0.010294630698425528 0.9778511224543802 0.25573016168543933 0.37225162726411437 0.37201821105044636 0.49104197312234904 0.18395909798489027 0.3249989288927607 0.0138376742109332 0.9754951813576161 0.010667144431450625 0.3414401853940462 0.38641226424019104 0.27214755036576277 </probabilities>
    </cpt>
    <cpt id="PVSAT">
      <state id="HIGH"/>
      <state id="LOW"/>
      <state id="NORMAL"/>
      <parents>VENTALV</parents>
      <probabilities>0.9348478065276069 0.008561344640086236 0.05659084883230684 0.019499324933702687 0.9448717132172176 0.03562896184907969 0.013143152489937667 0.9552718094207515 0.03158503808931088 7.270741413679047E-5 0.9915450651337551 0.008382227452108206 </probabilities>
    </cpt>
    <cpt id="SAO2">
      <state id="HIGH"/>
      <state id="LOW"/>
      <state id="NORMAL"/>
      <parents>PVSAT</parents>
      <probabilities>0.8510678584504119 0.11243315746997755 0.03649898407961055 0.009748452462713999 0.9811219604721988 0.009129587065087283 0.015695291412576227 0.1498587923622913 0.8344459162251324 </probabilities>
    </cpt>
    <cpt id="ERRCAUTER">
      <state id="FALSE"/>
      <state id="TRUE"/>
      <probabilities>0.900959902005501 0.099040097994499 </probabilities>
    </cpt>
    <cpt id="HREKG">
      <state id="HIGH"/>
      <state id="LOW"/>
      <state id="NORMAL"/>
      <parents>ERRCAUTERHR</parents>
      <probabilities>0.9791693673125691 0.011212531772749761 0.009618100914681182 0.01185418684118654 0.007894510398381085 0.9802513027604324 0.338298510446866 0.3539094235032243 0.3077920660499098 0.5624669741934563 0.11258051156081747 0.3249525142457263 0.009438810585563335 0.9820939348693926 0.008467254545044111 0.2944599841524053 0.3662827326298755 0.33925728321771925 </probabilities>
    </cpt>
    <cpt id="HRSAT">
      <state id="HIGH"/>
      <state id="LOW"/>
      <state id="NORMAL"/>
      <parents>ERRCAUTERHR</parents>
      <probabilities>0.9789042274458057 0.00948898679196453 0.011606785762229703 0.011854246847194341 0.010294630698425528 0.9778511224543802 0.25573016168543933 0.37225162726411437 0.37201821105044636 0.49104197312234904 0.18395909798489027 0.3249989288927607 0.0138376742109332 0.9754951813576161 0.010667144431450625 0.3414401853940462 0.38641226424019104 0.27214755036576277 </probabilities>
    </cpt>
    <cpt id="ERRLOWOUTPUT">
      <state id="FALSE"/>
      <state id="TRUE"/>
      <probabilities>0.9495550422485617 0.050444957751438264 </probabilities>
    </cpt>
    <cpt id="HRBP">
      <state id="HIGH"/>
      <state id="LOW"/>
      <state id="NORMAL"/>
      <parents>ERRLOWOUTPUTHR</parents>
      <probabilities>0.9812584630845035 0.009248061428730758 0.009493475486765737 0.00688650547692835 0.013279944588052156 0.9798335499350195 0.02493389914060265 0.3584273855774302 0.6166387152819672 0.1274760429014153 0.7967966752831294 0.07572728181545536 0.00901561699322371 0.9815227809279594 0.009461602078816914 0.32400400361819165 0.29611538225279405 0.3798806141290143 </probabilities>
    </cpt>
    <cpt id="FIO2">
      <state id="LOW"/>
      <state id="NORMAL"/>
      <probabilities>0.04614538772993289 0.9538546122700671 </probabilities>
    </cpt>
    <cpt id="HISTORY">
      <state id="FALSE"/>
      <state id="TRUE"/>
      <probabilities>0.9468553122350584 0.05314468776494165 </probabilities>
    </cpt>
    <cpt id="LVFAILURE">
      <state id="FALSE"/>
      <state id="TRUE"/>
      <parents>HISTORYLVEDVOLUME</parents>
      <probabilities>0.9992849495751495 7.150504248505516E-4 0.8969451007757632 0.10305489922423679 0.8654805762011439 0.13451942379885606 0.01822892564344274 0.9817710743565572 0.9999239189633987 7.608103660126132E-5 0.9248320403946422 0.07516795960535784 </probabilities>
    </cpt>
    <cpt id="STROKEVOLUME">
      <state id="HIGH"/>
      <state id="LOW"/>
      <state id="NORMAL"/>
      <parents>LVEDVOLUMELVFAILURE</parents>
      <probabilities>0.019284878725885253 0.4048254636474826 0.5758896576266321 0.02690625037552673 0.08334839701542222 0.8897453526090511 0.05017518574459244 0.05836767488272037 0.8914571393726872 0.10406877936619015 0.7178446466060182 0.17808657402779166 0.01330682427924684 0.9542637208837349 0.032429454837018284 0.07433484240442154 0.7984604618614416 0.1272046957341369 </probabilities>
    </cpt>
    <cpt id="CO">
      <state id="HIGH"/>
      <state id="LOW"/>
      <state id="NORMAL"/>
      <parents>HRSTROKEVOLUME</parents>
      <probabilities>0.9706082394934699 0.016139522305158163 0.013252238201371959 0.13840847745676296 0.0973791195974541 0.764212402945783 0.6971741810790096 0.00973791195974541 0.2930879069612449 0.009880380322945088 0.7885304961476247 0.20158912352943015 0.029658959455020638 0.9494383827708831 0.02090265777409634 0.0031818040794658153 0.9715872594543475 0.02523093646618658 0.9506707167148585 0.011573154910057375 0.037756128375084165 0.009125833678467888 0.9514755463470849 0.03939861997444723 0.010745771243501323 0.04822803577687163 0.9410261929796271 </probabilities>
    </cpt>
    <cpt id="BP">
      <state id="HIGH"/>
      <state id="LOW"/>
      <state id="NORMAL"/>
      <parents>COTPR</parents>
      <probabilities>0.8968572683435413 0.011528169169471107 0.09161456248698756 0.09241459061332832 0.28975083566011794 0.6178345737265538 0.5484607831018303 0.04717055320421868 0.40436866369395097 0.007050960598663688 0.9136500630412583 0.07929897636007804 0.011806395969407937 0.9766018434635241 0.011591760567067975 0.006496368397173157 0.984852621136736 0.008651010466090943 0.7490793239079234 0.04904181076721437 0.20187886532486227 0.0069052705627371995 0.9819364029264054 0.011158326510857314 0.04778044342983372 0.09999746691079717 0.8522220896593692 </probabilities>
    </cpt>
    <cpt id="INSUFFANESTH">
      <state id="FALSE"/>
      <state id="TRUE"/>
      <probabilities>0.9039596020205048 0.09604039797949523 </probabilities>
    </cpt>
    <cpt id="INTUBATION">
      <state id="ESOPHAGEAL"/>
      <state id="NORMAL"/>
      <state id="ONESIDED"/>
      <probabilities>0.028945660433043856 0.9192121137903779 0.05184222577657816 </probabilities>
    </cpt>
    <cpt id="MINVOL">
      <state id="HIGH"/>
      <state id="LOW"/>
      <state id="NORMAL"/>
      <state id="ZERO"/>
      <parents>INTUBATIONVENTLUNG</parents>
      <probabilities>0.16998914719826355 0.1514537042325927 0.4330696292911407 0.24548751927800308 0.007954922769046994 0.9652373464579256 0.012547350137251832 0.014260380635775616 0.8980688426383832 0.01859957771277454 0.018096270263824293 0.06523530938501793 0.00592002005168082 0.0052745071125778545 0.005131778134517337 0.983673694701224 0.970775257259525 0.008961825950021181 0.010038353864201134 0.010224562926252647 0.009961466469074557 0.42046099026800027 0.005818593867635288 0.5637589493952899 0.030510872574047304 0.5400045110161064 0.026448395000973967 0.40303622140887235 0.015713911479743076 0.45842451196861156 0.0050812187440294814 0.5207803578076159 0.06999553119928499 0.0623632899781264 0.06067572970811675 0.8069654491144719 0.0033900969526719227 0.9488893901129007 0.02003272764968087 0.0276877852847465 0.010854525900261307 0.008294492732206345 0.010559872982713667 0.9702911083848187 0.01993475928500617 0.015314915248651082 0.9349923804881518 0.029757944978190936 </probabilities>
    </cpt>
    <cpt id="PRESS">
      <state id="HIGH"/>
      <state id="LOW"/>
      <state id="NORMAL"/>
      <state id="ZERO"/>
      <parents>INTUBATIONKINKEDTUBEVENTTUBE</parents>
      <probabilities>0.7285771405723426 0.03582566973210716 0.20623179299708688 0.029365396698463473 0.008004482305263594 0.9127576290721706 0.0738720520329755 0.005365836589590418 0.9222266648895996 0.027864409791638897 0.027069172331067568 0.022839752987693807 0.3000399840063975 0.2507796881247501 0.24362255097960817 0.20555777688924431 0.09016721180380306 0.6435065318135041 0.01996906155570559 0.24635719482698723 0.3000399840063975 0.2507796881247501 0.24362255097960817 0.20555777688924431 0.8990723896056427 0.012190019583813808 0.06779144490695602 0.02094614590358752 0.3861856762654932 0.29173982349582783 0.3119606259222153 0.010113874316463638 0.9475434261886216 0.017601458752488384 0.01224184960809833 0.0226132654507918 0.5476285676205709 0.05970944955351194 0.2484815597570496 0.1441804230688677 0.47979838367683225 0.24899777462752268 0.20448103586848088 0.06672280582716408 0.040545943784648306 0.03388914704388515 0.0329219663485957 0.8926429428228709 0.16668888000355414 0.1393220489581945 0.13534586165533788 0.5586432093829135 0.9462159359363825 0.0049956113172260974 0.020789293844215302 0.02799915890217618 0.13638181091199886 0.4776271309657955 0.11073752317254916 0.2752535349496565 0.3000399840063975 0.2507796881247501 0.24362255097960817 0.20555777688924431 0.11539999384861441 0.09645372620182696 0.09370098114600314 0.6944452988035554 0.3000399840063975 0.2507796881247501 0.24362255097960817 0.20555777688924431 0.034655444752791954 0.03221681624379951 0.012060522325723176 0.9210672166776854 0.9673232467681385 0.011714084882310877 0.008719221950133704 0.012243446399416958 0.10487902400015604 0.8256287728810914 0.04496640368242947 0.02452579943632303 0.3181999927301806 0.11399076732943185 0.4743738868089127 0.09343535313147466 0.009092120727466589 0.00759938448862879 0.01950371366604873 0.9638047811178558 0.7666799946687991 0.0835932293749167 0.08120751699320272 0.06851925896308143 </probabilities>
    </cpt>
    <cpt id="SHUNT">
      <state id="HIGH"/>
      <state id="NORMAL"/>
      <parents>INTUBATIONPULMEMBOLUS</parents>
      <probabilities>0.040184658720429825 0.9598153412795701 0.05272421410391112 0.947275785896089 0.9302678746500942 0.06973212534990578 0.7895754182496835 0.2104245817503166 0.8612247699713789 0.13877523002862113 0.6460162512951956 0.3539837487048045 </probabilities>
    </cpt>
    <cpt id="VENTALV">
      <state id="HIGH"/>
      <state id="LOW"/>
      <state id="NORMAL"/>
      <state id="ZERO"/>
      <parents>INTUBATIONVENTLUNG</parents>
      <probabilities>0.14448506311761009 0.43918147026903526 0.17381618781059002 0.2425172788027646 0.0124972454908311 0.9702600256655444 0.003034197792204814 0.014208531051419834 0.017743779681110013 0.8960398296821623 0.021345847625861936 0.06487054301086584 0.01498206687474264 0.015294877074046004 0.006053300073005623 0.9636697559782057 0.008406450377290126 0.016555779423118255 0.9604816246448019 0.014556145554789741 0.013457572824996681 0.9540772942262634 0.017690428627013685 0.014774704321726204 0.8977280882518788 0.027545392099570434 0.03119777729933668 0.043528742349214174 0.02468667705331661 0.0052919718811982605 0.941954252781646 0.02806709828383918 0.05949384951901592 0.06319237011077922 0.07157137145141942 0.8057424089187855 0.008579474193228694 0.9660235620851376 0.014862431095937696 0.010534532625696163 0.010275022705436353 0.01013776449315406 0.01028957084352541 0.9692976419578841 0.002193916359703407 0.015345488702566695 0.9701013304005948 0.012359264537135255 </probabilities>
    </cpt>
    <cpt id="ARTCO2">
      <state id="HIGH"/>
      <state id="LOW"/>
      <state id="NORMAL"/>
      <parents>VENTALV</parents>
      <probabilities>0.02507204360431001 0.882720401270923 0.09220755512476692 0.976993662653892 0.01547425557279053 0.007532081773317468 0.04190100738335437 0.034814590201086286 0.9232844024155593 0.981358636821561 0.009958860479391998 0.00868250269904702 </probabilities>
    </cpt>
    <cpt id="CATECHOL">
      <state id="HIGH"/>
      <state id="NORMAL"/>
      <parents>ARTCO2TPR</parents>
      <probabilities>0.8925439169481271 0.10745608305187299 0.24771804259837688 0.7522819574016232 0.3188926901356913 0.6811073098643087 0.9910676168726446 0.008932383127355455 0.9931153896609213 0.00688461033907868 0.9849638425348816 0.015036157465118482 0.9925399828192562 0.007460017180743894 0.9128726766062313 0.08712732339376873 0.9573087784845433 0.04269122151545667 </probabilities>
    </cpt>
    <cpt id="HR">
      <state id="HIGH"/>
      <state id="LOW"/>
      <state id="NORMAL"/>
      <parents>CATECHOL</parents>
      <probabilities>0.9067781732045537 0.008756362649612773 0.08446546414583349 0.04557842523786073 0.04877283728461707 0.9056487374775222 </probabilities>
    </cpt>
    <cpt id="CO">
      <state id="HIGH"/>
      <state id="LOW"/>
      <state id="NORMAL"/>
      <parents>HRSTROKEVOLUME</parents>
      <probabilities>0.9706082394934699 0.016139522305158163 0.013252238201371959 0.13840847745676296 0.0973791195974541 0.764212402945783 0.6971741810790096 0.00973791195974541 0.2930879069612449 0.009880380322945088 0.7885304961476247 0.20158912352943015 0.029658959455020638 0.9494383827708831 0.02090265777409634 0.0031818040794658153 0.9715872594543475 0.02523093646618658 0.9506707167148585 0.011573154910057375 0.037756128375084165 0.009125833678467888 0.9514755463470849 0.03939861997444723 0.010745771243501323 0.04822803577687163 0.9410261929796271 </probabilities>
    </cpt>
    <cpt id="BP">
      <state id="HIGH"/>
      <state id="LOW"/>
      <state id="NORMAL"/>
      <parents>COTPR</parents>
      <probabilities>0.8968572683435413 0.011528169169471107 0.09161456248698756 0.09241459061332832 0.28975083566011794 0.6178345737265538 0.5484607831018303 0.04717055320421868 0.40436866369395097 0.007050960598663688 0.9136500630412583 0.07929897636007804 0.011806395969407937 0.9766018434635241 0.011591760567067975 0.006496368397173157 0.984852621136736 0.008651010466090943 0.7490793239079234 0.04904181076721437 0.20187886532486227 0.0069052705627371995 0.9819364029264054 0.011158326510857314 0.04778044342983372 0.09999746691079717 0.8522220896593692 </probabilities>
    </cpt>
    <cpt id="HRBP">
      <state id="HIGH"/>
      <state id="LOW"/>
      <state id="NORMAL"/>
      <parents>ERRLOWOUTPUTHR</parents>
      <probabilities>0.9812584630845035 0.009248061428730758 0.009493475486765737 0.00688650547692835 0.013279944588052156 0.9798335499350195 0.02493389914060265 0.3584273855774302 0.6166387152819672 0.1274760429014153 0.7967966752831294 0.07572728181545536 0.00901561699322371 0.9815227809279594 0.009461602078816914 0.32400400361819165 0.29611538225279405 0.3798806141290143 </probabilities>
    </cpt>
    <cpt id="HREKG">
      <state id="HIGH"/>
      <state id="LOW"/>
      <state id="NORMAL"/>
      <parents>ERRCAUTERHR</parents>
      <probabilities>0.9791693673125691 0.011212531772749761 0.009618100914681182 0.01185418684118654 0.007894510398381085 0.9802513027604324 0.338298510446866 0.3539094235032243 0.3077920660499098 0.5624669741934563 0.11258051156081747 0.3249525142457263 0.009438810585563335 0.9820939348693926 0.008467254545044111 0.2944599841524053 0.3662827326298755 0.33925728321771925 </probabilities>
    </cpt>
    <cpt id="HRSAT">
      <state id="HIGH"/>
      <state id="LOW"/>
      <state id="NORMAL"/>
      <parents>ERRCAUTERHR</parents>
      <probabilities>0.9789042274458057 0.00948898679196453 0.011606785762229703 0.011854246847194341 0.010294630698425528 0.9778511224543802 0.25573016168543933 0.37225162726411437 0.37201821105044636 0.49104197312234904 0.18395909798489027 0.3249989288927607 0.0138376742109332 0.9754951813576161 0.010667144431450625 0.3414401853940462 0.38641226424019104 0.27214755036576277 </probabilities>
    </cpt>
    <cpt id="EXPCO2">
      <state id="HIGH"/>
      <state id="LOW"/>
      <state id="NORMAL"/>
      <state id="ZERO"/>
      <parents>ARTCO2VENTLUNG</parents>
      <probabilities>0.9684699483637695 0.012908606309169334 0.006921836231647296 0.011699609095413755 0.6947836250115339 0.13219327653553964 0.08202872697075018 0.09099437148217637 0.5591319027944377 0.19094584388466831 0.11848593895775023 0.1314363143631436 0.00941833902518242 0.005962995406634011 0.9646156136085713 0.020003051959612404 0.01732678357228537 0.9583915005426401 0.006093562574970013 0.018188153310104527 0.009469693965562995 0.012120388341459265 0.004597611672450336 0.9738123060205274 0.03822915278333111 0.13772268870229687 0.03949531298591675 0.7845528455284553 0.06738193611444311 0.03818916877693368 0.8681416322359946 0.02628726287262873 0.005519717246791123 0.009189906924930562 0.9789645639070574 0.006325811921220816 0.011133370709166963 0.9681665000068195 0.010992199170601059 0.009707930113412444 0.016830057274748966 0.02581442339452179 0.010255429600734957 0.9471000897299943 0.004325516583666106 0.9639351106918147 0.018639619758373402 0.013099752966145926 </probabilities>
    </cpt>
    <cpt id="PVSAT">
      <state id="HIGH"/>
      <state id="LOW"/>
      <state id="NORMAL"/>
      <parents>VENTALV</parents>
      <probabilities>0.9348478065276069 0.008561344640086236 0.05659084883230684 0.019499324933702687 0.9448717132172176 0.03562896184907969 0.013143152489937667 0.9552718094207515 0.03158503808931088 7.270741413679047E-5 0.9915450651337551 0.008382227452108206 </probabilities>
    </cpt>
    <cpt id="SAO2">
      <state id="HIGH"/>
      <state id="LOW"/>
      <state id="NORMAL"/>
      <parents>PVSAT</parents>
      <probabilities>0.8510678584504119 0.11243315746997755 0.03649898407961055 0.009748452462713999 0.9811219604721988 0.009129587065087283 0.015695291412576227 0.1498587923622913 0.8344459162251324 </probabilities>
    </cpt>
    <cpt id="VENTLUNG">
      <state id="HIGH"/>
      <state id="LOW"/>
      <state id="NORMAL"/>
      <state id="ZERO"/>
      <parents>INTUBATIONKINKEDTUBEVENTTUBE</parents>
      <probabilities>0.02921688467470155 0.03485177357628377 0.8860655737704918 0.04986576797852288 0.009629232618585438 0.9575451569638954 0.02242507479398849 0.010400535623530736 0.8671686880803234 0.027106935003776266 0.022495446265938072 0.08322893064996224 0.20451819272291086 0.24396241503398639 0.20245901639344263 0.34906037584966015 0.016763786288763186 0.01999691926508085 0.016595001343724807 0.9466442931024311 0.20451819272291086 0.24396241503398639 0.20245901639344263 0.34906037584966015 0.007012972073351635 0.45758657094006944 0.01162945494655966 0.5237710020400193 0.008288800346963778 0.035065750176778675 0.010112696349271437 0.946532753126986 0.014638235011440312 0.6735986880148339 0.014624561861842248 0.29713851511188355 0.04869480779116925 0.058086289293806284 0.04820452771272444 0.8450143752023 0.022267860532554657 0.014585478939737237 0.030327868852459017 0.9328187916752491 0.02763759361120417 0.032967893923511675 0.02735932653965441 0.9120351859256298 0.11362121817939491 0.13553467501888133 0.11247723132969036 0.6383668754720334 0.9363449839187831 0.0367323190245814 0.012001175625367384 0.01492152143126813 0.09296281487405039 0.11089200683363018 0.09202682563338302 0.7041183526589364 0.20451819272291086 0.24396241503398639 0.20245901639344263 0.34906037584966015 0.07866084335496572 0.09383169808999477 0.0778688524590164 0.7496386060960231 0.20451819272291086 0.24396241503398639 0.20245901639344263 0.34906037584966015 0.010124663006084696 0.012077347278910217 0.010022723583833795 0.9677752661311713 0.009257711418565967 0.6909041516189705 0.008657802173072878 0.2911803347893907 0.024500443724949045 0.03521859548863381 0.014694122351059578 0.9255868384353576 0.09296281487405039 0.11089200683363018 0.09202682563338302 0.7041183526589364 0.04256115735523972 0.007392800455575345 0.018256333830104325 0.9317897083590806 0.06817273090763695 0.34798747167799543 0.06748633879781421 0.5163534586165534 </probabilities>
    </cpt>
    <cpt id="KINKEDTUBE">
      <state id="FALSE"/>
      <state id="TRUE"/>
      <probabilities>0.9610538923060761 0.0389461076939239 </probabilities>
    </cpt>
    <cpt id="PRESS">
      <state id="HIGH"/>
      <state id="LOW"/>
      <state id="NORMAL"/>
      <state id="ZERO"/>
      <parents>INTUBATIONKINKEDTUBEVENTTUBE</parents>
      <probabilities>0.7285771405723426 0.03582566973210716 0.20623179299708688 0.029365396698463473 0.008004482305263594 0.9127576290721706 0.0738720520329755 0.005365836589590418 0.9222266648895996 0.027864409791638897 0.027069172331067568 0.022839752987693807 0.3000399840063975 0.2507796881247501 0.24362255097960817 0.20555777688924431 0.09016721180380306 0.6435065318135041 0.01996906155570559 0.24635719482698723 0.3000399840063975 0.2507796881247501 0.24362255097960817 0.20555777688924431 0.8990723896056427 0.012190019583813808 0.06779144490695602 0.02094614590358752 0.3861856762654932 0.29173982349582783 0.3119606259222153 0.010113874316463638 0.9475434261886216 0.017601458752488384 0.01224184960809833 0.0226132654507918 0.5476285676205709 0.05970944955351194 0.2484815597570496 0.1441804230688677 0.47979838367683225 0.24899777462752268 0.20448103586848088 0.06672280582716408 0.040545943784648306 0.03388914704388515 0.0329219663485957 0.8926429428228709 0.16668888000355414 0.1393220489581945 0.13534586165533788 0.5586432093829135 0.9462159359363825 0.0049956113172260974 0.020789293844215302 0.02799915890217618 0.13638181091199886 0.4776271309657955 0.11073752317254916 0.2752535349496565 0.3000399840063975 0.2507796881247501 0.24362255097960817 0.20555777688924431 0.11539999384861441 0.09645372620182696 0.09370098114600314 0.6944452988035554 0.3000399840063975 0.2507796881247501 0.24362255097960817 0.20555777688924431 0.034655444752791954 0.03221681624379951 0.012060522325723176 0.9210672166776854 0.9673232467681385 0.011714084882310877 0.008719221950133704 0.012243446399416958 0.10487902400015604 0.8256287728810914 0.04496640368242947 0.02452579943632303 0.3181999927301806 0.11399076732943185 0.4743738868089127 0.09343535313147466 0.009092120727466589 0.00759938448862879 0.01950371366604873 0.9638047811178558 0.7666799946687991 0.0835932293749167 0.08120751699320272 0.06851925896308143 </probabilities>
    </cpt>
    <cpt id="VENTLUNG">
      <state id="HIGH"/>
      <state id="LOW"/>
      <state id="NORMAL"/>
      <state id="ZERO"/>
      <parents>INTUBATIONKINKEDTUBEVENTTUBE</parents>
      <probabilities>0.02921688467470155 0.03485177357628377 0.8860655737704918 0.04986576797852288 0.009629232618585438 0.9575451569638954 0.02242507479398849 0.010400535623530736 0.8671686880803234 0.027106935003776266 0.022495446265938072 0.08322893064996224 0.20451819272291086 0.24396241503398639 0.20245901639344263 0.34906037584966015 0.016763786288763186 0.01999691926508085 0.016595001343724807 0.9466442931024311 0.20451819272291086 0.24396241503398639 0.20245901639344263 0.34906037584966015 0.007012972073351635 0.45758657094006944 0.01162945494655966 0.5237710020400193 0.008288800346963778 0.035065750176778675 0.010112696349271437 0.946532753126986 0.014638235011440312 0.6735986880148339 0.014624561861842248 0.29713851511188355 0.04869480779116925 0.058086289293806284 0.04820452771272444 0.8450143752023 0.022267860532554657 0.014585478939737237 0.030327868852459017 0.9328187916752491 0.02763759361120417 0.032967893923511675 0.02735932653965441 0.9120351859256298 0.11362121817939491 0.13553467501888133 0.11247723132969036 0.6383668754720334 0.9363449839187831 0.0367323190245814 0.012001175625367384 0.01492152143126813 0.09296281487405039 0.11089200683363018 0.09202682563338302 0.7041183526589364 0.20451819272291086 0.24396241503398639 0.20245901639344263 0.34906037584966015 0.07866084335496572 0.09383169808999477 0.0778688524590164 0.7496386060960231 0.20451819272291086 0.24396241503398639 0.20245901639344263 0.34906037584966015 0.010124663006084696 0.012077347278910217 0.010022723583833795 0.9677752661311713 0.009257711418565967 0.6909041516189705 0.008657802173072878 0.2911803347893907 0.024500443724949045 0.03521859548863381 0.014694122351059578 0.9255868384353576 0.09296281487405039 0.11089200683363018 0.09202682563338302 0.7041183526589364 0.04256115735523972 0.007392800455575345 0.018256333830104325 0.9317897083590806 0.06817273090763695 0.34798747167799543 0.06748633879781421 0.5163534586165534 </probabilities>
    </cpt>
    <cpt id="EXPCO2">
      <state id="HIGH"/>
      <state id="LOW"/>
      <state id="NORMAL"/>
      <state id="ZERO"/>
      <parents>ARTCO2VENTLUNG</parents>
      <probabilities>0.9684699483637695 0.012908606309169334 0.006921836231647296 0.011699609095413755 0.6947836250115339 0.13219327653553964 0.08202872697075018 0.09099437148217637 0.5591319027944377 0.19094584388466831 0.11848593895775023 0.1314363143631436 0.00941833902518242 0.005962995406634011 0.9646156136085713 0.020003051959612404 0.01732678357228537 0.9583915005426401 0.006093562574970013 0.018188153310104527 0.009469693965562995 0.012120388341459265 0.004597611672450336 0.9738123060205274 0.03822915278333111 0.13772268870229687 0.03949531298591675 0.7845528455284553 0.06738193611444311 0.03818916877693368 0.8681416322359946 0.02628726287262873 0.005519717246791123 0.009189906924930562 0.9789645639070574 0.006325811921220816 0.011133370709166963 0.9681665000068195 0.010992199170601059 0.009707930113412444 0.016830057274748966 0.02581442339452179 0.010255429600734957 0.9471000897299943 0.004325516583666106 0.9639351106918147 0.018639619758373402 0.013099752966145926 </probabilities>
    </cpt>
    <cpt id="MINVOL">
      <state id="HIGH"/>
      <state id="LOW"/>
      <state id="NORMAL"/>
      <state id="ZERO"/>
      <parents>INTUBATIONVENTLUNG</parents>
      <probabilities>0.16998914719826355 0.1514537042325927 0.4330696292911407 0.24548751927800308 0.007954922769046994 0.9652373464579256 0.012547350137251832 0.014260380635775616 0.8980688426383832 0.01859957771277454 0.018096270263824293 0.06523530938501793 0.00592002005168082 0.0052745071125778545 0.005131778134517337 0.983673694701224 0.970775257259525 0.008961825950021181 0.010038353864201134 0.010224562926252647 0.009961466469074557 0.42046099026800027 0.005818593867635288 0.5637589493952899 0.030510872574047304 0.5400045110161064 0.026448395000973967 0.40303622140887235 0.015713911479743076 0.45842451196861156 0.0050812187440294814 0.5207803578076159 0.06999553119928499 0.0623632899781264 0.06067572970811675 0.8069654491144719 0.0033900969526719227 0.9488893901129007 0.02003272764968087 0.0276877852847465 0.010854525900261307 0.008294492732206345 0.010559872982713667 0.9702911083848187 0.01993475928500617 0.015314915248651082 0.9349923804881518 0.029757944978190936 </probabilities>
    </cpt>
    <cpt id="VENTALV">
      <state id="HIGH"/>
      <state id="LOW"/>
      <state id="NORMAL"/>
      <state id="ZERO"/>
      <parents>INTUBATIONVENTLUNG</parents>
      <probabilities>0.14448506311761009 0.43918147026903526 0.17381618781059002 0.2425172788027646 0.0124972454908311 0.9702600256655444 0.003034197792204814 0.014208531051419834 0.017743779681110013 0.8960398296821623 0.021345847625861936 0.06487054301086584 0.01498206687474264 0.015294877074046004 0.006053300073005623 0.9636697559782057 0.008406450377290126 0.016555779423118255 0.9604816246448019 0.014556145554789741 0.013457572824996681 0.9540772942262634 0.017690428627013685 0.014774704321726204 0.8977280882518788 0.027545392099570434 0.03119777729933668 0.043528742349214174 0.02468667705331661 0.0052919718811982605 0.941954252781646 0.02806709828383918 0.05949384951901592 0.06319237011077922 0.07157137145141942 0.8057424089187855 0.008579474193228694 0.9660235620851376 0.014862431095937696 0.010534532625696163 0.010275022705436353 0.01013776449315406 0.01028957084352541 0.9692976419578841 0.002193916359703407 0.015345488702566695 0.9701013304005948 0.012359264537135255 </probabilities>
    </cpt>
    <cpt id="ARTCO2">
      <state id="HIGH"/>
      <state id="LOW"/>
      <state id="NORMAL"/>
      <parents>VENTALV</parents>
      <probabilities>0.02507204360431001 0.882720401270923 0.09220755512476692 0.976993662653892 0.01547425557279053 0.007532081773317468 0.04190100738335437 0.034814590201086286 0.9232844024155593 0.981358636821561 0.009958860479391998 0.00868250269904702 </probabilities>
    </cpt>
    <cpt id="CATECHOL">
      <state id="HIGH"/>
      <state id="NORMAL"/>
      <parents>ARTCO2TPR</parents>
      <probabilities>0.8925439169481271 0.10745608305187299 0.24771804259837688 0.7522819574016232 0.3188926901356913 0.6811073098643087 0.9910676168726446 0.008932383127355455 0.9931153896609213 0.00688461033907868 0.9849638425348816 0.015036157465118482 0.9925399828192562 0.007460017180743894 0.9128726766062313 0.08712732339376873 0.9573087784845433 0.04269122151545667 </probabilities>
    </cpt>
    <cpt id="HR">
      <state id="HIGH"/>
      <state id="LOW"/>
      <state id="NORMAL"/>
      <parents>CATECHOL</parents>
      <probabilities>0.9067781732045537 0.008756362649612773 0.08446546414583349 0.04557842523786073 0.04877283728461707 0.9056487374775222 </probabilities>
    </cpt>
    <cpt id="CO">
      <state id="HIGH"/>
      <state id="LOW"/>
      <state id="NORMAL"/>
      <parents>HRSTROKEVOLUME</parents>
      <probabilities>0.9706082394934699 0.016139522305158163 0.013252238201371959 0.13840847745676296 0.0973791195974541 0.764212402945783 0.6971741810790096 0.00973791195974541 0.2930879069612449 0.009880380322945088 0.7885304961476247 0.20158912352943015 0.029658959455020638 0.9494383827708831 0.02090265777409634 0.0031818040794658153 0.9715872594543475 0.02523093646618658 0.9506707167148585 0.011573154910057375 0.037756128375084165 0.009125833678467888 0.9514755463470849 0.03939861997444723 0.010745771243501323 0.04822803577687163 0.9410261929796271 </probabilities>
    </cpt>
    <cpt id="BP">
      <state id="HIGH"/>
      <state id="LOW"/>
      <state id="NORMAL"/>
      <parents>COTPR</parents>
      <probabilities>0.8968572683435413 0.011528169169471107 0.09161456248698756 0.09241459061332832 0.28975083566011794 0.6178345737265538 0.5484607831018303 0.04717055320421868 0.40436866369395097 0.007050960598663688 0.9136500630412583 0.07929897636007804 0.011806395969407937 0.9766018434635241 0.011591760567067975 0.006496368397173157 0.984852621136736 0.008651010466090943 0.7490793239079234 0.04904181076721437 0.20187886532486227 0.0069052705627371995 0.9819364029264054 0.011158326510857314 0.04778044342983372 0.09999746691079717 0.8522220896593692 </probabilities>
    </cpt>
    <cpt id="HRBP">
      <state id="HIGH"/>
      <state id="LOW"/>
      <state id="NORMAL"/>
      <parents>ERRLOWOUTPUTHR</parents>
      <probabilities>0.9812584630845035 0.009248061428730758 0.009493475486765737 0.00688650547692835 0.013279944588052156 0.9798335499350195 0.02493389914060265 0.3584273855774302 0.6166387152819672 0.1274760429014153 0.7967966752831294 0.07572728181545536 0.00901561699322371 0.9815227809279594 0.009461602078816914 0.32400400361819165 0.29611538225279405 0.3798806141290143 </probabilities>
    </cpt>
    <cpt id="HREKG">
      <state id="HIGH"/>
      <state id="LOW"/>
      <state id="NORMAL"/>
      <parents>ERRCAUTERHR</parents>
      <probabilities>0.9791693673125691 0.011212531772749761 0.009618100914681182 0.01185418684118654 0.007894510398381085 0.9802513027604324 0.338298510446866 0.3539094235032243 0.3077920660499098 0.5624669741934563 0.11258051156081747 0.3249525142457263 0.009438810585563335 0.9820939348693926 0.008467254545044111 0.2944599841524053 0.3662827326298755 0.33925728321771925 </probabilities>
    </cpt>
    <cpt id="HRSAT">
      <state id="HIGH"/>
      <state id="LOW"/>
      <state id="NORMAL"/>
      <parents>ERRCAUTERHR</parents>
      <probabilities>0.9789042274458057 0.00948898679196453 0.011606785762229703 0.011854246847194341 0.010294630698425528 0.9778511224543802 0.25573016168543933 0.37225162726411437 0.37201821105044636 0.49104197312234904 0.18395909798489027 0.3249989288927607 0.0138376742109332 0.9754951813576161 0.010667144431450625 0.3414401853940462 0.38641226424019104 0.27214755036576277 </probabilities>
    </cpt>
    <cpt id="PVSAT">
      <state id="HIGH"/>
      <state id="LOW"/>
      <state id="NORMAL"/>
      <parents>VENTALV</parents>
      <probabilities>0.9348478065276069 0.008561344640086236 0.05659084883230684 0.019499324933702687 0.9448717132172176 0.03562896184907969 0.013143152489937667 0.9552718094207515 0.03158503808931088 7.270741413679047E-5 0.9915450651337551 0.008382227452108206 </probabilities>
    </cpt>
    <cpt id="SAO2">
      <state id="HIGH"/>
      <state id="LOW"/>
      <state id="NORMAL"/>
      <parents>PVSAT</parents>
      <probabilities>0.8510678584504119 0.11243315746997755 0.03649898407961055 0.009748452462713999 0.9811219604721988 0.009129587065087283 0.015695291412576227 0.1498587923622913 0.8344459162251324 </probabilities>
    </cpt>
    <cpt id="PCWP">
      <state id="HIGH"/>
      <state id="LOW"/>
      <state id="NORMAL"/>
      <probabilities>0.21211818318131834 0.11563265673367376 0.6722491600850078 </probabilities>
    </cpt>
    <cpt id="LVEDVOLUME">
      <state id="HIGH"/>
      <state id="LOW"/>
      <state id="NORMAL"/>
      <parents>PCWP</parents>
      <probabilities>0.9621326979202518 0.004966503454521816 0.03290079862522637 0.020386630124952152 0.7258582787857943 0.25375509108925354 0.013324567685456444 0.004095745254118931 0.9825796870604246 </probabilities>
    </cpt>
    <cpt id="CVP">
      <state id="HIGH"/>
      <state id="LOW"/>
      <state id="NORMAL"/>
      <parents>LVEDVOLUME</parents>
      <probabilities>0.7103803691916544 0.007215599698569094 0.28240403110977647 0.00976117858612837 0.9448883196247041 0.04535050178916745 0.008977202119811624 0.0418242480203866 0.9491985498598018 </probabilities>
    </cpt>
    <cpt id="LVFAILURE">
      <state id="FALSE"/>
      <state id="TRUE"/>
      <parents>HISTORYLVEDVOLUME</parents>
      <probabilities>0.9992849495751495 7.150504248505516E-4 0.8969451007757632 0.10305489922423679 0.8654805762011439 0.13451942379885606 0.01822892564344274 0.9817710743565572 0.9999239189633987 7.608103660126132E-5 0.9248320403946422 0.07516795960535784 </probabilities>
    </cpt>
    <cpt id="STROKEVOLUME">
      <state id="HIGH"/>
      <state id="LOW"/>
      <state id="NORMAL"/>
      <parents>LVEDVOLUMELVFAILURE</parents>
      <probabilities>0.019284878725885253 0.4048254636474826 0.5758896576266321 0.02690625037552673 0.08334839701542222 0.8897453526090511 0.05017518574459244 0.05836767488272037 0.8914571393726872 0.10406877936619015 0.7178446466060182 0.17808657402779166 0.01330682427924684 0.9542637208837349 0.032429454837018284 0.07433484240442154 0.7984604618614416 0.1272046957341369 </probabilities>
    </cpt>
    <cpt id="CO">
      <state id="HIGH"/>
      <state id="LOW"/>
      <state id="NORMAL"/>
      <parents>HRSTROKEVOLUME</parents>
      <probabilities>0.9706082394934699 0.016139522305158163 0.013252238201371959 0.13840847745676296 0.0973791195974541 0.764212402945783 0.6971741810790096 0.00973791195974541 0.2930879069612449 0.009880380322945088 0.7885304961476247 0.20158912352943015 0.029658959455020638 0.9494383827708831 0.02090265777409634 0.0031818040794658153 0.9715872594543475 0.02523093646618658 0.9506707167148585 0.011573154910057375 0.037756128375084165 0.009125833678467888 0.9514755463470849 0.03939861997444723 0.010745771243501323 0.04822803577687163 0.9410261929796271 </probabilities>
    </cpt>
    <cpt id="BP">
      <state id="HIGH"/>
      <state id="LOW"/>
      <state id="NORMAL"/>
      <parents>COTPR</parents>
      <probabilities>0.8968572683435413 0.011528169169471107 0.09161456248698756 0.09241459061332832 0.28975083566011794 0.6178345737265538 0.5484607831018303 0.04717055320421868 0.40436866369395097 0.007050960598663688 0.9136500630412583 0.07929897636007804 0.011806395969407937 0.9766018434635241 0.011591760567067975 0.006496368397173157 0.984852621136736 0.008651010466090943 0.7490793239079234 0.04904181076721437 0.20187886532486227 0.0069052705627371995 0.9819364029264054 0.011158326510857314 0.04778044342983372 0.09999746691079717 0.8522220896593692 </probabilities>
    </cpt>
    <cpt id="TPR">
      <state id="HIGH"/>
      <state id="LOW"/>
      <state id="NORMAL"/>
      <probabilities>0.2921061843814382 0.31200319967996804 0.39589061593859376 </probabilities>
    </cpt>
    <cpt id="ANAPHYLAXIS">
      <state id="FALSE"/>
      <state id="TRUE"/>
      <parents>TPR</parents>
      <probabilities>0.9998272886055808 1.7271139441914866E-4 0.9703652894280986 0.029634710571901316 0.9993675674661809 6.324325338189526E-4 </probabilities>
    </cpt>
    <cpt id="BP">
      <state id="HIGH"/>
      <state id="LOW"/>
      <state id="NORMAL"/>
      <parents>COTPR</parents>
      <probabilities>0.8968572683435413 0.011528169169471107 0.09161456248698756 0.09241459061332832 0.28975083566011794 0.6178345737265538 0.5484607831018303 0.04717055320421868 0.40436866369395097 0.007050960598663688 0.9136500630412583 0.07929897636007804 0.011806395969407937 0.9766018434635241 0.011591760567067975 0.006496368397173157 0.984852621136736 0.008651010466090943 0.7490793239079234 0.04904181076721437 0.20187886532486227 0.0069052705627371995 0.9819364029264054 0.011158326510857314 0.04778044342983372 0.09999746691079717 0.8522220896593692 </probabilities>
    </cpt>
    <cpt id="CATECHOL">
      <state id="HIGH"/>
      <state id="NORMAL"/>
      <parents>ARTCO2TPR</parents>
      <probabilities>0.8925439169481271 0.10745608305187299 0.24771804259837688 0.7522819574016232 0.3188926901356913 0.6811073098643087 0.9910676168726446 0.008932383127355455 0.9931153896609213 0.00688461033907868 0.9849638425348816 0.015036157465118482 0.9925399828192562 0.007460017180743894 0.9128726766062313 0.08712732339376873 0.9573087784845433 0.04269122151545667 </probabilities>
    </cpt>
    <cpt id="HR">
      <state id="HIGH"/>
      <state id="LOW"/>
      <state id="NORMAL"/>
      <parents>CATECHOL</parents>
      <probabilities>0.9067781732045537 0.008756362649612773 0.08446546414583349 0.04557842523786073 0.04877283728461707 0.9056487374775222 </probabilities>
    </cpt>
    <cpt id="CO">
      <state id="HIGH"/>
      <state id="LOW"/>
      <state id="NORMAL"/>
      <parents>HRSTROKEVOLUME</parents>
      <probabilities>0.9706082394934699 0.016139522305158163 0.013252238201371959 0.13840847745676296 0.0973791195974541 0.764212402945783 0.6971741810790096 0.00973791195974541 0.2930879069612449 0.009880380322945088 0.7885304961476247 0.20158912352943015 0.029658959455020638 0.9494383827708831 0.02090265777409634 0.0031818040794658153 0.9715872594543475 0.02523093646618658 0.9506707167148585 0.011573154910057375 0.037756128375084165 0.009125833678467888 0.9514755463470849 0.03939861997444723 0.010745771243501323 0.04822803577687163 0.9410261929796271 </probabilities>
    </cpt>
    <cpt id="HRBP">
      <state id="HIGH"/>
      <state id="LOW"/>
      <state id="NORMAL"/>
      <parents>ERRLOWOUTPUTHR</parents>
      <probabilities>0.9812584630845035 0.009248061428730758 0.009493475486765737 0.00688650547692835 0.013279944588052156 0.9798335499350195 0.02493389914060265 0.3584273855774302 0.6166387152819672 0.1274760429014153 0.7967966752831294 0.07572728181545536 0.00901561699322371 0.9815227809279594 0.009461602078816914 0.32400400361819165 0.29611538225279405 0.3798806141290143 </probabilities>
    </cpt>
    <cpt id="HREKG">
      <state id="HIGH"/>
      <state id="LOW"/>
      <state id="NORMAL"/>
      <parents>ERRCAUTERHR</parents>
      <probabilities>0.9791693673125691 0.011212531772749761 0.009618100914681182 0.01185418684118654 0.007894510398381085 0.9802513027604324 0.338298510446866 0.3539094235032243 0.3077920660499098 0.5624669741934563 0.11258051156081747 0.3249525142457263 0.009438810585563335 0.9820939348693926 0.008467254545044111 0.2944599841524053 0.3662827326298755 0.33925728321771925 </probabilities>
    </cpt>
    <cpt id="HRSAT">
      <state id="HIGH"/>
      <state id="LOW"/>
      <state id="NORMAL"/>
      <parents>ERRCAUTERHR</parents>
      <probabilities>0.9789042274458057 0.00948898679196453 0.011606785762229703 0.011854246847194341 0.010294630698425528 0.9778511224543802 0.25573016168543933 0.37225162726411437 0.37201821105044636 0.49104197312234904 0.18395909798489027 0.3249989288927607 0.0138376742109332 0.9754951813576161 0.010667144431450625 0.3414401853940462 0.38641226424019104 0.27214755036576277 </probabilities>
    </cpt>
    <cpt id="VENTMACH">
      <state id="HIGH"/>
      <state id="LOW"/>
      <state id="NORMAL"/>
      <state id="ZERO"/>
      <probabilities>0.050239954005900755 0.05593881417690358 0.8463807178952962 0.047440513921899366 </probabilities>
    </cpt>
    <cpt id="MINVOLSET">
      <state id="HIGH"/>
      <state id="LOW"/>
      <state id="NORMAL"/>
      <parents>VENTMACH</parents>
      <probabilities>0.8343713155894501 0.012947306284305184 0.15268137812624466 0.006280112401217247 0.8298136227580923 0.1639062648406904 8.885252222845015E-4 6.525856108763213E-4 0.9984588891668392 0.06832593079219092 0.06833076127581894 0.8633433079319902 </probabilities>
    </cpt>
    <cpt id="VENTTUBE">
      <state id="HIGH"/>
      <state id="LOW"/>
      <state id="NORMAL"/>
      <state id="ZERO"/>
      <parents>DISCONNECTVENTMACH</parents>
      <probabilities>0.9585278456923242 0.01501945669819504 0.012036387630740055 0.014416309978740743 0.010636149580571812 0.03780608968533799 0.9395282291123953 0.012029531621694756 0.003007860895050847 0.00959882057029405 0.008880093282883892 0.9785132252517712 0.009318396535191233 0.03312214937034036 0.008967209576346452 0.948592244518122 0.010444085547867661 0.972601142746001 0.009259524242046565 0.007695247464084824 0.008797766691102635 0.01153875095198624 0.005267851947473495 0.9743956304094377 0.010815984239518052 0.01164014680866005 0.008379085641728972 0.9691647833100929 0.008702304202286027 0.014403329577260005 0.008374336215926852 0.9685200300045271 </probabilities>
    </cpt>
    <cpt id="PRESS">
      <state id="HIGH"/>
      <state id="LOW"/>
      <state id="NORMAL"/>
      <state id="ZERO"/>
      <parents>INTUBATIONKINKEDTUBEVENTTUBE</parents>
      <probabilities>0.7285771405723426 0.03582566973210716 0.20623179299708688 0.029365396698463473 0.008004482305263594 0.9127576290721706 0.0738720520329755 0.005365836589590418 0.9222266648895996 0.027864409791638897 0.027069172331067568 0.022839752987693807 0.3000399840063975 0.2507796881247501 0.24362255097960817 0.20555777688924431 0.09016721180380306 0.6435065318135041 0.01996906155570559 0.24635719482698723 0.3000399840063975 0.2507796881247501 0.24362255097960817 0.20555777688924431 0.8990723896056427 0.012190019583813808 0.06779144490695602 0.02094614590358752 0.3861856762654932 0.29173982349582783 0.3119606259222153 0.010113874316463638 0.9475434261886216 0.017601458752488384 0.01224184960809833 0.0226132654507918 0.5476285676205709 0.05970944955351194 0.2484815597570496 0.1441804230688677 0.47979838367683225 0.24899777462752268 0.20448103586848088 0.06672280582716408 0.040545943784648306 0.03388914704388515 0.0329219663485957 0.8926429428228709 0.16668888000355414 0.1393220489581945 0.13534586165533788 0.5586432093829135 0.9462159359363825 0.0049956113172260974 0.020789293844215302 0.02799915890217618 0.13638181091199886 0.4776271309657955 0.11073752317254916 0.2752535349496565 0.3000399840063975 0.2507796881247501 0.24362255097960817 0.20555777688924431 0.11539999384861441 0.09645372620182696 0.09370098114600314 0.6944452988035554 0.3000399840063975 0.2507796881247501 0.24362255097960817 0.20555777688924431 0.034655444752791954 0.03221681624379951 0.012060522325723176 0.9210672166776854 0.9673232467681385 0.011714084882310877 0.008719221950133704 0.012243446399416958 0.10487902400015604 0.8256287728810914 0.04496640368242947 0.02452579943632303 0.3181999927301806 0.11399076732943185 0.4743738868089127 0.09343535313147466 0.009092120727466589 0.00759938448862879 0.01950371366604873 0.9638047811178558 0.7666799946687991 0.0835932293749167 0.08120751699320272 0.06851925896308143 </probabilities>
    </cpt>
    <cpt id="VENTLUNG">
      <state id="HIGH"/>
      <state id="LOW"/>
      <state id="NORMAL"/>
      <state id="ZERO"/>
      <parents>INTUBATIONKINKEDTUBEVENTTUBE</parents>
      <probabilities>0.02921688467470155 0.03485177357628377 0.8860655737704918 0.04986576797852288 0.009629232618585438 0.9575451569638954 0.02242507479398849 0.010400535623530736 0.8671686880803234 0.027106935003776266 0.022495446265938072 0.08322893064996224 0.20451819272291086 0.24396241503398639 0.20245901639344263 0.34906037584966015 0.016763786288763186 0.01999691926508085 0.016595001343724807 0.9466442931024311 0.20451819272291086 0.24396241503398639 0.20245901639344263 0.34906037584966015 0.007012972073351635 0.45758657094006944 0.01162945494655966 0.5237710020400193 0.008288800346963778 0.035065750176778675 0.010112696349271437 0.946532753126986 0.014638235011440312 0.6735986880148339 0.014624561861842248 0.29713851511188355 0.04869480779116925 0.058086289293806284 0.04820452771272444 0.8450143752023 0.022267860532554657 0.014585478939737237 0.030327868852459017 0.9328187916752491 0.02763759361120417 0.032967893923511675 0.02735932653965441 0.9120351859256298 0.11362121817939491 0.13553467501888133 0.11247723132969036 0.6383668754720334 0.9363449839187831 0.0367323190245814 0.012001175625367384 0.01492152143126813 0.09296281487405039 0.11089200683363018 0.09202682563338302 0.7041183526589364 0.20451819272291086 0.24396241503398639 0.20245901639344263 0.34906037584966015 0.07866084335496572 0.09383169808999477 0.0778688524590164 0.7496386060960231 0.20451819272291086 0.24396241503398639 0.20245901639344263 0.34906037584966015 0.010124663006084696 0.012077347278910217 0.010022723583833795 0.9677752661311713 0.009257711418565967 0.6909041516189705 0.008657802173072878 0.2911803347893907 0.024500443724949045 0.03521859548863381 0.014694122351059578 0.9255868384353576 0.09296281487405039 0.11089200683363018 0.09202682563338302 0.7041183526589364 0.04256115735523972 0.007392800455575345 0.018256333830104325 0.9317897083590806 0.06817273090763695 0.34798747167799543 0.06748633879781421 0.5163534586165534 </probabilities>
    </cpt>
    <cpt id="EXPCO2">
      <state id="HIGH"/>
      <state id="LOW"/>
      <state id="NORMAL"/>
      <state id="ZERO"/>
      <parents>ARTCO2VENTLUNG</parents>
      <probabilities>0.9684699483637695 0.012908606309169334 0.006921836231647296 0.011699609095413755 0.6947836250115339 0.13219327653553964 0.08202872697075018 0.09099437148217637 0.5591319027944377 0.19094584388466831 0.11848593895775023 0.1314363143631436 0.00941833902518242 0.005962995406634011 0.9646156136085713 0.020003051959612404 0.01732678357228537 0.9583915005426401 0.006093562574970013 0.018188153310104527 0.009469693965562995 0.012120388341459265 0.004597611672450336 0.9738123060205274 0.03822915278333111 0.13772268870229687 0.03949531298591675 0.7845528455284553 0.06738193611444311 0.03818916877693368 0.8681416322359946 0.02628726287262873 0.005519717246791123 0.009189906924930562 0.9789645639070574 0.006325811921220816 0.011133370709166963 0.9681665000068195 0.010992199170601059 0.009707930113412444 0.016830057274748966 0.02581442339452179 0.010255429600734957 0.9471000897299943 0.004325516583666106 0.9639351106918147 0.018639619758373402 0.013099752966145926 </probabilities>
    </cpt>
    <cpt id="MINVOL">
      <state id="HIGH"/>
      <state id="LOW"/>
      <state id="NORMAL"/>
      <state id="ZERO"/>
      <parents>INTUBATIONVENTLUNG</parents>
      <probabilities>0.16998914719826355 0.1514537042325927 0.4330696292911407 0.24548751927800308 0.007954922769046994 0.9652373464579256 0.012547350137251832 0.014260380635775616 0.8980688426383832 0.01859957771277454 0.018096270263824293 0.06523530938501793 0.00592002005168082 0.0052745071125778545 0.005131778134517337 0.983673694701224 0.970775257259525 0.008961825950021181 0.010038353864201134 0.010224562926252647 0.009961466469074557 0.42046099026800027 0.005818593867635288 0.5637589493952899 0.030510872574047304 0.5400045110161064 0.026448395000973967 0.40303622140887235 0.015713911479743076 0.45842451196861156 0.0050812187440294814 0.5207803578076159 0.06999553119928499 0.0623632899781264 0.06067572970811675 0.8069654491144719 0.0033900969526719227 0.9488893901129007 0.02003272764968087 0.0276877852847465 0.010854525900261307 0.008294492732206345 0.010559872982713667 0.9702911083848187 0.01993475928500617 0.015314915248651082 0.9349923804881518 0.029757944978190936 </probabilities>
    </cpt>
    <cpt id="VENTALV">
      <state id="HIGH"/>
      <state id="LOW"/>
      <state id="NORMAL"/>
      <state id="ZERO"/>
      <parents>INTUBATIONVENTLUNG</parents>
      <probabilities>0.14448506311761009 0.43918147026903526 0.17381618781059002 0.2425172788027646 0.0124972454908311 0.9702600256655444 0.003034197792204814 0.014208531051419834 0.017743779681110013 0.8960398296821623 0.021345847625861936 0.06487054301086584 0.01498206687474264 0.015294877074046004 0.006053300073005623 0.9636697559782057 0.008406450377290126 0.016555779423118255 0.9604816246448019 0.014556145554789741 0.013457572824996681 0.9540772942262634 0.017690428627013685 0.014774704321726204 0.8977280882518788 0.027545392099570434 0.03119777729933668 0.043528742349214174 0.02468667705331661 0.0052919718811982605 0.941954252781646 0.02806709828383918 0.05949384951901592 0.06319237011077922 0.07157137145141942 0.8057424089187855 0.008579474193228694 0.9660235620851376 0.014862431095937696 0.010534532625696163 0.010275022705436353 0.01013776449315406 0.01028957084352541 0.9692976419578841 0.002193916359703407 0.015345488702566695 0.9701013304005948 0.012359264537135255 </probabilities>
    </cpt>
    <cpt id="ARTCO2">
      <state id="HIGH"/>
      <state id="LOW"/>
      <state id="NORMAL"/>
      <parents>VENTALV</parents>
      <probabilities>0.02507204360431001 0.882720401270923 0.09220755512476692 0.976993662653892 0.01547425557279053 0.007532081773317468 0.04190100738335437 0.034814590201086286 0.9232844024155593 0.981358636821561 0.009958860479391998 0.00868250269904702 </probabilities>
    </cpt>
    <cpt id="CATECHOL">
      <state id="HIGH"/>
      <state id="NORMAL"/>
      <parents>ARTCO2TPR</parents>
      <probabilities>0.8925439169481271 0.10745608305187299 0.24771804259837688 0.7522819574016232 0.3188926901356913 0.6811073098643087 0.9910676168726446 0.008932383127355455 0.9931153896609213 0.00688461033907868 0.9849638425348816 0.015036157465118482 0.9925399828192562 0.007460017180743894 0.9128726766062313 0.08712732339376873 0.9573087784845433 0.04269122151545667 </probabilities>
    </cpt>
    <cpt id="HR">
      <state id="HIGH"/>
      <state id="LOW"/>
      <state id="NORMAL"/>
      <parents>CATECHOL</parents>
      <probabilities>0.9067781732045537 0.008756362649612773 0.08446546414583349 0.04557842523786073 0.04877283728461707 0.9056487374775222 </probabilities>
    </cpt>
    <cpt id="CO">
      <state id="HIGH"/>
      <state id="LOW"/>
      <state id="NORMAL"/>
      <parents>HRSTROKEVOLUME</parents>
      <probabilities>0.9706082394934699 0.016139522305158163 0.013252238201371959 0.13840847745676296 0.0973791195974541 0.764212402945783 0.6971741810790096 0.00973791195974541 0.2930879069612449 0.009880380322945088 0.7885304961476247 0.20158912352943015 0.029658959455020638 0.9494383827708831 0.02090265777409634 0.0031818040794658153 0.9715872594543475 0.02523093646618658 0.9506707167148585 0.011573154910057375 0.037756128375084165 0.009125833678467888 0.9514755463470849 0.03939861997444723 0.010745771243501323 0.04822803577687163 0.9410261929796271 </probabilities>
    </cpt>
    <cpt id="BP">
      <state id="HIGH"/>
      <state id="LOW"/>
      <state id="NORMAL"/>
      <parents>COTPR</parents>
      <probabilities>0.8968572683435413 0.011528169169471107 0.09161456248698756 0.09241459061332832 0.28975083566011794 0.6178345737265538 0.5484607831018303 0.04717055320421868 0.40436866369395097 0.007050960598663688 0.9136500630412583 0.07929897636007804 0.011806395969407937 0.9766018434635241 0.011591760567067975 0.006496368397173157 0.984852621136736 0.008651010466090943 0.7490793239079234 0.04904181076721437 0.20187886532486227 0.0069052705627371995 0.9819364029264054 0.011158326510857314 0.04778044342983372 0.09999746691079717 0.8522220896593692 </probabilities>
    </cpt>
    <cpt id="HRBP">
      <state id="HIGH"/>
      <state id="LOW"/>
      <state id="NORMAL"/>
      <parents>ERRLOWOUTPUTHR</parents>
      <probabilities>0.9812584630845035 0.009248061428730758 0.009493475486765737 0.00688650547692835 0.013279944588052156 0.9798335499350195 0.02493389914060265 0.3584273855774302 0.6166387152819672 0.1274760429014153 0.7967966752831294 0.07572728181545536 0.00901561699322371 0.9815227809279594 0.009461602078816914 0.32400400361819165 0.29611538225279405 0.3798806141290143 </probabilities>
    </cpt>
    <cpt id="HREKG">
      <state id="HIGH"/>
      <state id="LOW"/>
      <state id="NORMAL"/>
      <parents>ERRCAUTERHR</parents>
      <probabilities>0.9791693673125691 0.011212531772749761 0.009618100914681182 0.01185418684118654 0.007894510398381085 0.9802513027604324 0.338298510446866 0.3539094235032243 0.3077920660499098 0.5624669741934563 0.11258051156081747 0.3249525142457263 0.009438810585563335 0.9820939348693926 0.008467254545044111 0.2944599841524053 0.3662827326298755 0.33925728321771925 </probabilities>
    </cpt>
    <cpt id="HRSAT">
      <state id="HIGH"/>
      <state id="LOW"/>
      <state id="NORMAL"/>
      <parents>ERRCAUTERHR</parents>
      <probabilities>0.9789042274458057 0.00948898679196453 0.011606785762229703 0.011854246847194341 0.010294630698425528 0.9778511224543802 0.25573016168543933 0.37225162726411437 0.37201821105044636 0.49104197312234904 0.18395909798489027 0.3249989288927607 0.0138376742109332 0.9754951813576161 0.010667144431450625 0.3414401853940462 0.38641226424019104 0.27214755036576277 </probabilities>
    </cpt>
    <cpt id="PVSAT">
      <state id="HIGH"/>
      <state id="LOW"/>
      <state id="NORMAL"/>
      <parents>VENTALV</parents>
      <probabilities>0.9348478065276069 0.008561344640086236 0.05659084883230684 0.019499324933702687 0.9448717132172176 0.03562896184907969 0.013143152489937667 0.9552718094207515 0.03158503808931088 7.270741413679047E-5 0.9915450651337551 0.008382227452108206 </probabilities>
    </cpt>
    <cpt id="SAO2">
      <state id="HIGH"/>
      <state id="LOW"/>
      <state id="NORMAL"/>
      <parents>PVSAT</parents>
      <probabilities>0.8510678584504119 0.11243315746997755 0.03649898407961055 0.009748452462713999 0.9811219604721988 0.009129587065087283 0.015695291412576227 0.1498587923622913 0.8344459162251324 </probabilities>
    </cpt>
    <cpt id="LV_1">
      <state id="0"/>
      <state id="1"/>
      <probabilities>0.02661963304394372 0.3921981427161512 0.5811822242399051 </probabilities>
    </cpt>
    <cpt id="PAP">
      <state id="HIGH"/>
      <state id="LOW"/>
      <state id="NORMAL"/>
      <parents>LV_1</parents>
      <probabilities>0.8142230644764475 0.011448548794886828 0.17432838672866552 0.04600878956285628 0.06974638767555483 0.8842448227615889 0.03301628047903221 0.03504155816035902 0.9319421613606088 </probabilities>
    </cpt>
    <cpt id="PULMEMBOLUS">
      <state id="FALSE"/>
      <state id="TRUE"/>
      <parents>LV_1</parents>
      <probabilities>0.6123353665410821 0.387664633458918 0.9989935011716004 0.0010064988283996939 0.9993096465220075 6.903534779925106E-4 </probabilities>
    </cpt>
    <cpt id="SHUNT">
      <state id="HIGH"/>
      <state id="NORMAL"/>
      <parents>INTUBATIONPULMEMBOLUS</parents>
      <probabilities>0.040184658720429825 0.9598153412795701 0.05272421410391112 0.947275785896089 0.9302678746500942 0.06973212534990578 0.7895754182496835 0.2104245817503166 0.8612247699713789 0.13877523002862113 0.6460162512951956 0.3539837487048045 </probabilities>
    </cpt>
  </nodes>
  <extensions>
    <genie app="GeNIe 2.3.3705.0 ACADEMIC" faultnameformat="nodestate" name="DAG" version="1.0">
      <node id="ANAPHYLAXIS">
        <name>ANAPHYLAXIS</name>
        <interior color="e5f6f7"/>
        <outline color="000080"/>
        <font bold="true" color="000080" name="Arial" size="10"/>
        <position>100 100 100 100</position>
        <barchart active="true" height="110" width="160"/>
      </node>
      <node id="ARTCO2">
        <name>ARTCO2</name>
        <interior color="e5f6f7"/>
        <outline color="000080"/>
        <font bold="true" color="000080" name="Arial" size="10"/>
        <position>100 100 100 100</position>
        <barchart active="true" height="110" width="160"/>
      </node>
      <node id="BP">
        <name>BP</name>
        <interior color="e5f6f7"/>
        <outline color="000080"/>
        <font bold="true" color="000080" name="Arial" size="10"/>
        <position>100 100 100 100</position>
        <barchart active="true" height="110" width="160"/>
      </node>
      <node id="CATECHOL">
        <name>CATECHOL</name>
        <interior color="e5f6f7"/>
        <outline color="000080"/>
        <font bold="true" color="000080" name="Arial" size="10"/>
        <position>100 100 100 100</position>
        <barchart active="true" height="110" width="160"/>
      </node>
      <node id="CO">
        <name>CO</name>
        <interior color="e5f6f7"/>
        <outline color="000080"/>
        <font bold="true" color="000080" name="Arial" size="10"/>
        <position>100 100 100 100</position>
        <barchart active="true" height="110" width="160"/>
      </node>
      <node id="CVP">
        <name>CVP</name>
        <interior color="e5f6f7"/>
        <outline color="000080"/>
        <font bold="true" color="000080" name="Arial" size="10"/>
        <position>100 100 100 100</position>
        <barchart active="true" height="110" width="160"/>
      </node>
      <node id="DISCONNECT">
        <name>DISCONNECT</name>
        <interior color="e5f6f7"/>
        <outline color="000080"/>
        <font bold="true" color="000080" name="Arial" size="10"/>
        <position>100 100 100 100</position>
        <barchart active="true" height="110" width="160"/>
      </node>
      <node id="ERRCAUTER">
        <name>ERRCAUTER</name>
        <interior color="e5f6f7"/>
        <outline color="000080"/>
        <font bold="true" color="000080" name="Arial" size="10"/>
        <position>100 100 100 100</position>
        <barchart active="true" height="110" width="160"/>
      </node>
      <node id="ERRLOWOUTPUT">
        <name>ERRLOWOUTPUT</name>
        <interior color="e5f6f7"/>
        <outline color="000080"/>
        <font bold="true" color="000080" name="Arial" size="10"/>
        <position>100 100 100 100</position>
        <barchart active="true" height="110" width="160"/>
      </node>
      <node id="EXPCO2">
        <name>EXPCO2</name>
        <interior color="e5f6f7"/>
        <outline color="000080"/>
        <font bold="true" color="000080" name="Arial" size="10"/>
        <position>100 100 100 100</position>
        <barchart active="true" height="110" width="160"/>
      </node>
      <node id="FIO2">
        <name>FIO2</name>
        <interior color="e5f6f7"/>
        <outline color="000080"/>
        <font bold="true" color="000080" name="Arial" size="10"/>
        <position>100 100 100 100</position>
        <barchart active="true" height="110" width="160"/>
      </node>
      <node id="HISTORY">
        <name>HISTORY</name>
        <interior color="e5f6f7"/>
        <outline color="000080"/>
        <font bold="true" color="000080" name="Arial" size="10"/>
        <position>100 100 100 100</position>
        <barchart active="true" height="110" width="160"/>
      </node>
      <node id="HR">
        <name>HR</name>
        <interior color="e5f6f7"/>
        <outline color="000080"/>
        <font bold="true" color="000080" name="Arial" size="10"/>
        <position>100 100 100 100</position>
        <barchart active="true" height="110" width="160"/>
      </node>
      <node id="HRBP">
        <name>HRBP</name>
        <interior color="e5f6f7"/>
        <outline color="000080"/>
        <font bold="true" color="000080" name="Arial" size="10"/>
        <position>100 100 100 100</position>
        <barchart active="true" height="110" width="160"/>
      </node>
      <node id="HREKG">
        <name>HREKG</name>
        <interior color="e5f6f7"/>
        <outline color="000080"/>
        <font bold="true" color="000080" name="Arial" size="10"/>
        <position>100 100 100 100</position>
        <barchart active="true" height="110" width="160"/>
      </node>
      <node id="HRSAT">
        <name>HRSAT</name>
        <interior color="e5f6f7"/>
        <outline color="000080"/>
        <font bold="true" color="000080" name="Arial" size="10"/>
        <position>100 100 100 100</position>
        <barchart active="true" height="110" width="160"/>
      </node>
      <node id="INSUFFANESTH">
        <name>INSUFFANESTH</name>
        <interior color="e5f6f7"/>
        <outline color="000080"/>
        <font bold="true" color="000080" name="Arial" size="10"/>
        <position>100 100 100 100</position>
        <barchart active="true" height="110" width="160"/>
      </node>
      <node id="INTUBATION">
        <name>INTUBATION</name>
        <interior color="e5f6f7"/>
        <outline color="000080"/>
        <font bold="true" color="000080" name="Arial" size="10"/>
        <position>100 100 100 100</position>
        <barchart active="true" height="110" width="160"/>
      </node>
      <node id="KINKEDTUBE">
        <name>KINKEDTUBE</name>
        <interior color="e5f6f7"/>
        <outline color="000080"/>
        <font bold="true" color="000080" name="Arial" size="10"/>
        <position>100 100 100 100</position>
        <barchart active="true" height="110" width="160"/>
      </node>
      <node id="LVEDVOLUME">
        <name>LVEDVOLUME</name>
        <interior color="e5f6f7"/>
        <outline color="000080"/>
        <font bold="true" color="000080" name="Arial" size="10"/>
        <position>100 100 100 100</position>
        <barchart active="true" height="110" width="160"/>
      </node>
      <node id="LVFAILURE">
        <name>LVFAILURE</name>
        <interior color="e5f6f7"/>
        <outline color="000080"/>
        <font bold="true" color="000080" name="Arial" size="10"/>
        <position>100 100 100 100</position>
        <barchart active="true" height="110" width="160"/>
      </node>
      <node id="MINVOL">
        <name>MINVOL</name>
        <interior color="e5f6f7"/>
        <outline color="000080"/>
        <font bold="true" color="000080" name="Arial" size="10"/>
        <position>100 100 100 100</position>
        <barchart active="true" height="110" width="160"/>
      </node>
      <node id="MINVOLSET">
        <name>MINVOLSET</name>
        <interior color="e5f6f7"/>
        <outline color="000080"/>
        <font bold="true" color="000080" name="Arial" size="10"/>
        <position>100 100 100 100</position>
        <barchart active="true" height="110" width="160"/>
      </node>
      <node id="PAP">
        <name>PAP</name>
        <interior color="e5f6f7"/>
        <outline color="000080"/>
        <font bold="true" color="000080" name="Arial" size="10"/>
        <position>100 100 100 100</position>
        <barchart active="true" height="110" width="160"/>
      </node>
      <node id="PCWP">
        <name>PCWP</name>
        <interior color="e5f6f7"/>
        <outline color="000080"/>
        <font bold="true" color="000080" name="Arial" size="10"/>
        <position>100 100 100 100</position>
        <barchart active="true" height="110" width="160"/>
      </node>
      <node id="PRESS">
        <name>PRESS</name>
        <interior color="e5f6f7"/>
        <outline color="000080"/>
        <font bold="true" color="000080" name="Arial" size="10"/>
        <position>100 100 100 100</position>
        <barchart active="true" height="110" width="160"/>
      </node>
      <node id="PULMEMBOLUS">
        <name>PULMEMBOLUS</name>
        <interior color="e5f6f7"/>
        <outline color="000080"/>
        <font bold="true" color="000080" name="Arial" size="10"/>
        <position>100 100 100 100</position>
        <barchart active="true" height="110" width="160"/>
      </node>
      <node id="PVSAT">
        <name>PVSAT</name>
        <interior color="e5f6f7"/>
        <outline color="000080"/>
        <font bold="true" color="000080" name="Arial" size="10"/>
        <position>100 100 100 100</position>
        <barchart active="true" height="110" width="160"/>
      </node>
      <node id="SAO2">
        <name>SAO2</name>
        <interior color="e5f6f7"/>
        <outline color="000080"/>
        <font bold="true" color="000080" name="Arial" size="10"/>
        <position>100 100 100 100</position>
        <barchart active="true" height="110" width="160"/>
      </node>
      <node id="SHUNT">
        <name>SHUNT</name>
        <interior color="e5f6f7"/>
        <outline color="000080"/>
        <font bold="true" color="000080" name="Arial" size="10"/>
        <position>100 100 100 100</position>
        <barchart active="true" height="110" width="160"/>
      </node>
      <node id="STROKEVOLUME">
        <name>STROKEVOLUME</name>
        <interior color="e5f6f7"/>
        <outline color="000080"/>
        <font bold="true" color="000080" name="Arial" size="10"/>
        <position>100 100 100 100</position>
        <barchart active="true" height="110" width="160"/>
      </node>
      <node id="TPR">
        <name>TPR</name>
        <interior color="e5f6f7"/>
        <outline color="000080"/>
        <font bold="true" color="000080" name="Arial" size="10"/>
        <position>100 100 100 100</position>
        <barchart active="true" height="110" width="160"/>
      </node>
      <node id="VENTALV">
        <name>VENTALV</name>
        <interior color="e5f6f7"/>
        <outline color="000080"/>
        <font bold="true" color="000080" name="Arial" size="10"/>
        <position>100 100 100 100</position>
        <barchart active="true" height="110" width="160"/>
      </node>
      <node id="VENTLUNG">
        <name>VENTLUNG</name>
        <interior color="e5f6f7"/>
        <outline color="000080"/>
        <font bold="true" color="000080" name="Arial" size="10"/>
        <position>100 100 100 100</position>
        <barchart active="true" height="110" width="160"/>
      </node>
      <node id="VENTMACH">
        <name>VENTMACH</name>
        <interior color="e5f6f7"/>
        <outline color="000080"/>
        <font bold="true" color="000080" name="Arial" size="10"/>
        <position>100 100 100 100</position>
        <barchart active="true" height="110" width="160"/>
      </node>
      <node id="VENTTUBE">
        <name>VENTTUBE</name>
        <interior color="e5f6f7"/>
        <outline color="000080"/>
        <font bold="true" color="000080" name="Arial" size="10"/>
        <position>100 100 100 100</position>
        <barchart active="true" height="110" width="160"/>
      </node>
      <node id="LV_1">
        <name>LV_1</name>
        <interior color="e5f6f7"/>
        <outline color="000080"/>
        <font bold="true" color="000080" name="Arial" size="10"/>
        <position>100 100 100 100</position>
        <barchart active="true" height="110" width="160"/>
      </node>
    </genie>
  </extensions>
</smile>
