<?xml version="1.0" encoding="ISO-8859-1"?>
<smile discsamples="10000" id="DAG" numsamples="10000" version="1.0">
  <nodes>
    <cpt id="DISCONNECT">
      <state id="FALSE"/>
      <state id="TRUE"/>
      <probabilities>0.9055942035051215 0.09440579649487844 </probabilities>
    </cpt>
    <cpt id="VENTTUBE">
      <state id="HIGH"/>
      <state id="LOW"/>
      <state id="NORMAL"/>
      <state id="ZERO"/>
      <parents>DISCONNECTVENTMACHLV_1</parents>
      <probabilities>0.8840585419645728 0.043477246329178314 0.043476849291257634 0.028987362414991225 0.16667017294004033 0.16667017294004033 0.4999894811798791 0.16667017294004033 0.03847450841728083 0.0766342297604587 0.03847450841728083 0.8464167534049797 0.11765376903302253 0.11765376903302253 0.17647735128724382 0.5882151106467112 0.009105674540009984 0.9739998239919434 0.007807379495564557 0.009087121972482104 0.0352177273994579 0.03529385164492058 0.035293449803103304 0.8941949711525182 0.061154334261306884 0.081634956333724 0.04082053140353551 0.8163901780014337 0.16666904879637545 0.16666904879637545 0.16666904879637545 0.4999928536108737 0.2503448812386298 0.24989480930290658 0.24989823164669944 0.24986207781176423 0.24999211129980836 0.24999211129980836 0.25002366610057475 0.24999211129980836 0.24945340179402084 0.25149435591419106 0.24945340179402084 0.24959884049776732 0.24996970461010612 0.24996970461010612 0.2499767206669308 0.25008387011285693 0.2484132141716991 0.25337060640502973 0.2480400973942086 0.2501760820290624 0.25057977004267973 0.24977190171313537 0.24977616625823126 0.24987216198595363 0.25031035867637264 0.249879741984451 0.24984236726873255 0.24996753207044373 0.2499946403996642 0.2499946403996642 0.2499946403996642 0.25001607880100724 </probabilities>
    </cpt>
    <cpt id="ERRCAUTER">
      <state id="FALSE"/>
      <state id="TRUE"/>
      <probabilities>0.8886111949839711 0.11138880501602885 </probabilities>
    </cpt>
    <cpt id="HREKG">
      <state id="HIGH"/>
      <state id="LOW"/>
      <state id="NORMAL"/>
      <parents>ERRCAUTERHR</parents>
      <probabilities>0.9831834137476766 0.007739247631068015 0.009077338621255348 0.021361203745086578 0.018249848156679387 0.960388948098234 0.1548687271518777 0.29897806580259223 0.54615320704553 0.37168494516450645 0.11754735792622133 0.5107676969092723 0.011543010719394611 0.9725946384449137 0.015862350835691683 0.2343369890329013 0.42350947158524427 0.34215353938185444 </probabilities>
    </cpt>
    <cpt id="HRSAT">
      <state id="HIGH"/>
      <state id="LOW"/>
      <state id="NORMAL"/>
      <parents>ERRCAUTERHR</parents>
      <probabilities>0.9818018244435668 0.01050864028413375 0.007689535272299445 0.04437835917534752 0.0067498653464892686 0.9488717754781633 0.2384097706879362 0.3822698570953806 0.3793203722166833 0.3721834496510469 0.31744765702891325 0.31036889332003986 0.017769672349411392 0.9601691818953079 0.02206114575528074 0.31443668993020935 0.3434895314057826 0.34207377866400795 </probabilities>
    </cpt>
    <cpt id="ERRLOWOUTPUT">
      <state id="FALSE"/>
      <state id="TRUE"/>
      <probabilities>0.9545452280660846 0.04545477193391549 </probabilities>
    </cpt>
    <cpt id="HRBP">
      <state id="HIGH"/>
      <state id="LOW"/>
      <state id="NORMAL"/>
      <parents>ERRLOWOUTPUTHR</parents>
      <probabilities>0.9777313054335045 0.005973626584485815 0.01629506798200976 0.02188434695912263 0.03984297108673978 0.9382726819541375 0.06252670559749322 0.39955134596211367 0.5379219484403931 0.29179129278830174 0.5312396144898638 0.1769690927218345 0.0049178307773309286 0.9808635890082561 0.014218580214412942 0.23442173479561315 0.3242148554336989 0.44136340977068794 </probabilities>
    </cpt>
    <cpt id="FIO2">
      <state id="LOW"/>
      <state id="NORMAL"/>
      <probabilities>0.05344677594386863 0.9465532240561314 </probabilities>
    </cpt>
    <cpt id="HISTORY">
      <state id="FALSE"/>
      <state id="TRUE"/>
      <probabilities>0.9435562225523989 0.056443777447601054 </probabilities>
    </cpt>
    <cpt id="LVFAILURE">
      <state id="FALSE"/>
      <state id="TRUE"/>
      <parents>HISTORY</parents>
      <probabilities>0.9952126418764797 0.004787358123520278 0.15606178946454916 0.8439382105354508 </probabilities>
    </cpt>
    <cpt id="LVEDVOLUME">
      <state id="HIGH"/>
      <state id="LOW"/>
      <state id="NORMAL"/>
      <parents>HYPOVOLEMIALVFAILURE</parents>
      <probabilities>0.05677888210368894 0.047583161972416084 0.895637955923895 0.9163379426936582 0.008390589102258442 0.07527146820408341 0.03650412399166138 0.944178827154899 0.01931704885343968 0.05051512130275839 0.7953223662346295 0.15416251246261217 </probabilities>
    </cpt>
    <cpt id="CVP">
      <state id="HIGH"/>
      <state id="LOW"/>
      <state id="NORMAL"/>
      <parents>LVEDVOLUME</parents>
      <probabilities>0.7597348142488423 0.016620698651708427 0.2236444870994493 0.02902528369946341 0.8938969608029842 0.07707775549755229 0.003674609173900773 0.044888804425982365 0.9514365864001169 </probabilities>
    </cpt>
    <cpt id="PCWP">
      <state id="HIGH"/>
      <state id="LOW"/>
      <state id="NORMAL"/>
      <parents>LVEDVOLUME</parents>
      <probabilities>0.9561036516618369 0.0025973481424884223 0.04129900019567465 0.006811027591383153 0.9613014887920508 0.03188748361656603 0.012242078884257612 0.03777501067210885 0.9499829104436336 </probabilities>
    </cpt>
    <cpt id="STROKEVOLUME">
      <state id="HIGH"/>
      <state id="LOW"/>
      <state id="NORMAL"/>
      <parents>HYPOVOLEMIALVFAILURE</parents>
      <probabilities>0.05276488243602526 0.038525698944832175 0.9087094186191426 0.03001863973297499 0.5358029173349517 0.4341784429320733 0.011896129792440858 0.922448563400707 0.06565530680685217 0.12695247590561648 0.7156447324692589 0.15740279162512463 </probabilities>
    </cpt>
    <cpt id="CO">
      <state id="HIGH"/>
      <state id="LOW"/>
      <state id="NORMAL"/>
      <parents>HRSTROKEVOLUME</parents>
      <probabilities>0.9412438360593893 0.0428174934655493 0.015938670475061305 0.4130109670987039 0.292123629112662 0.29486540378863413 0.7558478410921083 0.044942096786563385 0.19921006212132836 0.012769384155226628 0.8012884423652121 0.18594217347956132 0.2753406447324693 0.5280824194084414 0.19657693585908942 0.05217205526278308 0.9309784930921522 0.01684945164506481 0.9585198445866836 0.007265051122385617 0.03421510429093069 0.13043013815695767 0.6845890898732374 0.18498077196980486 0.027328728101410054 0.05417319470160946 0.9184980771969805 </probabilities>
    </cpt>
    <cpt id="BP">
      <state id="HIGH"/>
      <state id="LOW"/>
      <state id="NORMAL"/>
      <parents>COTPR</parents>
      <probabilities>0.9302616840835518 0.004289600334798075 0.06544871558165012 0.06275242070398973 0.2999138178684286 0.6373337614275816 0.4719804002626268 0.04505994212484497 0.48295965761252824 0.007845128209840525 0.9018198859642271 0.09033498582593234 0.01494452811777434 0.9722322394518573 0.012823232430368472 0.015608729367453198 0.9487758945386066 0.03561537609394041 0.7560799743626264 0.05962469733656174 0.18429532830081183 0.01032930619904991 0.9808075772681955 0.008863116532754678 0.046592979681644726 0.11542957334891876 0.8379774469694364 </probabilities>
    </cpt>
    <cpt id="HYPOVOLEMIA">
      <state id="FALSE"/>
      <state id="TRUE"/>
      <probabilities>0.8076921543831957 0.1923078456168043 </probabilities>
    </cpt>
    <cpt id="LVEDVOLUME">
      <state id="HIGH"/>
      <state id="LOW"/>
      <state id="NORMAL"/>
      <parents>HYPOVOLEMIALVFAILURE</parents>
      <probabilities>0.05677888210368894 0.047583161972416084 0.895637955923895 0.9163379426936582 0.008390589102258442 0.07527146820408341 0.03650412399166138 0.944178827154899 0.01931704885343968 0.05051512130275839 0.7953223662346295 0.15416251246261217 </probabilities>
    </cpt>
    <cpt id="CVP">
      <state id="HIGH"/>
      <state id="LOW"/>
      <state id="NORMAL"/>
      <parents>LVEDVOLUME</parents>
      <probabilities>0.7597348142488423 0.016620698651708427 0.2236444870994493 0.02902528369946341 0.8938969608029842 0.07707775549755229 0.003674609173900773 0.044888804425982365 0.9514365864001169 </probabilities>
    </cpt>
    <cpt id="PCWP">
      <state id="HIGH"/>
      <state id="LOW"/>
      <state id="NORMAL"/>
      <parents>LVEDVOLUME</parents>
      <probabilities>0.9561036516618369 0.0025973481424884223 0.04129900019567465 0.006811027591383153 0.9613014887920508 0.03188748361656603 0.012242078884257612 0.03777501067210885 0.9499829104436336 </probabilities>
    </cpt>
    <cpt id="STROKEVOLUME">
      <state id="HIGH"/>
      <state id="LOW"/>
      <state id="NORMAL"/>
      <parents>HYPOVOLEMIALVFAILURE</parents>
      <probabilities>0.05276488243602526 0.038525698944832175 0.9087094186191426 0.03001863973297499 0.5358029173349517 0.4341784429320733 0.011896129792440858 0.922448563400707 0.06565530680685217 0.12695247590561648 0.7156447324692589 0.15740279162512463 </probabilities>
    </cpt>
    <cpt id="CO">
      <state id="HIGH"/>
      <state id="LOW"/>
      <state id="NORMAL"/>
      <parents>HRSTROKEVOLUME</parents>
      <probabilities>0.9412438360593893 0.0428174934655493 0.015938670475061305 0.4130109670987039 0.292123629112662 0.29486540378863413 0.7558478410921083 0.044942096786563385 0.19921006212132836 0.012769384155226628 0.8012884423652121 0.18594217347956132 0.2753406447324693 0.5280824194084414 0.19657693585908942 0.05217205526278308 0.9309784930921522 0.01684945164506481 0.9585198445866836 0.007265051122385617 0.03421510429093069 0.13043013815695767 0.6845890898732374 0.18498077196980486 0.027328728101410054 0.05417319470160946 0.9184980771969805 </probabilities>
    </cpt>
    <cpt id="BP">
      <state id="HIGH"/>
      <state id="LOW"/>
      <state id="NORMAL"/>
      <parents>COTPR</parents>
      <probabilities>0.9302616840835518 0.004289600334798075 0.06544871558165012 0.06275242070398973 0.2999138178684286 0.6373337614275816 0.4719804002626268 0.04505994212484497 0.48295965761252824 0.007845128209840525 0.9018198859642271 0.09033498582593234 0.01494452811777434 0.9722322394518573 0.012823232430368472 0.015608729367453198 0.9487758945386066 0.03561537609394041 0.7560799743626264 0.05962469733656174 0.18429532830081183 0.01032930619904991 0.9808075772681955 0.008863116532754678 0.046592979681644726 0.11542957334891876 0.8379774469694364 </probabilities>
    </cpt>
    <cpt id="INSUFFANESTH">
      <state id="FALSE"/>
      <state id="TRUE"/>
      <probabilities>0.8916081964877035 0.10839180351229642 </probabilities>
    </cpt>
    <cpt id="INTUBATION">
      <state id="ESOPHAGEAL"/>
      <state id="NORMAL"/>
      <state id="ONESIDED"/>
      <probabilities>0.02845754154701564 0.9081373643540437 0.06340509409894071 </probabilities>
    </cpt>
    <cpt id="MINVOL">
      <state id="HIGH"/>
      <state id="LOW"/>
      <state id="NORMAL"/>
      <state id="ZERO"/>
      <parents>INTUBATIONVENTLUNGLV_1</parents>
      <probabilities>0.25 0.25 0.25 0.25 0.07408887115197349 0.7777333865440795 0.07408887115197349 0.07408887115197349 0.49999886722151027 0.16666704425949658 0.16666704425949658 0.16666704425949658 0.10526352523171381 0.10526352523171381 0.10526352523171381 0.6842094243048585 0.9353355136785588 0.029849168808685732 0.014920296193017749 0.01989502131973776 0.07692190374435857 0.4871826204905164 0.05128283873239685 0.38461263703272824 0.22222257462103617 0.22222257462103617 0.22222257462103617 0.33333227613689154 0.14285849119965155 0.35714164367833695 0.14285849119965155 0.35714137392235995 0.2000011147904208 0.2000011147904208 0.2000011147904208 0.3999966556287376 0.08334080984124152 0.7499775704762754 0.08334080984124152 0.08334080984124152 0.007112209438586872 0.015707863116432588 0.011439141360005779 0.9657407860849748 0.05882465478196757 0.05882465478196757 0.7941160174112247 0.08823467302484007 0.25 0.25 0.25 0.25 0.2498315992088298 0.25050520237351065 0.2498315992088298 0.2498315992088298 0.25000254873716615 0.24999915042094456 0.24999915042094456 0.24999915042094456 0.24999792801426768 0.24999792801426768 0.24999792801426768 0.250006215957197 0.251993917457369 0.2493014163920375 0.24933899508732008 0.24936567106327348 0.24999276388007205 0.2500024794295674 0.24998128743848408 0.25002346925187663 0.24999955399675403 0.24999955399675403 0.24999955399675403 0.25000133800973784 0.24999587080824273 0.25000389316140376 0.24999587080824273 0.2500043652221108 0.24999825816181262 0.24999825816181262 0.24999825816181262 0.25000522551456217 0.249932735568173 0.2502017932954809 0.249932735568173 0.249932735568173 0.2510509756031474 0.25010430138200057 0.24806087899204227 0.2507838440228099 0.24997967504213528 0.24997967504213528 0.25005116197972144 0.24998948793600814 </probabilities>
    </cpt>
    <cpt id="PRESS">
      <state id="HIGH"/>
      <state id="LOW"/>
      <state id="NORMAL"/>
      <state id="ZERO"/>
      <parents>INTUBATIONLV_1</parents>
      <probabilities>0.5833661882340251 0.05555900270976285 0.11111556564575863 0.24995924341045336 0.46459568147208413 0.268281543976893 0.24100791231636723 0.026114862234655603 0.7042313082447825 0.15492883595529439 0.0563357970029439 0.08450405879697935 0.24994524479669686 0.2499302189413633 0.2499411941778152 0.2501833420841246 0.24882363656772732 0.24851237769099438 0.2493480871987893 0.2533158985424892 0.25002277777469617 0.2499907504243907 0.24998755315539675 0.24999891864551635 </probabilities>
    </cpt>
    <cpt id="VENTLUNG">
      <state id="HIGH"/>
      <state id="LOW"/>
      <state id="NORMAL"/>
      <state id="ZERO"/>
      <parents>PRESS</parents>
      <probabilities>0.04156423949591704 0.30722903724514306 0.013181317284055269 0.6380254059748847 0.009831515425577534 0.2215950288864113 0.00980422731773493 0.7587692283702763 0.006704887766009134 0.1002994673191933 0.0066739693112251655 0.8863216756035724 0.01442118848549464 0.18640929240783347 0.01422479097693732 0.7849447281297346 </probabilities>
    </cpt>
    <cpt id="EXPCO2">
      <state id="HIGH"/>
      <state id="LOW"/>
      <state id="NORMAL"/>
      <state id="ZERO"/>
      <parents>ARTCO2VENTLUNG</parents>
      <probabilities>0.8781811529392634 0.03435238637287585 0.06268802341653794 0.024778437271322878 0.20617529880478086 0.33665338645418325 0.2143426294820717 0.24282868525896414 0.43298235628912923 0.2404667046101309 0.15310187820147977 0.1734490608992601 0.00912280083206995 0.03259528258646829 0.9298381694461093 0.028443747135352394 0.1145418326693227 0.6314741035856574 0.11907923860115094 0.13490482514386898 0.013859163895382658 0.010146740860250457 0.0029523778165574614 0.9730417174278094 0.1145418326693227 0.18702965914121292 0.11907923860115094 0.5793492695883135 0.14726807057484348 0.2404667046101309 0.4388161639157655 0.1734490608992601 0.06063979376611202 0.09901570189828919 0.7689243027888446 0.07142020154675416 0.00964535639824123 0.9605353567226284 0.014116738080984721 0.01570254879814568 0.019450499887243476 0.03175975343907388 0.020221002781327515 0.9285687438923551 0.01338800641589486 0.879003466652869 0.06586640451182282 0.04174212241941325 </probabilities>
    </cpt>
    <cpt id="VENTALV">
      <state id="HIGH"/>
      <state id="LOW"/>
      <state id="NORMAL"/>
      <state id="ZERO"/>
      <parents>INTUBATIONVENTLUNG</parents>
      <probabilities>0.20278884462151395 0.21553784860557768 0.2448207171314741 0.3368525896414343 0.023580098211803947 0.8622718428611137 0.028467525247845828 0.08568053367923655 0.07799570946981305 0.6982837879252222 0.09416181428133619 0.12955868832362855 0.037553489744724805 0.03991441640844031 0.04533716983916187 0.877194924007673 0.002593207731732915 0.018101507015416594 0.9545373493239319 0.024767935928918593 0.015133495867277157 0.9414580484034012 0.018270202771005526 0.025138252958315985 0.4305634604439385 0.1539556061468412 0.1748719408081958 0.24060899260102447 0.05964377782985704 0.06339348488399343 0.7778884462151394 0.09907429107101008 0.11266046923417442 0.11974324922532092 0.1360115095174856 0.6315847720230191 0.02740389792182621 0.893991601162916 0.033083880693442445 0.045520620221815446 0.016592605784504378 0.00798679830066899 0.012418243392687362 0.9630023525221392 0.05287621444048368 0.018906828825050674 0.8635807646606557 0.06463619207381002 </probabilities>
    </cpt>
    <cpt id="ARTCO2">
      <state id="HIGH"/>
      <state id="LOW"/>
      <state id="NORMAL"/>
      <parents>VENTALV</parents>
      <probabilities>0.058325024925224324 0.7675972083748753 0.17407776669990033 0.9730996882769414 0.00650579905852064 0.020394512664538032 0.034844581300346754 0.02439804480364217 0.9407573738960111 0.9722018537411022 0.016735404252359202 0.011062742006538524 </probabilities>
    </cpt>
    <cpt id="CATECHOL">
      <state id="HIGH"/>
      <state id="NORMAL"/>
      <parents>ARTCO2TPR</parents>
      <probabilities>0.8683768320819386 0.13162316791806142 0.1857713145138295 0.8142286854861706 0.284971410562334 0.7150285894376661 0.9886440926610032 0.01135590733899684 0.9267465069860279 0.07325349301397206 0.979478129833049 0.020521870166950864 0.9851569292084673 0.01484307079153276 0.9593036149922377 0.04069638500776226 0.9106579739928427 0.0893420260071573 </probabilities>
    </cpt>
    <cpt id="HR">
      <state id="HIGH"/>
      <state id="LOW"/>
      <state id="NORMAL"/>
      <parents>CATECHOL</parents>
      <probabilities>0.8859533126284863 0.01272895914027828 0.1013177282312355 0.059017946161515455 0.02506979062811565 0.9159122632103689 </probabilities>
    </cpt>
    <cpt id="CO">
      <state id="HIGH"/>
      <state id="LOW"/>
      <state id="NORMAL"/>
      <parents>HRSTROKEVOLUME</parents>
      <probabilities>0.9412438360593893 0.0428174934655493 0.015938670475061305 0.4130109670987039 0.292123629112662 0.29486540378863413 0.7558478410921083 0.044942096786563385 0.19921006212132836 0.012769384155226628 0.8012884423652121 0.18594217347956132 0.2753406447324693 0.5280824194084414 0.19657693585908942 0.05217205526278308 0.9309784930921522 0.01684945164506481 0.9585198445866836 0.007265051122385617 0.03421510429093069 0.13043013815695767 0.6845890898732374 0.18498077196980486 0.027328728101410054 0.05417319470160946 0.9184980771969805 </probabilities>
    </cpt>
    <cpt id="BP">
      <state id="HIGH"/>
      <state id="LOW"/>
      <state id="NORMAL"/>
      <parents>COTPR</parents>
      <probabilities>0.9302616840835518 0.004289600334798075 0.06544871558165012 0.06275242070398973 0.2999138178684286 0.6373337614275816 0.4719804002626268 0.04505994212484497 0.48295965761252824 0.007845128209840525 0.9018198859642271 0.09033498582593234 0.01494452811777434 0.9722322394518573 0.012823232430368472 0.015608729367453198 0.9487758945386066 0.03561537609394041 0.7560799743626264 0.05962469733656174 0.18429532830081183 0.01032930619904991 0.9808075772681955 0.008863116532754678 0.046592979681644726 0.11542957334891876 0.8379774469694364 </probabilities>
    </cpt>
    <cpt id="HRBP">
      <state id="HIGH"/>
      <state id="LOW"/>
      <state id="NORMAL"/>
      <parents>ERRLOWOUTPUTHR</parents>
      <probabilities>0.9777313054335045 0.005973626584485815 0.01629506798200976 0.02188434695912263 0.03984297108673978 0.9382726819541375 0.06252670559749322 0.39955134596211367 0.5379219484403931 0.29179129278830174 0.5312396144898638 0.1769690927218345 0.0049178307773309286 0.9808635890082561 0.014218580214412942 0.23442173479561315 0.3242148554336989 0.44136340977068794 </probabilities>
    </cpt>
    <cpt id="HREKG">
      <state id="HIGH"/>
      <state id="LOW"/>
      <state id="NORMAL"/>
      <parents>ERRCAUTERHR</parents>
      <probabilities>0.9831834137476766 0.007739247631068015 0.009077338621255348 0.021361203745086578 0.018249848156679387 0.960388948098234 0.1548687271518777 0.29897806580259223 0.54615320704553 0.37168494516450645 0.11754735792622133 0.5107676969092723 0.011543010719394611 0.9725946384449137 0.015862350835691683 0.2343369890329013 0.42350947158524427 0.34215353938185444 </probabilities>
    </cpt>
    <cpt id="HRSAT">
      <state id="HIGH"/>
      <state id="LOW"/>
      <state id="NORMAL"/>
      <parents>ERRCAUTERHR</parents>
      <probabilities>0.9818018244435668 0.01050864028413375 0.007689535272299445 0.04437835917534752 0.0067498653464892686 0.9488717754781633 0.2384097706879362 0.3822698570953806 0.3793203722166833 0.3721834496510469 0.31744765702891325 0.31036889332003986 0.017769672349411392 0.9601691818953079 0.02206114575528074 0.31443668993020935 0.3434895314057826 0.34207377866400795 </probabilities>
    </cpt>
    <cpt id="PVSAT">
      <state id="HIGH"/>
      <state id="LOW"/>
      <state id="NORMAL"/>
      <parents>VENTALV</parents>
      <probabilities>0.767131937520771 0.06570289132602194 0.16716517115320706 0.0064174564912856365 0.9365258654416496 0.05705667806706461 0.011092827711555599 0.9645378025216387 0.024369369766805777 7.368881726912287E-4 0.9941650339678639 0.005098077859444922 </probabilities>
    </cpt>
    <cpt id="SAO2">
      <state id="HIGH"/>
      <state id="LOW"/>
      <state id="NORMAL"/>
      <parents>PVSAT</parents>
      <probabilities>0.8338983050847458 0.06543702226653374 0.10066467264872052 0.004624076488483269 0.9886990311117928 0.006676892399723905 0.03177966101694915 0.18634720837487537 0.7818731306081754 </probabilities>
    </cpt>
    <cpt id="SHUNT">
      <state id="HIGH"/>
      <state id="NORMAL"/>
      <parents>INTUBATIONPULMEMBOLUS</parents>
      <probabilities>0.019012821813999117 0.9809871781860009 0.05941306516196669 0.9405869348380332 0.9209740518962076 0.07902594810379242 0.3739188290086493 0.6260811709913506 0.9105598327155213 0.08944016728447866 0.731679498146564 0.268320501853436 </probabilities>
    </cpt>
    <cpt id="ANAPHYLAXIS">
      <state id="FALSE"/>
      <state id="TRUE"/>
      <parents>SHUNT</parents>
      <probabilities>0.9550653794451912 0.04493462055480875 0.9960198852720454 0.003980114727954653 </probabilities>
    </cpt>
    <cpt id="TPR">
      <state id="HIGH"/>
      <state id="LOW"/>
      <state id="NORMAL"/>
      <parents>ANAPHYLAXIS</parents>
      <probabilities>0.29944522569113585 0.2974361623379359 0.40311861197092824 0.06485543369890327 0.8651545363908275 0.06999002991026917 </probabilities>
    </cpt>
    <cpt id="VENTMACH">
      <state id="HIGH"/>
      <state id="LOW"/>
      <state id="NORMAL"/>
      <state id="ZERO"/>
      <probabilities>0.06536944491361238 0.05339340890800886 0.8358277612741055 0.04540938490427318 </probabilities>
    </cpt>
    <cpt id="MINVOLSET">
      <state id="HIGH"/>
      <state id="LOW"/>
      <state id="NORMAL"/>
      <parents>VENTMACH</parents>
      <probabilities>0.7839838692876594 0.007857025937114032 0.20815910477522656 0.009580349859512371 0.8822985588688479 0.10812109127163962 6.280324699322771E-4 6.274383048708464E-4 0.9987445292251969 0.03248764345262086 0.0963068242082264 0.8712055323391528 </probabilities>
    </cpt>
    <cpt id="VENTTUBE">
      <state id="HIGH"/>
      <state id="LOW"/>
      <state id="NORMAL"/>
      <state id="ZERO"/>
      <parents>DISCONNECTVENTMACHLV_1</parents>
      <probabilities>0.8840585419645728 0.043477246329178314 0.043476849291257634 0.028987362414991225 0.16667017294004033 0.16667017294004033 0.4999894811798791 0.16667017294004033 0.03847450841728083 0.0766342297604587 0.03847450841728083 0.8464167534049797 0.11765376903302253 0.11765376903302253 0.17647735128724382 0.5882151106467112 0.009105674540009984 0.9739998239919434 0.007807379495564557 0.009087121972482104 0.0352177273994579 0.03529385164492058 0.035293449803103304 0.8941949711525182 0.061154334261306884 0.081634956333724 0.04082053140353551 0.8163901780014337 0.16666904879637545 0.16666904879637545 0.16666904879637545 0.4999928536108737 0.2503448812386298 0.24989480930290658 0.24989823164669944 0.24986207781176423 0.24999211129980836 0.24999211129980836 0.25002366610057475 0.24999211129980836 0.24945340179402084 0.25149435591419106 0.24945340179402084 0.24959884049776732 0.24996970461010612 0.24996970461010612 0.2499767206669308 0.25008387011285693 0.2484132141716991 0.25337060640502973 0.2480400973942086 0.2501760820290624 0.25057977004267973 0.24977190171313537 0.24977616625823126 0.24987216198595363 0.25031035867637264 0.249879741984451 0.24984236726873255 0.24996753207044373 0.2499946403996642 0.2499946403996642 0.2499946403996642 0.25001607880100724 </probabilities>
    </cpt>
    <cpt id="LV_1">
      <state id="0"/>
      <state id="1"/>
      <probabilities>0.9978898044160545 0.002110195583945481 </probabilities>
    </cpt>
    <cpt id="MINVOL">
      <state id="HIGH"/>
      <state id="LOW"/>
      <state id="NORMAL"/>
      <state id="ZERO"/>
      <parents>INTUBATIONVENTLUNGLV_1</parents>
      <probabilities>0.25 0.25 0.25 0.25 0.07408887115197349 0.7777333865440795 0.07408887115197349 0.07408887115197349 0.49999886722151027 0.16666704425949658 0.16666704425949658 0.16666704425949658 0.10526352523171381 0.10526352523171381 0.10526352523171381 0.6842094243048585 0.9353355136785588 0.029849168808685732 0.014920296193017749 0.01989502131973776 0.07692190374435857 0.4871826204905164 0.05128283873239685 0.38461263703272824 0.22222257462103617 0.22222257462103617 0.22222257462103617 0.33333227613689154 0.14285849119965155 0.35714164367833695 0.14285849119965155 0.35714137392235995 0.2000011147904208 0.2000011147904208 0.2000011147904208 0.3999966556287376 0.08334080984124152 0.7499775704762754 0.08334080984124152 0.08334080984124152 0.007112209438586872 0.015707863116432588 0.011439141360005779 0.9657407860849748 0.05882465478196757 0.05882465478196757 0.7941160174112247 0.08823467302484007 0.25 0.25 0.25 0.25 0.2498315992088298 0.25050520237351065 0.2498315992088298 0.2498315992088298 0.25000254873716615 0.24999915042094456 0.24999915042094456 0.24999915042094456 0.24999792801426768 0.24999792801426768 0.24999792801426768 0.250006215957197 0.251993917457369 0.2493014163920375 0.24933899508732008 0.24936567106327348 0.24999276388007205 0.2500024794295674 0.24998128743848408 0.25002346925187663 0.24999955399675403 0.24999955399675403 0.24999955399675403 0.25000133800973784 0.24999587080824273 0.25000389316140376 0.24999587080824273 0.2500043652221108 0.24999825816181262 0.24999825816181262 0.24999825816181262 0.25000522551456217 0.249932735568173 0.2502017932954809 0.249932735568173 0.249932735568173 0.2510509756031474 0.25010430138200057 0.24806087899204227 0.2507838440228099 0.24997967504213528 0.24997967504213528 0.25005116197972144 0.24998948793600814 </probabilities>
    </cpt>
    <cpt id="PRESS">
      <state id="HIGH"/>
      <state id="LOW"/>
      <state id="NORMAL"/>
      <state id="ZERO"/>
      <parents>INTUBATIONLV_1</parents>
      <probabilities>0.5833661882340251 0.05555900270976285 0.11111556564575863 0.24995924341045336 0.46459568147208413 0.268281543976893 0.24100791231636723 0.026114862234655603 0.7042313082447825 0.15492883595529439 0.0563357970029439 0.08450405879697935 0.24994524479669686 0.2499302189413633 0.2499411941778152 0.2501833420841246 0.24882363656772732 0.24851237769099438 0.2493480871987893 0.2533158985424892 0.25002277777469617 0.2499907504243907 0.24998755315539675 0.24999891864551635 </probabilities>
    </cpt>
    <cpt id="VENTLUNG">
      <state id="HIGH"/>
      <state id="LOW"/>
      <state id="NORMAL"/>
      <state id="ZERO"/>
      <parents>PRESS</parents>
      <probabilities>0.04156423949591704 0.30722903724514306 0.013181317284055269 0.6380254059748847 0.009831515425577534 0.2215950288864113 0.00980422731773493 0.7587692283702763 0.006704887766009134 0.1002994673191933 0.0066739693112251655 0.8863216756035724 0.01442118848549464 0.18640929240783347 0.01422479097693732 0.7849447281297346 </probabilities>
    </cpt>
    <cpt id="EXPCO2">
      <state id="HIGH"/>
      <state id="LOW"/>
      <state id="NORMAL"/>
      <state id="ZERO"/>
      <parents>ARTCO2VENTLUNG</parents>
      <probabilities>0.8781811529392634 0.03435238637287585 0.06268802341653794 0.024778437271322878 0.20617529880478086 0.33665338645418325 0.2143426294820717 0.24282868525896414 0.43298235628912923 0.2404667046101309 0.15310187820147977 0.1734490608992601 0.00912280083206995 0.03259528258646829 0.9298381694461093 0.028443747135352394 0.1145418326693227 0.6314741035856574 0.11907923860115094 0.13490482514386898 0.013859163895382658 0.010146740860250457 0.0029523778165574614 0.9730417174278094 0.1145418326693227 0.18702965914121292 0.11907923860115094 0.5793492695883135 0.14726807057484348 0.2404667046101309 0.4388161639157655 0.1734490608992601 0.06063979376611202 0.09901570189828919 0.7689243027888446 0.07142020154675416 0.00964535639824123 0.9605353567226284 0.014116738080984721 0.01570254879814568 0.019450499887243476 0.03175975343907388 0.020221002781327515 0.9285687438923551 0.01338800641589486 0.879003466652869 0.06586640451182282 0.04174212241941325 </probabilities>
    </cpt>
    <cpt id="VENTALV">
      <state id="HIGH"/>
      <state id="LOW"/>
      <state id="NORMAL"/>
      <state id="ZERO"/>
      <parents>INTUBATIONVENTLUNG</parents>
      <probabilities>0.20278884462151395 0.21553784860557768 0.2448207171314741 0.3368525896414343 0.023580098211803947 0.8622718428611137 0.028467525247845828 0.08568053367923655 0.07799570946981305 0.6982837879252222 0.09416181428133619 0.12955868832362855 0.037553489744724805 0.03991441640844031 0.04533716983916187 0.877194924007673 0.002593207731732915 0.018101507015416594 0.9545373493239319 0.024767935928918593 0.015133495867277157 0.9414580484034012 0.018270202771005526 0.025138252958315985 0.4305634604439385 0.1539556061468412 0.1748719408081958 0.24060899260102447 0.05964377782985704 0.06339348488399343 0.7778884462151394 0.09907429107101008 0.11266046923417442 0.11974324922532092 0.1360115095174856 0.6315847720230191 0.02740389792182621 0.893991601162916 0.033083880693442445 0.045520620221815446 0.016592605784504378 0.00798679830066899 0.012418243392687362 0.9630023525221392 0.05287621444048368 0.018906828825050674 0.8635807646606557 0.06463619207381002 </probabilities>
    </cpt>
    <cpt id="ARTCO2">
      <state id="HIGH"/>
      <state id="LOW"/>
      <state id="NORMAL"/>
      <parents>VENTALV</parents>
      <probabilities>0.058325024925224324 0.7675972083748753 0.17407776669990033 0.9730996882769414 0.00650579905852064 0.020394512664538032 0.034844581300346754 0.02439804480364217 0.9407573738960111 0.9722018537411022 0.016735404252359202 0.011062742006538524 </probabilities>
    </cpt>
    <cpt id="CATECHOL">
      <state id="HIGH"/>
      <state id="NORMAL"/>
      <parents>ARTCO2TPR</parents>
      <probabilities>0.8683768320819386 0.13162316791806142 0.1857713145138295 0.8142286854861706 0.284971410562334 0.7150285894376661 0.9886440926610032 0.01135590733899684 0.9267465069860279 0.07325349301397206 0.979478129833049 0.020521870166950864 0.9851569292084673 0.01484307079153276 0.9593036149922377 0.04069638500776226 0.9106579739928427 0.0893420260071573 </probabilities>
    </cpt>
    <cpt id="HR">
      <state id="HIGH"/>
      <state id="LOW"/>
      <state id="NORMAL"/>
      <parents>CATECHOL</parents>
      <probabilities>0.8859533126284863 0.01272895914027828 0.1013177282312355 0.059017946161515455 0.02506979062811565 0.9159122632103689 </probabilities>
    </cpt>
    <cpt id="CO">
      <state id="HIGH"/>
      <state id="LOW"/>
      <state id="NORMAL"/>
      <parents>HRSTROKEVOLUME</parents>
      <probabilities>0.9412438360593893 0.0428174934655493 0.015938670475061305 0.4130109670987039 0.292123629112662 0.29486540378863413 0.7558478410921083 0.044942096786563385 0.19921006212132836 0.012769384155226628 0.8012884423652121 0.18594217347956132 0.2753406447324693 0.5280824194084414 0.19657693585908942 0.05217205526278308 0.9309784930921522 0.01684945164506481 0.9585198445866836 0.007265051122385617 0.03421510429093069 0.13043013815695767 0.6845890898732374 0.18498077196980486 0.027328728101410054 0.05417319470160946 0.9184980771969805 </probabilities>
    </cpt>
    <cpt id="BP">
      <state id="HIGH"/>
      <state id="LOW"/>
      <state id="NORMAL"/>
      <parents>COTPR</parents>
      <probabilities>0.9302616840835518 0.004289600334798075 0.06544871558165012 0.06275242070398973 0.2999138178684286 0.6373337614275816 0.4719804002626268 0.04505994212484497 0.48295965761252824 0.007845128209840525 0.9018198859642271 0.09033498582593234 0.01494452811777434 0.9722322394518573 0.012823232430368472 0.015608729367453198 0.9487758945386066 0.03561537609394041 0.7560799743626264 0.05962469733656174 0.18429532830081183 0.01032930619904991 0.9808075772681955 0.008863116532754678 0.046592979681644726 0.11542957334891876 0.8379774469694364 </probabilities>
    </cpt>
    <cpt id="HRBP">
      <state id="HIGH"/>
      <state id="LOW"/>
      <state id="NORMAL"/>
      <parents>ERRLOWOUTPUTHR</parents>
      <probabilities>0.9777313054335045 0.005973626584485815 0.01629506798200976 0.02188434695912263 0.03984297108673978 0.9382726819541375 0.06252670559749322 0.39955134596211367 0.5379219484403931 0.29179129278830174 0.5312396144898638 0.1769690927218345 0.0049178307773309286 0.9808635890082561 0.014218580214412942 0.23442173479561315 0.3242148554336989 0.44136340977068794 </probabilities>
    </cpt>
    <cpt id="HREKG">
      <state id="HIGH"/>
      <state id="LOW"/>
      <state id="NORMAL"/>
      <parents>ERRCAUTERHR</parents>
      <probabilities>0.9831834137476766 0.007739247631068015 0.009077338621255348 0.021361203745086578 0.018249848156679387 0.960388948098234 0.1548687271518777 0.29897806580259223 0.54615320704553 0.37168494516450645 0.11754735792622133 0.5107676969092723 0.011543010719394611 0.9725946384449137 0.015862350835691683 0.2343369890329013 0.42350947158524427 0.34215353938185444 </probabilities>
    </cpt>
    <cpt id="HRSAT">
      <state id="HIGH"/>
      <state id="LOW"/>
      <state id="NORMAL"/>
      <parents>ERRCAUTERHR</parents>
      <probabilities>0.9818018244435668 0.01050864028413375 0.007689535272299445 0.04437835917534752 0.0067498653464892686 0.9488717754781633 0.2384097706879362 0.3822698570953806 0.3793203722166833 0.3721834496510469 0.31744765702891325 0.31036889332003986 0.017769672349411392 0.9601691818953079 0.02206114575528074 0.31443668993020935 0.3434895314057826 0.34207377866400795 </probabilities>
    </cpt>
    <cpt id="PVSAT">
      <state id="HIGH"/>
      <state id="LOW"/>
      <state id="NORMAL"/>
      <parents>VENTALV</parents>
      <probabilities>0.767131937520771 0.06570289132602194 0.16716517115320706 0.0064174564912856365 0.9365258654416496 0.05705667806706461 0.011092827711555599 0.9645378025216387 0.024369369766805777 7.368881726912287E-4 0.9941650339678639 0.005098077859444922 </probabilities>
    </cpt>
    <cpt id="SAO2">
      <state id="HIGH"/>
      <state id="LOW"/>
      <state id="NORMAL"/>
      <parents>PVSAT</parents>
      <probabilities>0.8338983050847458 0.06543702226653374 0.10066467264872052 0.004624076488483269 0.9886990311117928 0.006676892399723905 0.03177966101694915 0.18634720837487537 0.7818731306081754 </probabilities>
    </cpt>
    <cpt id="VENTTUBE">
      <state id="HIGH"/>
      <state id="LOW"/>
      <state id="NORMAL"/>
      <state id="ZERO"/>
      <parents>DISCONNECTVENTMACHLV_1</parents>
      <probabilities>0.8840585419645728 0.043477246329178314 0.043476849291257634 0.028987362414991225 0.16667017294004033 0.16667017294004033 0.4999894811798791 0.16667017294004033 0.03847450841728083 0.0766342297604587 0.03847450841728083 0.8464167534049797 0.11765376903302253 0.11765376903302253 0.17647735128724382 0.5882151106467112 0.009105674540009984 0.9739998239919434 0.007807379495564557 0.009087121972482104 0.0352177273994579 0.03529385164492058 0.035293449803103304 0.8941949711525182 0.061154334261306884 0.081634956333724 0.04082053140353551 0.8163901780014337 0.16666904879637545 0.16666904879637545 0.16666904879637545 0.4999928536108737 0.2503448812386298 0.24989480930290658 0.24989823164669944 0.24986207781176423 0.24999211129980836 0.24999211129980836 0.25002366610057475 0.24999211129980836 0.24945340179402084 0.25149435591419106 0.24945340179402084 0.24959884049776732 0.24996970461010612 0.24996970461010612 0.2499767206669308 0.25008387011285693 0.2484132141716991 0.25337060640502973 0.2480400973942086 0.2501760820290624 0.25057977004267973 0.24977190171313537 0.24977616625823126 0.24987216198595363 0.25031035867637264 0.249879741984451 0.24984236726873255 0.24996753207044373 0.2499946403996642 0.2499946403996642 0.2499946403996642 0.25001607880100724 </probabilities>
    </cpt>
    <cpt id="LV_2">
      <state id="0"/>
      <state id="1"/>
      <probabilities>0.1100742551279541 0.8899257448720459 </probabilities>
    </cpt>
    <cpt id="PAP">
      <state id="HIGH"/>
      <state id="LOW"/>
      <state id="NORMAL"/>
      <parents>LV_2</parents>
      <probabilities>0.00478373446295602 0.004729983929100478 0.9904862816079434 0.07228856072151073 0.05883957818684704 0.8688718610916423 </probabilities>
    </cpt>
    <cpt id="PULMEMBOLUS">
      <state id="FALSE"/>
      <state id="TRUE"/>
      <parents>LV_2</parents>
      <probabilities>0.9954330904148881 0.004566909585111852 0.9871038827027416 0.0128961172972584 </probabilities>
    </cpt>
    <cpt id="SHUNT">
      <state id="HIGH"/>
      <state id="NORMAL"/>
      <parents>INTUBATIONPULMEMBOLUS</parents>
      <probabilities>0.019012821813999117 0.9809871781860009 0.05941306516196669 0.9405869348380332 0.9209740518962076 0.07902594810379242 0.3739188290086493 0.6260811709913506 0.9105598327155213 0.08944016728447866 0.731679498146564 0.268320501853436 </probabilities>
    </cpt>
    <cpt id="ANAPHYLAXIS">
      <state id="FALSE"/>
      <state id="TRUE"/>
      <parents>SHUNT</parents>
      <probabilities>0.9550653794451912 0.04493462055480875 0.9960198852720454 0.003980114727954653 </probabilities>
    </cpt>
    <cpt id="TPR">
      <state id="HIGH"/>
      <state id="LOW"/>
      <state id="NORMAL"/>
      <parents>ANAPHYLAXIS</parents>
      <probabilities>0.29944522569113585 0.2974361623379359 0.40311861197092824 0.06485543369890327 0.8651545363908275 0.06999002991026917 </probabilities>
    </cpt>
    <cpt id="BP">
      <state id="HIGH"/>
      <state id="LOW"/>
      <state id="NORMAL"/>
      <parents>COTPR</parents>
      <probabilities>0.9302616840835518 0.004289600334798075 0.06544871558165012 0.06275242070398973 0.2999138178684286 0.6373337614275816 0.4719804002626268 0.04505994212484497 0.48295965761252824 0.007845128209840525 0.9018198859642271 0.09033498582593234 0.01494452811777434 0.9722322394518573 0.012823232430368472 0.015608729367453198 0.9487758945386066 0.03561537609394041 0.7560799743626264 0.05962469733656174 0.18429532830081183 0.01032930619904991 0.9808075772681955 0.008863116532754678 0.046592979681644726 0.11542957334891876 0.8379774469694364 </probabilities>
    </cpt>
    <cpt id="CATECHOL">
      <state id="HIGH"/>
      <state id="NORMAL"/>
      <parents>ARTCO2TPR</parents>
      <probabilities>0.8683768320819386 0.13162316791806142 0.1857713145138295 0.8142286854861706 0.284971410562334 0.7150285894376661 0.9886440926610032 0.01135590733899684 0.9267465069860279 0.07325349301397206 0.979478129833049 0.020521870166950864 0.9851569292084673 0.01484307079153276 0.9593036149922377 0.04069638500776226 0.9106579739928427 0.0893420260071573 </probabilities>
    </cpt>
    <cpt id="HR">
      <state id="HIGH"/>
      <state id="LOW"/>
      <state id="NORMAL"/>
      <parents>CATECHOL</parents>
      <probabilities>0.8859533126284863 0.01272895914027828 0.1013177282312355 0.059017946161515455 0.02506979062811565 0.9159122632103689 </probabilities>
    </cpt>
    <cpt id="CO">
      <state id="HIGH"/>
      <state id="LOW"/>
      <state id="NORMAL"/>
      <parents>HRSTROKEVOLUME</parents>
      <probabilities>0.9412438360593893 0.0428174934655493 0.015938670475061305 0.4130109670987039 0.292123629112662 0.29486540378863413 0.7558478410921083 0.044942096786563385 0.19921006212132836 0.012769384155226628 0.8012884423652121 0.18594217347956132 0.2753406447324693 0.5280824194084414 0.19657693585908942 0.05217205526278308 0.9309784930921522 0.01684945164506481 0.9585198445866836 0.007265051122385617 0.03421510429093069 0.13043013815695767 0.6845890898732374 0.18498077196980486 0.027328728101410054 0.05417319470160946 0.9184980771969805 </probabilities>
    </cpt>
    <cpt id="HRBP">
      <state id="HIGH"/>
      <state id="LOW"/>
      <state id="NORMAL"/>
      <parents>ERRLOWOUTPUTHR</parents>
      <probabilities>0.9777313054335045 0.005973626584485815 0.01629506798200976 0.02188434695912263 0.03984297108673978 0.9382726819541375 0.06252670559749322 0.39955134596211367 0.5379219484403931 0.29179129278830174 0.5312396144898638 0.1769690927218345 0.0049178307773309286 0.9808635890082561 0.014218580214412942 0.23442173479561315 0.3242148554336989 0.44136340977068794 </probabilities>
    </cpt>
    <cpt id="HREKG">
      <state id="HIGH"/>
      <state id="LOW"/>
      <state id="NORMAL"/>
      <parents>ERRCAUTERHR</parents>
      <probabilities>0.9831834137476766 0.007739247631068015 0.009077338621255348 0.021361203745086578 0.018249848156679387 0.960388948098234 0.1548687271518777 0.29897806580259223 0.54615320704553 0.37168494516450645 0.11754735792622133 0.5107676969092723 0.011543010719394611 0.9725946384449137 0.015862350835691683 0.2343369890329013 0.42350947158524427 0.34215353938185444 </probabilities>
    </cpt>
    <cpt id="HRSAT">
      <state id="HIGH"/>
      <state id="LOW"/>
      <state id="NORMAL"/>
      <parents>ERRCAUTERHR</parents>
      <probabilities>0.9818018244435668 0.01050864028413375 0.007689535272299445 0.04437835917534752 0.0067498653464892686 0.9488717754781633 0.2384097706879362 0.3822698570953806 0.3793203722166833 0.3721834496510469 0.31744765702891325 0.31036889332003986 0.017769672349411392 0.9601691818953079 0.02206114575528074 0.31443668993020935 0.3434895314057826 0.34207377866400795 </probabilities>
    </cpt>
  </nodes>
  <extensions>
    <genie app="GeNIe 2.3.3705.0 ACADEMIC" faultnameformat="nodestate" name="DAG" version="1.0">
      <node id="ANAPHYLAXIS">
        <name>ANAPHYLAXIS</name>
        <interior color="e5f6f7"/>
        <outline color="000080"/>
        <font bold="true" color="000080" name="Arial" size="10"/>
        <position>100 100 100 100</position>
        <barchart active="true" height="110" width="160"/>
      </node>
      <node id="ARTCO2">
        <name>ARTCO2</name>
        <interior color="e5f6f7"/>
        <outline color="000080"/>
        <font bold="true" color="000080" name="Arial" size="10"/>
        <position>100 100 100 100</position>
        <barchart active="true" height="110" width="160"/>
      </node>
      <node id="BP">
        <name>BP</name>
        <interior color="e5f6f7"/>
        <outline color="000080"/>
        <font bold="true" color="000080" name="Arial" size="10"/>
        <position>100 100 100 100</position>
        <barchart active="true" height="110" width="160"/>
      </node>
      <node id="CATECHOL">
        <name>CATECHOL</name>
        <interior color="e5f6f7"/>
        <outline color="000080"/>
        <font bold="true" color="000080" name="Arial" size="10"/>
        <position>100 100 100 100</position>
        <barchart active="true" height="110" width="160"/>
      </node>
      <node id="CO">
        <name>CO</name>
        <interior color="e5f6f7"/>
        <outline color="000080"/>
        <font bold="true" color="000080" name="Arial" size="10"/>
        <position>100 100 100 100</position>
        <barchart active="true" height="110" width="160"/>
      </node>
      <node id="CVP">
        <name>CVP</name>
        <interior color="e5f6f7"/>
        <outline color="000080"/>
        <font bold="true" color="000080" name="Arial" size="10"/>
        <position>100 100 100 100</position>
        <barchart active="true" height="110" width="160"/>
      </node>
      <node id="DISCONNECT">
        <name>DISCONNECT</name>
        <interior color="e5f6f7"/>
        <outline color="000080"/>
        <font bold="true" color="000080" name="Arial" size="10"/>
        <position>100 100 100 100</position>
        <barchart active="true" height="110" width="160"/>
      </node>
      <node id="ERRCAUTER">
        <name>ERRCAUTER</name>
        <interior color="e5f6f7"/>
        <outline color="000080"/>
        <font bold="true" color="000080" name="Arial" size="10"/>
        <position>100 100 100 100</position>
        <barchart active="true" height="110" width="160"/>
      </node>
      <node id="ERRLOWOUTPUT">
        <name>ERRLOWOUTPUT</name>
        <interior color="e5f6f7"/>
        <outline color="000080"/>
        <font bold="true" color="000080" name="Arial" size="10"/>
        <position>100 100 100 100</position>
        <barchart active="true" height="110" width="160"/>
      </node>
      <node id="EXPCO2">
        <name>EXPCO2</name>
        <interior color="e5f6f7"/>
        <outline color="000080"/>
        <font bold="true" color="000080" name="Arial" size="10"/>
        <position>100 100 100 100</position>
        <barchart active="true" height="110" width="160"/>
      </node>
      <node id="FIO2">
        <name>FIO2</name>
        <interior color="e5f6f7"/>
        <outline color="000080"/>
        <font bold="true" color="000080" name="Arial" size="10"/>
        <position>100 100 100 100</position>
        <barchart active="true" height="110" width="160"/>
      </node>
      <node id="HISTORY">
        <name>HISTORY</name>
        <interior color="e5f6f7"/>
        <outline color="000080"/>
        <font bold="true" color="000080" name="Arial" size="10"/>
        <position>100 100 100 100</position>
        <barchart active="true" height="110" width="160"/>
      </node>
      <node id="HR">
        <name>HR</name>
        <interior color="e5f6f7"/>
        <outline color="000080"/>
        <font bold="true" color="000080" name="Arial" size="10"/>
        <position>100 100 100 100</position>
        <barchart active="true" height="110" width="160"/>
      </node>
      <node id="HRBP">
        <name>HRBP</name>
        <interior color="e5f6f7"/>
        <outline color="000080"/>
        <font bold="true" color="000080" name="Arial" size="10"/>
        <position>100 100 100 100</position>
        <barchart active="true" height="110" width="160"/>
      </node>
      <node id="HREKG">
        <name>HREKG</name>
        <interior color="e5f6f7"/>
        <outline color="000080"/>
        <font bold="true" color="000080" name="Arial" size="10"/>
        <position>100 100 100 100</position>
        <barchart active="true" height="110" width="160"/>
      </node>
      <node id="HRSAT">
        <name>HRSAT</name>
        <interior color="e5f6f7"/>
        <outline color="000080"/>
        <font bold="true" color="000080" name="Arial" size="10"/>
        <position>100 100 100 100</position>
        <barchart active="true" height="110" width="160"/>
      </node>
      <node id="HYPOVOLEMIA">
        <name>HYPOVOLEMIA</name>
        <interior color="e5f6f7"/>
        <outline color="000080"/>
        <font bold="true" color="000080" name="Arial" size="10"/>
        <position>100 100 100 100</position>
        <barchart active="true" height="110" width="160"/>
      </node>
      <node id="INSUFFANESTH">
        <name>INSUFFANESTH</name>
        <interior color="e5f6f7"/>
        <outline color="000080"/>
        <font bold="true" color="000080" name="Arial" size="10"/>
        <position>100 100 100 100</position>
        <barchart active="true" height="110" width="160"/>
      </node>
      <node id="INTUBATION">
        <name>INTUBATION</name>
        <interior color="e5f6f7"/>
        <outline color="000080"/>
        <font bold="true" color="000080" name="Arial" size="10"/>
        <position>100 100 100 100</position>
        <barchart active="true" height="110" width="160"/>
      </node>
      <node id="LVEDVOLUME">
        <name>LVEDVOLUME</name>
        <interior color="e5f6f7"/>
        <outline color="000080"/>
        <font bold="true" color="000080" name="Arial" size="10"/>
        <position>100 100 100 100</position>
        <barchart active="true" height="110" width="160"/>
      </node>
      <node id="LVFAILURE">
        <name>LVFAILURE</name>
        <interior color="e5f6f7"/>
        <outline color="000080"/>
        <font bold="true" color="000080" name="Arial" size="10"/>
        <position>100 100 100 100</position>
        <barchart active="true" height="110" width="160"/>
      </node>
      <node id="MINVOL">
        <name>MINVOL</name>
        <interior color="e5f6f7"/>
        <outline color="000080"/>
        <font bold="true" color="000080" name="Arial" size="10"/>
        <position>100 100 100 100</position>
        <barchart active="true" height="110" width="160"/>
      </node>
      <node id="MINVOLSET">
        <name>MINVOLSET</name>
        <interior color="e5f6f7"/>
        <outline color="000080"/>
        <font bold="true" color="000080" name="Arial" size="10"/>
        <position>100 100 100 100</position>
        <barchart active="true" height="110" width="160"/>
      </node>
      <node id="PAP">
        <name>PAP</name>
        <interior color="e5f6f7"/>
        <outline color="000080"/>
        <font bold="true" color="000080" name="Arial" size="10"/>
        <position>100 100 100 100</position>
        <barchart active="true" height="110" width="160"/>
      </node>
      <node id="PCWP">
        <name>PCWP</name>
        <interior color="e5f6f7"/>
        <outline color="000080"/>
        <font bold="true" color="000080" name="Arial" size="10"/>
        <position>100 100 100 100</position>
        <barchart active="true" height="110" width="160"/>
      </node>
      <node id="PRESS">
        <name>PRESS</name>
        <interior color="e5f6f7"/>
        <outline color="000080"/>
        <font bold="true" color="000080" name="Arial" size="10"/>
        <position>100 100 100 100</position>
        <barchart active="true" height="110" width="160"/>
      </node>
      <node id="PULMEMBOLUS">
        <name>PULMEMBOLUS</name>
        <interior color="e5f6f7"/>
        <outline color="000080"/>
        <font bold="true" color="000080" name="Arial" size="10"/>
        <position>100 100 100 100</position>
        <barchart active="true" height="110" width="160"/>
      </node>
      <node id="PVSAT">
        <name>PVSAT</name>
        <interior color="e5f6f7"/>
        <outline color="000080"/>
        <font bold="true" color="000080" name="Arial" size="10"/>
        <position>100 100 100 100</position>
        <barchart active="true" height="110" width="160"/>
      </node>
      <node id="SAO2">
        <name>SAO2</name>
        <interior color="e5f6f7"/>
        <outline color="000080"/>
        <font bold="true" color="000080" name="Arial" size="10"/>
        <position>100 100 100 100</position>
        <barchart active="true" height="110" width="160"/>
      </node>
      <node id="SHUNT">
        <name>SHUNT</name>
        <interior color="e5f6f7"/>
        <outline color="000080"/>
        <font bold="true" color="000080" name="Arial" size="10"/>
        <position>100 100 100 100</position>
        <barchart active="true" height="110" width="160"/>
      </node>
      <node id="STROKEVOLUME">
        <name>STROKEVOLUME</name>
        <interior color="e5f6f7"/>
        <outline color="000080"/>
        <font bold="true" color="000080" name="Arial" size="10"/>
        <position>100 100 100 100</position>
        <barchart active="true" height="110" width="160"/>
      </node>
      <node id="TPR">
        <name>TPR</name>
        <interior color="e5f6f7"/>
        <outline color="000080"/>
        <font bold="true" color="000080" name="Arial" size="10"/>
        <position>100 100 100 100</position>
        <barchart active="true" height="110" width="160"/>
      </node>
      <node id="VENTALV">
        <name>VENTALV</name>
        <interior color="e5f6f7"/>
        <outline color="000080"/>
        <font bold="true" color="000080" name="Arial" size="10"/>
        <position>100 100 100 100</position>
        <barchart active="true" height="110" width="160"/>
      </node>
      <node id="VENTLUNG">
        <name>VENTLUNG</name>
        <interior color="e5f6f7"/>
        <outline color="000080"/>
        <font bold="true" color="000080" name="Arial" size="10"/>
        <position>100 100 100 100</position>
        <barchart active="true" height="110" width="160"/>
      </node>
      <node id="VENTMACH">
        <name>VENTMACH</name>
        <interior color="e5f6f7"/>
        <outline color="000080"/>
        <font bold="true" color="000080" name="Arial" size="10"/>
        <position>100 100 100 100</position>
        <barchart active="true" height="110" width="160"/>
      </node>
      <node id="VENTTUBE">
        <name>VENTTUBE</name>
        <interior color="e5f6f7"/>
        <outline color="000080"/>
        <font bold="true" color="000080" name="Arial" size="10"/>
        <position>100 100 100 100</position>
        <barchart active="true" height="110" width="160"/>
      </node>
      <node id="LV_1">
        <name>LV_1</name>
        <interior color="e5f6f7"/>
        <outline color="000080"/>
        <font bold="true" color="000080" name="Arial" size="10"/>
        <position>100 100 100 100</position>
        <barchart active="true" height="110" width="160"/>
      </node>
      <node id="LV_2">
        <name>LV_2</name>
        <interior color="e5f6f7"/>
        <outline color="000080"/>
        <font bold="true" color="000080" name="Arial" size="10"/>
        <position>100 100 100 100</position>
        <barchart active="true" height="110" width="160"/>
      </node>
    </genie>
  </extensions>
</smile>
